// Neural Network File Format by Kyle Julian, Stanford 2016
//Number of Layers,Number of Inputs,Number of Outputs,Max Layer Size,
7,5,1,20,
//Input Layer size, Hidden Layer Sizes, Output Layer Size
5,5,20,20,20,20,20,1,
/The next line is an unused flag, after that we have minimum input values, maximum input values (network inputs are truncated to fit in this range), mean input values (as well as outputs), and input (as well as output) range values 
0,
-3.4028235e+38,-3.4028235e+38,-3.4028235e+38,-3.4028235e+38,-3.4028235e+38,
3.4028235e+38,3.4028235e+38,3.4028235e+38,3.4028235e+38,3.4028235e+38,
0.0,0.0,0.0,0.0,0.0,0.0,
1.0,1.0,1.0,1.0,1.0,1.0,
//Weights and Biases start here
1.00000e+00,0.00000e+00,0.00000e+00,0.00000e+00,0.00000e+00,
0.00000e+00,1.00000e+00,0.00000e+00,0.00000e+00,0.00000e+00,
0.00000e+00,0.00000e+00,1.00000e+00,0.00000e+00,0.00000e+00,
0.00000e+00,0.00000e+00,0.00000e+00,1.00000e+00,0.00000e+00,
0.00000e+00,0.00000e+00,0.00000e+00,0.00000e+00,1.00000e+00,
-1.00000e+00,
-1.00000e+00,
-1.00000e+00,
-1.00000e+00,
-1.00000e+00,
6.39449e-01,4.41874e-01,1.81059e-01,-2.88327e-01,-4.27441e-01,
-3.96416e-01,9.43628e-01,-2.51969e-02,6.30692e-01,4.68122e-01,
7.56216e-01,5.21127e-01,1.57122e-01,3.47755e-02,1.52934e-01,
5.89038e-02,4.76117e-02,7.53012e-01,-3.31443e-01,2.49314e-01,
4.76683e-01,-1.06452e-01,1.98317e-01,-5.24024e-01,3.01397e-01,
3.28617e-01,2.74856e-01,6.70903e-01,-8.37969e-01,8.01263e-01,
-7.06942e-01,-3.85088e-01,-2.29184e-02,-5.74439e-01,-5.98055e-01,
8.17016e-01,-1.19252e-01,-8.14880e-01,6.69938e-01,2.41322e-01,
-1.48267e-01,3.30664e-01,-4.23696e-01,-6.26736e-01,-4.54921e-02,
-7.80542e-01,6.47683e-01,8.32744e-02,5.24607e-01,1.51039e-02,
-6.84754e-01,-3.57319e-01,-6.13422e-01,-5.55161e-01,-4.76067e-01,
7.04279e-01,3.02884e-01,-5.23752e-02,6.14765e-01,4.17560e-01,
1.72524e-01,1.22916e-02,-7.39793e-01,2.49501e-01,-5.79502e-01,
1.95991e-02,-6.82684e-01,-2.54847e-01,-4.70498e-01,-4.02037e-01,
3.09141e-01,-3.88953e-01,-6.30261e-01,5.02928e-01,6.03172e-01,
-5.11730e-01,-7.87377e-01,-1.15940e-01,5.09999e-01,-8.67872e-01,
3.45849e-01,7.39192e-01,3.49831e-01,-6.73896e-01,-8.19315e-01,
-4.61418e-01,3.60098e-01,4.55916e-01,-5.44014e-01,-1.21831e-01,
2.62178e-01,6.53515e-01,6.45637e-01,1.96891e-01,-6.65062e-01,
8.87791e-01,8.90622e-01,4.96471e-01,-3.65366e-01,9.20811e-01,
2.49962e-01,
3.15734e-01,
-3.46443e-01,
-5.08442e-02,
-9.67539e-01,
-6.01278e-01,
7.17444e-01,
-8.69252e-01,
-3.78414e-01,
6.55479e-01,
2.27050e-01,
8.21194e-01,
7.69282e-01,
-5.07642e-01,
9.17043e-01,
-9.36782e-02,
7.75652e-01,
-6.87303e-02,
1.70274e-01,
-9.77722e-01,
4.13727e-01,6.20690e-01,-3.91408e-01,-1.27362e-01,4.63078e-01,5.39894e-01,-5.04649e-01,5.40203e-01,1.30663e-01,-5.20586e-01,2.40899e-01,6.60015e-01,9.31679e-01,1.51951e-01,8.64028e-02,-3.01861e-01,1.46156e-01,6.57302e-01,-3.44777e-01,-2.38916e-01,
-1.59391e-01,6.18814e-01,-4.61547e-03,2.99573e-01,-4.75314e-01,-4.55707e-01,9.23250e-01,-7.17043e-01,-1.97746e-01,-1.40389e-01,-5.54680e-01,-2.61020e-01,-8.05496e-01,8.79382e-02,-7.37251e-01,5.87325e-01,-6.83063e-01,9.33973e-01,9.17557e-01,9.80800e-01,
-8.73633e-01,6.01541e-01,7.13763e-01,-7.00907e-01,-5.67101e-01,-5.71325e-01,8.86043e-01,5.65757e-01,6.34663e-01,5.23265e-01,-4.92625e-01,9.00809e-02,5.49968e-01,-3.27250e-01,7.33626e-01,3.74162e-01,9.86092e-02,-2.35189e-01,-2.06719e-01,-7.38870e-01,
1.48525e-01,-7.83369e-01,-5.02683e-01,-4.76819e-01,4.99720e-01,-3.89101e-01,1.01593e+00,-7.62263e-01,7.70053e-01,-3.96329e-01,2.11612e-01,9.25294e-01,-2.91161e-01,9.98815e-01,-7.17891e-02,6.61807e-02,-2.23514e-01,-6.22923e-01,-6.42393e-01,5.37173e-01,
-7.98695e-01,4.53849e-01,-9.27627e-01,5.04153e-01,8.14507e-01,-2.61767e-01,-8.66072e-01,1.92391e-01,5.60246e-01,-3.63083e-02,-3.39995e-01,9.03678e-01,-4.40037e-01,-7.07919e-01,-4.24347e-01,-5.76832e-01,-8.32230e-01,9.74395e-01,2.20509e-02,-2.40232e-01,
8.78910e-01,1.03333e-01,2.14957e-01,2.58155e-01,-6.67587e-01,-7.20923e-01,-6.09485e-01,-8.80926e-01,4.04965e-01,5.62574e-01,4.63479e-02,6.35292e-01,5.30875e-01,7.02575e-01,-3.77057e-01,-6.86065e-01,-7.28031e-01,3.59874e-01,-9.38967e-01,-4.36844e-01,
3.42084e-01,1.20151e-03,4.36970e-02,-9.05639e-01,-3.19392e-01,-2.32595e-01,-1.50126e-01,8.75926e-01,-2.77047e-01,-1.81699e-01,-6.29291e-01,-1.67113e-01,-1.84626e-01,5.09710e-01,3.40359e-01,-1.93718e-01,-2.33683e-01,8.74114e-01,2.67100e-01,-1.31499e-01,
-4.69976e-01,-3.45941e-01,-5.42041e-01,2.98805e-01,-8.03499e-01,8.62398e-02,7.41529e-02,-6.03680e-01,2.87712e-01,6.79332e-01,-9.46074e-02,6.63189e-01,-5.62709e-01,4.86020e-02,5.49904e-02,-1.48093e-01,-7.20775e-02,2.72820e-01,-2.33425e-01,-1.80122e-01,
5.56200e-01,-6.38203e-01,8.08421e-01,1.70505e-01,8.96926e-01,-8.61334e-01,-5.47609e-02,-8.97996e-01,-7.42146e-01,3.67745e-01,9.08674e-01,-1.49158e-01,-4.61140e-02,-7.96750e-01,2.94476e-02,8.97000e-01,-4.68436e-01,2.67802e-01,5.72549e-01,6.91397e-01,
3.25309e-01,-3.04830e-01,8.80101e-01,8.41642e-01,5.61101e-01,-1.70106e-01,1.84821e-01,-3.21485e-01,-1.46889e-01,-8.36294e-01,-1.73193e-01,-2.28472e-01,-5.91502e-01,-5.37155e-01,-2.89681e-01,7.64240e-01,6.31839e-01,-2.55987e-01,-6.95691e-01,-2.50568e-01,
-2.54553e-01,4.33790e-01,-1.17644e-01,-1.05886e+00,3.26115e-01,4.05043e-01,5.11880e-03,3.80400e-01,-1.72201e-01,1.05723e+00,-7.94357e-01,3.39882e-01,-4.67660e-01,9.88899e-01,2.64857e-02,-3.62255e-01,1.23712e-01,-9.44364e-01,-6.23311e-02,-8.10619e-01,
7.96821e-02,4.10476e-02,4.16829e-01,4.53123e-01,5.23332e-01,7.11538e-01,5.65762e-01,-5.78221e-01,-2.21134e-01,8.54212e-02,-4.00688e-01,-5.08204e-01,-1.89046e-01,4.13947e-01,-9.59883e-01,6.62459e-01,-6.22271e-01,1.25511e-01,2.42836e-01,-4.34529e-01,
-8.79568e-01,2.43779e-01,4.89167e-02,-2.02964e-01,2.35943e-01,3.29547e-01,4.20704e-01,8.62793e-01,-4.45770e-01,-5.10394e-01,1.04544e-01,-6.29266e-01,-1.01698e+00,-5.63819e-01,3.44765e-02,1.80317e-01,-7.12958e-01,4.62610e-01,-7.19956e-01,-7.45683e-01,
3.68044e-01,5.27909e-01,-4.12080e-01,3.49720e-01,-3.11690e-01,-1.57660e-01,5.15930e-02,-9.42142e-01,-5.92759e-01,-7.11911e-01,3.81376e-01,-5.50337e-01,-1.00314e-01,2.64513e-01,9.25485e-01,6.85822e-02,5.38877e-01,2.78155e-01,-2.01193e-02,6.22710e-01,
8.02682e-01,-5.81990e-01,-9.88648e-01,-8.45413e-01,-6.75026e-01,5.82062e-01,-6.97140e-01,-5.48508e-02,4.71421e-01,-8.68397e-01,-3.30598e-01,-3.83311e-01,-1.02189e+00,-7.24486e-01,-6.79778e-02,6.74209e-01,2.46846e-01,-8.40935e-01,5.33076e-01,1.88779e-01,
-4.57845e-02,-1.10775e-02,-4.20674e-01,5.52076e-01,7.71757e-01,-3.46501e-01,1.92434e-01,2.65799e-01,7.19784e-01,-9.48436e-01,5.99286e-02,-8.10737e-01,-9.10586e-01,7.27267e-02,-2.97520e-01,5.75942e-01,-3.36523e-01,-6.28466e-01,-6.77731e-01,3.31376e-01,
-1.80679e-01,4.51231e-01,3.28875e-01,-7.43506e-01,7.65083e-01,-5.58234e-01,8.30371e-01,-3.99841e-02,5.83199e-01,-3.16009e-01,2.33045e-01,1.85842e-01,-7.41439e-01,5.13572e-01,4.57195e-01,1.46267e-01,-7.17541e-01,5.72019e-01,2.51300e-01,2.83014e-01,
9.24964e-01,-3.61250e-01,-6.06434e-01,2.14868e-01,5.73302e-01,-6.65888e-01,8.32286e-01,-7.45958e-01,-8.07571e-01,1.58456e-01,4.84919e-01,8.83481e-01,-5.21885e-01,-1.59138e-01,-6.71381e-01,-9.72058e-01,-2.30188e-01,5.43350e-02,6.48296e-01,5.42880e-02,
-8.68747e-01,5.27651e-01,-5.43276e-01,1.37843e-01,-2.63031e-01,4.07324e-01,4.46347e-01,3.76231e-01,1.08633e-01,5.64486e-01,3.87775e-01,5.28012e-01,2.13888e-01,-8.32671e-01,-7.82059e-01,-2.43525e-01,-1.53652e-02,-2.31262e-01,1.84858e-03,-5.37613e-01,
8.58470e-01,3.59615e-01,7.55244e-01,6.01796e-02,-7.55024e-03,-9.49016e-01,-6.24883e-01,-5.70838e-01,1.76349e-01,2.53508e-01,-7.26239e-01,-5.17136e-01,-5.36555e-01,1.74213e-01,-1.09184e-01,-1.27758e-01,7.10053e-02,-4.23364e-01,-9.90372e-01,-8.05374e-01,
6.60740e-01,
-3.72655e-01,
1.99762e-01,
-6.35311e-02,
3.15001e-01,
-4.78000e-01,
-4.31664e-01,
3.82149e-01,
9.43083e-01,
-4.33182e-01,
7.04563e-01,
8.03468e-01,
6.75519e-01,
5.05102e-01,
-4.82646e-01,
8.94592e-01,
6.95578e-01,
6.87631e-01,
5.56398e-01,
-5.24893e-02,
6.46918e-01,-8.03648e-01,-7.93726e-01,-6.94848e-01,-1.84285e-02,-8.13919e-01,-4.49226e-01,8.89355e-01,4.44152e-01,-8.60765e-01,2.42522e-01,5.64213e-01,8.64275e-01,-2.83488e-02,7.86456e-01,2.68701e-01,8.97381e-01,-8.32786e-01,-8.45990e-01,-8.91596e-01,
8.09056e-01,9.73877e-02,-3.45843e-02,-9.89928e-01,8.30774e-01,-1.24282e-01,-2.46362e-01,5.56853e-01,-1.35314e-01,5.39394e-02,3.71661e-01,-9.82561e-01,-7.21028e-01,-7.12116e-01,-4.56228e-01,-1.93734e-01,1.29138e-01,-3.03842e-01,2.12480e-01,-4.51853e-01,
-1.01703e+00,1.44958e-01,7.53019e-02,-7.40443e-01,1.68639e-01,-3.76057e-01,5.62910e-01,6.47816e-01,-7.87831e-02,-7.13044e-01,4.86529e-01,-2.57435e-01,-3.14334e-01,-1.56084e-01,2.41816e-01,-7.68562e-01,3.92801e-01,-4.86439e-01,5.14748e-01,-2.85042e-01,
4.31795e-01,-1.35054e-01,6.55745e-01,-4.45821e-01,-8.69683e-01,-2.41698e-01,6.21774e-01,4.72378e-01,-7.23765e-01,5.59096e-01,-9.01877e-01,3.65700e-01,3.68464e-01,7.52039e-01,2.76720e-01,8.39783e-01,1.20212e-01,1.15144e-01,-3.92966e-01,5.62113e-01,
-1.92752e-01,-9.97816e-01,8.34109e-01,5.12414e-01,-1.59386e-01,9.91185e-01,-1.11289e+00,5.89378e-01,-7.71410e-01,-9.37033e-01,2.17408e-01,-9.39083e-01,2.07755e-01,3.10840e-01,-3.96807e-01,6.57226e-01,9.41150e-01,3.39840e-01,6.92548e-02,-6.22310e-01,
2.02042e-01,-7.13918e-01,-2.59263e-01,4.65778e-01,4.29925e-01,7.38984e-01,-6.21905e-01,-1.95066e-01,6.79532e-01,-7.21203e-01,-5.35673e-01,-1.59148e-01,6.67237e-01,8.91876e-01,1.52468e-02,-7.22354e-01,-4.87427e-01,6.06697e-01,6.71053e-01,-1.87041e-01,
1.04555e+00,1.09128e-01,-2.61498e-01,-6.41886e-01,-1.96789e-01,8.95813e-01,-7.73365e-01,-7.38739e-01,-8.75161e-01,-2.10429e-01,-3.17930e-01,-6.36096e-01,-5.57469e-01,-1.79294e-01,-7.77828e-01,-3.15398e-01,3.92355e-01,-9.41595e-01,1.35135e-01,3.87909e-01,
6.80404e-01,6.56120e-01,-8.18252e-01,4.90882e-01,-4.90889e-01,-4.91390e-01,4.58595e-01,-6.77532e-01,5.19207e-01,-5.60553e-01,4.19186e-01,8.54432e-02,-3.61283e-01,-1.81850e-01,5.94283e-01,-1.03597e-02,-8.11843e-01,7.26949e-01,4.67230e-01,6.58961e-01,
9.48031e-01,4.56525e-01,3.18719e-01,-6.18313e-01,1.71733e-01,-9.03017e-01,6.53621e-01,6.16651e-01,-2.17937e-01,8.79117e-01,-7.13313e-01,-6.44339e-01,-6.24149e-01,5.21257e-01,6.59497e-01,4.72795e-01,-7.14849e-01,8.01012e-01,1.49513e-01,9.23505e-02,
-2.13469e-01,8.10883e-01,-5.86136e-01,4.03628e-01,9.70081e-01,6.63677e-01,-4.21074e-01,-9.29471e-01,-1.76358e-01,-2.26335e-01,-5.64833e-01,-2.56407e-01,-9.43929e-01,7.43006e-01,3.13767e-01,7.43023e-01,3.13986e-01,-6.18764e-02,7.30228e-01,8.24678e-01,
-3.34223e-01,6.78114e-01,6.65572e-01,-7.04372e-01,8.57497e-01,3.77451e-01,3.04270e-01,9.17824e-02,-4.51518e-01,-1.13715e-01,-1.84105e-01,6.76271e-01,3.17995e-01,3.92403e-01,-7.68896e-01,9.91912e-01,-2.52263e-02,-2.62035e-01,-7.05681e-02,8.35257e-01,
-3.90025e-01,-9.17508e-02,-2.23560e-01,-2.20019e-01,9.79908e-01,1.92044e-01,-7.36379e-01,6.46994e-01,-9.37599e-01,-4.64982e-01,1.69639e-01,-9.99314e-01,-4.27702e-01,-6.57224e-01,8.78007e-01,4.43866e-01,5.24662e-01,-8.48727e-01,-8.13753e-01,2.37084e-01,
-3.21058e-01,-2.95446e-01,-9.22300e-02,6.41607e-01,6.72028e-01,-5.70520e-01,-2.50462e-01,8.96794e-01,4.30779e-01,1.73885e-01,-3.79456e-01,3.02174e-01,-9.38418e-01,-2.65376e-01,-8.50005e-01,1.64745e-01,-9.03760e-01,-6.61275e-01,8.58992e-01,8.20943e-01,
1.28516e-01,-7.43952e-01,-5.60703e-01,4.34117e-02,3.08160e-01,7.03386e-02,6.07477e-01,-7.94630e-02,-1.33798e-01,1.77411e-02,-1.84625e-01,-4.34967e-01,-4.31098e-01,-4.55255e-01,-5.50343e-01,6.84324e-01,-6.95159e-01,3.06048e-01,-1.62855e-01,7.87722e-01,
-4.38647e-01,1.01138e-01,-8.94228e-01,8.46555e-01,7.19007e-01,-8.88489e-01,3.82096e-01,-8.66624e-01,2.88518e-01,1.03886e+00,-3.34935e-01,6.06535e-01,-7.73612e-01,-5.13849e-01,-2.49417e-01,-2.31134e-01,-3.15324e-04,1.08223e-01,5.48911e-02,-3.09414e-01,
7.71702e-01,-5.94831e-01,5.75090e-01,-3.08636e-01,5.87806e-01,-1.37901e-01,3.94146e-01,4.92193e-02,5.99705e-01,2.62257e-01,7.70417e-01,-2.82040e-01,-8.07174e-01,5.41254e-01,-1.13068e-01,7.02844e-01,5.58000e-01,2.07202e-01,3.83304e-01,9.92771e-01,
2.91936e-01,-6.30525e-01,6.18168e-01,1.30148e-01,5.93927e-01,-6.18524e-01,4.56815e-01,-6.05967e-01,3.94388e-01,6.95088e-01,1.51054e-01,-2.11831e-01,2.49962e-01,-3.96690e-01,-7.59377e-01,6.08297e-01,-6.07197e-01,-4.09174e-02,-8.62512e-01,7.80530e-01,
5.80170e-01,4.58494e-01,-8.38581e-02,-6.82765e-01,-6.15963e-01,-3.44449e-01,-3.57854e-01,-4.08584e-01,-9.84872e-02,-8.33859e-01,-6.29756e-01,8.31092e-01,-9.76531e-01,9.46047e-01,8.26080e-01,8.11463e-01,-1.79759e-02,5.34299e-01,-3.67973e-01,-2.72368e-01,
-6.27349e-01,-6.19892e-02,5.82824e-01,-1.74079e-01,-7.48687e-01,8.75314e-01,2.20841e-01,9.49911e-01,6.12479e-01,-1.59072e-01,1.70782e-01,6.87133e-01,6.61176e-01,7.25007e-01,-5.93363e-01,-1.92037e-01,2.34887e-01,-6.06313e-02,6.06924e-01,5.65793e-01,
-7.40142e-01,4.26572e-01,2.91173e-01,9.35251e-01,-8.63154e-02,6.94734e-01,-4.14814e-01,-6.68939e-01,-8.44587e-01,-8.63936e-01,-8.91149e-01,8.03612e-01,-8.67876e-01,2.10227e-01,5.31245e-01,-7.50906e-01,1.78890e-01,7.26962e-01,-9.41266e-01,-3.43353e-01,
-6.88596e-01,
4.80113e-01,
2.63596e-01,
2.04957e-01,
-5.21652e-01,
-4.31882e-01,
6.04367e-01,
1.71314e-01,
-3.93151e-01,
-4.05760e-01,
-5.47539e-01,
1.06905e-02,
1.30196e-01,
-8.63754e-01,
-6.70243e-01,
1.52301e-02,
8.53938e-02,
2.14019e-02,
-7.61198e-01,
-6.88784e-01,
-7.00314e-02,-9.31035e-01,5.30768e-01,-3.11677e-02,-5.94233e-01,3.37873e-01,-8.75985e-01,7.24800e-01,-5.63933e-01,3.36680e-01,3.54630e-01,2.55865e-01,-7.58160e-01,9.58313e-02,-2.16220e-01,4.49074e-01,-5.36926e-01,-7.07682e-02,2.52250e-01,-3.52203e-01,
3.87183e-01,1.11980e-01,-7.23164e-01,-9.79233e-01,5.71351e-01,5.81799e-01,-3.69309e-01,-2.77964e-01,-7.16414e-01,-9.09812e-01,1.95435e-01,1.45192e-01,-1.76047e-01,-8.47160e-01,7.89485e-01,-1.35452e-01,-3.65397e-01,-7.35313e-01,-1.84987e-01,-5.28985e-01,
4.04293e-01,7.13378e-02,-9.77326e-01,2.59614e-01,-4.52857e-01,4.04198e-01,-4.58737e-01,7.37240e-01,-8.41363e-01,8.02911e-01,-8.50782e-01,4.78882e-01,5.89277e-01,-3.90524e-02,6.72910e-03,-4.24843e-01,-3.40433e-01,7.31620e-01,-4.79651e-01,-4.43651e-01,
2.72727e-01,-8.52536e-01,4.77035e-01,-3.96738e-01,-8.85633e-01,-6.49607e-01,-1.45269e-02,-7.61757e-01,-4.21372e-01,3.45240e-01,7.82328e-01,1.64431e-02,-4.94560e-01,6.99455e-01,1.24447e-01,-9.07856e-01,-4.98873e-01,-5.24117e-01,2.18421e-01,-7.15232e-01,
1.65082e-01,-1.66790e-01,6.45123e-01,6.45893e-01,3.28744e-01,-8.42749e-01,-7.98266e-01,-9.18606e-01,7.69404e-01,-5.59881e-01,9.45793e-01,7.29653e-01,1.78449e-01,-1.93841e-01,5.53838e-01,-3.54773e-01,-8.09348e-01,-8.78140e-01,2.25661e-01,-5.78819e-01,
6.85306e-01,3.59075e-01,2.07356e-01,7.94930e-01,1.20834e-01,5.76916e-01,-8.38037e-01,9.72733e-01,-6.42189e-01,4.76374e-02,-6.21249e-01,-7.09742e-01,-9.63846e-01,-4.67533e-01,-4.08926e-01,-1.05593e-01,3.96439e-01,-3.99939e-01,6.70428e-01,6.19837e-01,
-2.12214e-01,-2.43538e-02,-8.07031e-01,-5.34977e-01,4.01926e-01,8.61938e-01,-5.50325e-01,8.79994e-01,1.04889e+00,2.47383e-01,-7.47354e-01,3.23496e-01,3.13987e-01,5.43256e-02,-5.01711e-01,2.01136e-01,-2.35814e-01,8.54984e-01,-4.85710e-01,4.45211e-01,
-3.73981e-01,-1.34151e-01,-3.56874e-01,-3.90039e-01,8.25967e-01,5.03018e-01,5.90114e-01,2.54084e-01,-6.82333e-01,2.41918e-01,9.22235e-01,2.02935e-01,6.53640e-01,-2.62186e-01,6.31024e-01,-4.76911e-01,-5.04751e-01,-5.61097e-01,-4.62482e-01,4.56756e-01,
-5.71034e-01,3.51159e-02,7.72652e-01,-7.66900e-01,-6.67955e-01,7.11358e-01,7.98311e-01,-8.17234e-01,-1.67909e-01,1.09793e+00,-1.77606e-01,2.64991e-02,3.99821e-01,5.17043e-01,-8.44468e-01,6.39365e-01,7.49245e-02,-3.62702e-01,-7.76228e-01,-4.61637e-01,
-5.22725e-01,-1.56513e-01,7.58939e-01,5.06454e-01,3.73319e-01,3.38670e-01,1.28035e-01,7.36829e-01,-1.82377e-01,1.62480e-01,5.69814e-01,-5.32828e-01,-2.32601e-01,4.40713e-01,-9.31101e-01,6.85722e-01,-8.73266e-01,1.87163e-02,-3.20563e-01,-6.90809e-01,
7.19381e-02,-7.39993e-01,2.90584e-01,4.55250e-01,-2.24867e-01,1.98564e-02,-3.12582e-01,6.50326e-01,2.00826e-01,2.43229e-02,7.44793e-01,9.29993e-01,4.14407e-02,-2.96696e-01,-4.34797e-01,7.81124e-01,4.30579e-01,3.54207e-01,-2.68001e-01,-8.51654e-01,
3.73165e-01,6.30567e-01,-7.01564e-01,2.22442e-01,4.08377e-01,-8.29991e-01,-5.66455e-01,9.77078e-02,6.73624e-01,7.69829e-01,7.26768e-01,8.19089e-01,-3.95202e-01,7.28979e-01,7.01724e-01,2.26523e-01,-9.51018e-01,-2.51172e-01,1.83041e-01,-3.80972e-01,
8.48144e-01,5.91762e-01,3.71118e-01,-2.49780e-01,-3.07013e-01,1.48920e-01,-8.68844e-01,-1.91100e-02,-3.76416e-01,-8.61496e-01,9.52547e-01,3.04019e-01,-4.68059e-01,-2.88386e-01,-5.97034e-02,-3.31324e-01,-5.00659e-01,3.58763e-01,1.56504e-01,3.06718e-01,
-5.04220e-01,2.16201e-03,-8.33297e-01,1.38168e-01,1.59819e-01,6.23170e-01,7.75504e-01,-6.45632e-01,-5.04802e-01,2.50700e-01,-3.35730e-01,-7.86563e-01,5.29853e-01,-6.13611e-01,-2.88135e-01,4.83242e-01,-4.22544e-01,-7.22169e-01,6.25931e-01,2.93345e-01,
-3.78312e-01,3.43949e-01,1.12891e-01,-2.06465e-02,-3.15024e-01,6.36367e-01,-4.34169e-01,-3.10108e-01,-8.03742e-01,-8.32187e-01,5.23021e-01,2.92530e-02,1.68759e-01,-8.17888e-01,-7.50104e-02,-2.59763e-02,2.50501e-01,-8.44602e-01,6.32629e-01,1.48216e-01,
1.10520e-01,1.89891e-01,-7.60661e-02,2.65128e-01,7.14550e-01,-6.20653e-01,1.09552e+00,4.41811e-01,-5.65233e-01,2.01754e-01,7.15645e-01,-2.87575e-02,7.34027e-03,-3.72153e-01,3.15477e-01,2.60238e-01,2.62476e-01,-8.74570e-01,7.10535e-01,-5.59279e-01,
-6.63706e-01,1.77097e-01,3.34523e-01,5.69711e-01,-2.05879e-01,3.67934e-01,-7.05017e-01,7.67101e-02,4.77894e-01,5.43087e-01,7.09227e-01,-8.75946e-01,9.21070e-01,1.00899e+00,8.03937e-02,2.73221e-01,3.85574e-01,8.69886e-02,-8.72132e-01,-2.71691e-01,
-6.52096e-01,-5.48960e-01,-1.44867e-01,-1.92319e-01,3.60669e-01,3.08524e-01,6.59069e-02,1.87406e-02,6.99881e-01,-9.22246e-01,5.40418e-01,-2.22314e-01,5.26054e-01,2.79976e-01,6.86363e-01,-6.67432e-01,-4.66619e-01,7.28945e-01,-1.42768e-02,-4.17519e-01,
-9.77791e-01,5.52647e-01,-8.85344e-01,1.01996e-01,5.85086e-01,8.13211e-01,-2.39893e-02,7.48743e-01,3.09465e-01,7.67897e-02,-9.06960e-01,6.34476e-01,1.13702e-01,-4.02765e-01,-7.89936e-01,4.46774e-01,9.64598e-01,2.98081e-01,-8.06897e-01,5.96123e-01,
-1.67701e-02,3.36880e-01,-5.16049e-02,-9.45010e-01,-5.71084e-01,-1.76799e-01,4.90730e-01,-9.86235e-01,-2.78369e-02,-4.40021e-01,8.43046e-01,5.73315e-01,5.81707e-01,-3.33756e-01,-4.80300e-01,-4.33556e-01,-3.95227e-01,3.49751e-02,6.59391e-01,5.14703e-01,
7.31144e-01,
-1.66137e-01,
4.84028e-01,
-8.60129e-01,
9.17691e-01,
3.75813e-01,
-4.81069e-01,
4.71586e-01,
-4.26460e-02,
7.36705e-01,
-3.57101e-01,
1.18294e-01,
-5.09586e-01,
-7.31988e-01,
-5.26451e-01,
-2.70215e-01,
3.77657e-01,
-9.18563e-01,
3.84148e-01,
-4.79672e-01,
7.55308e-01,8.91141e-02,7.59650e-01,9.42932e-01,4.95690e-01,8.13279e-02,8.40133e-01,4.47991e-01,-9.29595e-01,-6.05154e-02,-6.50017e-01,6.16313e-01,3.37960e-01,7.14043e-01,5.96837e-01,4.57666e-01,1.36070e-01,-6.13207e-01,-5.54063e-01,5.86553e-01,
-1.03307e-01,5.06233e-01,-3.42043e-01,-7.14281e-01,1.54474e-01,9.04137e-01,1.63238e-01,-8.51590e-01,3.96037e-01,-2.15227e-01,-5.31410e-01,-4.45212e-01,8.32729e-01,-2.84424e-01,9.27774e-03,5.65368e-01,7.46307e-01,-4.10564e-01,5.61773e-01,8.51237e-01,
-7.90026e-02,7.54518e-01,-6.18644e-01,7.13824e-01,-4.07143e-01,-6.31113e-01,8.96636e-01,-5.45899e-01,-3.09848e-01,-5.73331e-01,-2.07049e-01,-8.12997e-01,-3.84619e-01,-4.34348e-01,5.47922e-01,-9.78699e-01,-5.16951e-01,-6.99821e-01,-3.96894e-01,-6.73846e-02,
-6.94668e-01,7.87547e-01,4.48239e-01,5.24104e-01,6.31006e-01,-5.98525e-01,-2.52478e-01,-6.74411e-02,3.12774e-01,-5.42323e-01,-3.28009e-01,-8.86888e-01,-6.86394e-01,-8.70576e-01,-3.74558e-01,1.43071e-01,-7.64881e-01,9.15393e-01,-4.99879e-01,2.27130e-01,
-4.74680e-01,7.11667e-01,8.92553e-01,5.20523e-01,8.11364e-01,2.65021e-01,-5.43578e-01,7.92397e-01,-6.43492e-01,6.15953e-01,-7.57071e-02,-8.66136e-01,-8.25869e-01,-9.33650e-01,-7.61811e-01,9.84083e-01,-6.37944e-01,4.58062e-01,8.07568e-01,-1.79015e-01,
-2.13183e-01,3.66422e-01,8.18583e-01,-8.11638e-02,1.79166e-01,4.86049e-01,8.11592e-02,8.83235e-02,2.43499e-01,-2.31176e-01,-7.61304e-01,4.57106e-01,4.94233e-01,1.88055e-01,3.89165e-01,2.89685e-02,-7.58209e-01,-5.87134e-01,-7.66993e-01,9.38496e-01,
8.01369e-01,-1.84771e-01,3.04600e-01,-2.31832e-01,6.34615e-01,-1.93781e-01,1.09526e-01,-8.69651e-01,-1.14016e-01,5.48830e-01,-6.05694e-01,-2.55178e-02,7.04310e-02,6.74536e-01,4.77986e-01,-7.93125e-01,-5.49501e-01,3.36692e-01,3.33890e-01,3.07652e-01,
7.50766e-02,-9.04289e-01,5.93962e-01,-7.85143e-01,1.18551e-01,8.08681e-01,-3.09467e-01,5.73415e-01,3.87316e-01,-7.55207e-02,1.34908e-01,7.69145e-01,-2.08180e-01,-3.97780e-01,-9.67729e-02,2.31389e-01,7.48024e-01,-4.16307e-01,-3.20668e-01,5.41341e-01,
-7.54976e-01,-5.23145e-01,7.08204e-01,-8.90564e-02,6.33623e-01,-9.36828e-01,7.36057e-01,5.46449e-01,-6.52302e-01,-8.16106e-01,5.62284e-01,-2.13263e-01,5.84696e-01,-3.03504e-01,-3.06829e-01,-5.40902e-01,5.39284e-01,-1.18891e-01,-3.18413e-01,-1.69650e-01,
7.50684e-01,-9.72086e-01,7.94066e-01,-7.05507e-01,-8.32156e-01,-1.54928e-01,5.86167e-01,4.60054e-02,6.64320e-01,-7.51427e-01,-2.47486e-01,7.85574e-01,-5.33597e-01,-8.21855e-01,-1.04590e+00,-1.49714e-01,7.65740e-01,7.48743e-01,5.89557e-01,-6.99386e-01,
-8.42878e-02,-2.36600e-01,-5.30640e-01,-4.12817e-01,6.96921e-01,3.15296e-01,2.68831e-01,-9.46460e-01,-6.79468e-01,8.77443e-01,-4.02190e-01,4.00445e-01,-3.87453e-01,-2.17392e-01,-2.50267e-01,-7.98348e-01,-8.59503e-01,1.23901e-01,1.10704e-01,-1.13624e-02,
8.19632e-01,8.14237e-01,2.21409e-01,-2.39165e-01,-7.18992e-01,-1.01493e+00,4.87831e-01,9.32557e-01,-7.01753e-01,7.47489e-02,7.56480e-01,8.36232e-01,4.80434e-01,6.78464e-01,-2.02934e-01,-6.36224e-01,-8.70812e-01,-5.99373e-01,2.88306e-01,7.00940e-01,
-3.68581e-01,-3.92808e-01,-4.74430e-01,8.49093e-01,-6.98301e-01,-7.02226e-01,-3.88922e-01,-5.11856e-01,5.27897e-01,9.94859e-01,4.72067e-01,-2.38249e-02,-9.01775e-02,-9.54033e-01,-4.17532e-01,6.19778e-01,9.70973e-01,2.98530e-01,7.17773e-01,3.55137e-01,
5.48186e-01,7.34660e-01,-1.14640e-01,-6.13064e-01,4.45923e-01,-5.17085e-01,-7.51599e-01,8.02024e-01,7.90806e-01,-4.89605e-02,-1.80335e-01,-1.23491e-01,-2.01044e-01,-6.55927e-01,8.24082e-01,-4.86914e-01,5.56481e-02,-6.31395e-01,2.02082e-01,-1.18649e-01,
-9.51188e-01,-7.05643e-01,5.13840e-01,3.10101e-01,-5.71369e-01,6.96857e-01,-6.84632e-01,-1.02689e-01,-4.53309e-01,1.01061e+00,-5.48142e-01,7.05178e-02,-4.65232e-01,6.36448e-01,2.37668e-01,7.77130e-02,6.20393e-01,-8.41884e-01,-2.38822e-01,-2.76559e-03,
-5.54689e-01,-3.80260e-01,2.78537e-01,-2.11543e-01,4.76017e-01,7.94641e-01,3.18875e-01,-8.74412e-01,2.20380e-01,1.16101e-01,-6.13792e-01,-8.57095e-03,1.64485e-01,-9.34750e-01,-1.48933e-01,9.47552e-02,-2.50195e-01,-5.73364e-01,-4.09760e-01,-6.87744e-01,
5.74760e-01,-1.63512e-01,-5.11067e-01,-6.13028e-01,7.09137e-01,-9.78378e-01,-2.65653e-01,-8.01482e-01,-8.46765e-01,-5.34130e-01,8.55898e-01,-6.65625e-02,6.16655e-01,-6.66207e-02,2.50201e-01,-9.56280e-01,-7.83253e-01,9.27260e-02,2.54774e-01,3.95731e-01,
4.53082e-01,-5.79705e-01,3.02858e-01,-9.36529e-01,-6.12042e-01,-5.16836e-01,3.37390e-01,-2.51162e-01,-4.25501e-01,-7.86957e-01,-1.16958e-01,8.97372e-01,-8.25696e-01,6.81263e-01,1.12595e-01,7.84707e-01,-1.44425e-01,2.18048e-01,-3.61849e-01,-5.89786e-01,
7.81793e-01,5.34910e-01,8.24062e-01,6.03645e-01,4.66117e-01,2.83468e-01,4.56695e-01,3.96407e-02,6.64991e-01,-6.76767e-01,2.68465e-01,7.75699e-01,-6.45863e-01,8.33016e-01,8.90965e-01,-1.33594e-01,-1.69206e-01,-1.59213e-01,9.02717e-01,3.56051e-01,
1.98849e-01,-5.14910e-01,6.88828e-01,-3.73349e-01,2.06008e-01,1.00529e+00,4.17144e-01,-2.41255e-01,3.72347e-01,5.04164e-01,3.87064e-02,-3.84969e-01,2.01329e-02,6.22076e-02,5.16643e-01,9.34332e-01,8.12694e-01,-6.12274e-01,-6.77179e-01,-7.51258e-01,
1.83497e-01,
5.47115e-01,
1.59163e-01,
3.67868e-01,
-1.44410e-01,
-4.47291e-01,
9.55937e-01,
9.24563e-01,
4.56620e-01,
4.53218e-01,
2.90202e-01,
-8.30815e-01,
5.58624e-02,
7.03154e-01,
-5.78200e-01,
6.56616e-01,
-5.87176e-01,
-4.32601e-02,
-3.97313e-01,
-3.09089e-01,
3.24921e-05,-1.75535e-02,4.40072e-01,-2.47569e-01,1.96522e-02,-1.90430e-02,-1.14186e-02,6.75115e-03,-2.00408e-02,3.55327e-03,1.92401e-02,-5.95267e-03,3.82280e-03,-5.25668e-01,-9.66884e-03,-2.40940e-02,2.30691e-02,-2.27764e-02,8.80289e-03,-7.79211e-03,
-7.42988e-01,
