// Neural Network File Format by Kyle Julian, Stanford 2016
//Number of Layers,Number of Inputs,Number of Outputs,Max Layer Size,
5,12,3,64,
//Input Layer size, Hidden Layer Sizes, Output Layer Size
12,64,64,64,64,3,
//The next line is an unused flag, after that we have minimum input values, maximum input values (network inputs are truncated to fit in this range), mean input values (as well as outputs), and input (as well as output) range values 
0,
-100,-100,-100,-100,-100,-100,-10,-10,-10,-10,-10,-10,
100,100,100,100,100,100,10,10,10,10,10,10,
0.0,0.0,0.0,0.0,0.0,0.0,0.0,0.0,0.0,0.0,0.0,0.0,0.0,
200,200,200,200,200,200,20,20,20,20,20,20,1.0,
//Weights and Biases start here
-2.57916e-01,-3.85927e-02,-2.10725e-01,-2.59682e-01,2.25760e-02,2.52023e-01,-1.08727e-01,-1.92402e-01,-2.38458e-01,-4.63187e-02,1.33177e-01,2.57046e-01,
-1.93171e-01,1.34337e-01,-5.71784e-02,1.07379e-01,-1.35402e-02,-1.83907e-01,-2.68579e-01,4.18133e-02,1.72771e-01,-1.04431e-01,2.77696e-01,2.48832e-01,
1.99962e-01,2.21648e-01,-4.12298e-02,-3.34784e-02,-7.26802e-02,2.69984e-01,2.69828e-01,2.69571e-01,1.76534e-01,5.12429e-02,2.76222e-01,1.24917e-01,
-1.61110e-01,-7.36248e-02,1.78753e-01,-9.34561e-02,8.80182e-02,2.07025e-01,6.18938e-02,6.15195e-02,-2.73724e-01,2.90637e-02,-1.97583e-02,2.72329e-01,
-2.64687e-02,-1.24596e-01,-1.11826e-02,-2.61587e-01,1.51190e-01,-1.16009e-01,9.76638e-02,1.07845e-01,2.24051e-01,-1.02434e-01,6.18702e-02,-2.77981e-01,
-1.23723e-01,-1.10494e-02,3.52768e-02,-2.51705e-01,7.13804e-02,1.96314e-01,2.13856e-02,-1.77966e-01,-2.27055e-01,-1.80497e-02,-1.22659e-01,5.19964e-02,
9.16678e-02,-2.25811e-01,2.51521e-01,1.01066e-01,-2.31345e-01,2.61549e-01,-2.40148e-01,2.86825e-01,9.77326e-02,-2.84037e-01,1.89552e-01,-1.07032e-01,
-1.65402e-01,1.10293e-01,-8.09080e-02,8.98564e-02,-9.36753e-02,2.84307e-01,1.39677e-01,1.38322e-02,-1.49123e-01,4.30419e-02,1.68601e-01,7.93894e-02,
-2.06912e-01,2.34893e-01,-2.07691e-01,-2.22807e-01,-2.73615e-01,2.87987e-01,-3.93596e-02,-2.43705e-01,2.59631e-01,2.29679e-01,-2.13236e-01,-1.78191e-01,
-5.03011e-02,6.16755e-02,-2.88524e-01,2.57243e-01,1.21524e-01,2.23270e-01,-2.66903e-01,1.53595e-01,1.77409e-01,1.52827e-01,-1.81769e-01,-2.33873e-01,
1.81024e-01,-2.75023e-01,-8.68315e-02,-2.04535e-01,9.74153e-03,-2.01445e-01,-1.51541e-01,7.58658e-02,-1.85253e-01,6.00137e-02,-1.52675e-01,-2.47045e-01,
1.75905e-01,-1.86245e-01,-1.94905e-01,-1.73209e-01,-7.53307e-02,2.32849e-01,1.28977e-01,-1.53031e-01,-1.20829e-01,-1.72806e-01,-2.50839e-02,-3.42663e-02,
-2.75236e-01,2.42365e-02,9.32660e-02,1.10158e-01,2.35146e-01,-2.81253e-01,1.41418e-01,-7.16514e-02,6.54512e-02,-2.15232e-01,-1.38491e-01,4.09352e-02,
7.89824e-03,1.06924e-01,7.61036e-02,1.10187e-01,2.85933e-02,-6.95300e-02,5.15868e-02,-9.69273e-02,-3.19358e-02,4.21997e-03,-1.28735e-01,2.46109e-01,
1.30798e-01,-2.80226e-01,-9.25125e-02,-2.07520e-01,-1.09690e-02,-1.03324e-03,-2.22279e-01,2.11281e-01,3.33628e-02,-2.64066e-01,2.38492e-01,5.80533e-03,
-1.05839e-02,2.35244e-01,5.79097e-02,9.64746e-02,1.27759e-01,-1.13617e-02,2.27665e-01,2.12721e-02,2.64796e-01,9.09820e-02,-2.69937e-01,5.86451e-02,
-8.11986e-03,-1.23750e-01,2.84134e-01,2.64144e-01,2.74330e-02,1.94619e-02,-2.41684e-02,2.00442e-01,-1.36577e-01,-4.33017e-02,2.03817e-01,-1.14280e-01,
-1.84613e-01,1.59259e-01,1.11782e-01,2.42874e-01,-2.45822e-01,2.48359e-01,-7.31951e-02,1.51091e-01,1.94717e-01,-2.22133e-01,2.04182e-01,1.63449e-01,
-2.40153e-01,-2.45228e-01,-1.52793e-01,2.53192e-01,9.74679e-02,-1.57600e-02,1.59299e-01,5.04661e-02,1.00905e-01,2.65627e-01,5.64111e-02,-2.16156e-01,
-1.06162e-01,-7.22827e-02,1.43350e-01,1.46121e-01,2.78599e-01,-1.61551e-01,-5.78084e-02,2.17784e-02,-1.14261e-01,-1.51863e-01,8.73030e-02,2.34968e-01,
2.21938e-01,1.42119e-01,-1.21860e-01,1.91259e-01,-1.53643e-01,2.00845e-01,-1.77108e-01,-1.64073e-02,-2.37147e-01,-8.98842e-02,-2.19007e-01,-1.90759e-01,
2.11794e-01,-1.54644e-01,2.51993e-01,-9.66086e-02,-2.70790e-01,-1.85252e-01,-1.86291e-01,-2.01754e-01,2.39770e-01,-1.30787e-01,2.32856e-01,-1.36084e-02,
-2.45880e-01,1.48962e-01,2.77187e-01,-1.01398e-01,-1.75451e-01,1.58077e-01,2.75670e-01,-3.53557e-02,-1.94446e-01,-2.75668e-01,-2.86813e-01,1.03262e-01,
1.26297e-01,-2.39449e-01,-4.17718e-02,-2.85754e-01,-1.13974e-01,2.43569e-01,-2.35248e-01,-1.58242e-01,1.06906e-01,-1.39058e-01,1.90202e-01,1.71347e-01,
-1.74842e-01,-5.60054e-02,-1.83617e-01,1.91194e-03,-9.76758e-02,-1.60326e-01,-1.16270e-01,-2.09059e-02,1.98255e-01,-2.57393e-01,2.69625e-01,1.94906e-01,
1.24485e-02,-2.30932e-01,8.07086e-02,-8.72019e-02,-2.05635e-01,-1.93910e-02,-1.06528e-02,4.40325e-02,-1.59698e-01,-4.31731e-02,8.20638e-02,2.06857e-01,
1.29352e-01,-2.18245e-01,2.76647e-01,-2.68949e-01,-2.17223e-01,2.20180e-02,-1.09977e-01,-1.29757e-01,2.79326e-01,1.67997e-01,2.74439e-01,1.96194e-01,
-2.61908e-01,9.30843e-02,-1.78309e-01,-1.04006e-01,-9.90332e-02,-1.99762e-01,-2.17219e-01,2.86523e-01,-2.69895e-02,2.62486e-01,1.57338e-01,9.57815e-02,
-1.94479e-01,2.56148e-01,7.21218e-02,-1.50225e-01,8.69049e-02,-1.11691e-01,2.50790e-01,-9.07950e-02,-2.60484e-01,-2.25063e-01,-1.84002e-01,-1.07705e-01,
-1.11188e-01,-7.71875e-03,-3.40256e-03,-1.05229e-01,2.65639e-01,-2.54764e-01,-2.85898e-01,-1.29843e-01,2.32637e-01,1.52944e-01,-1.67201e-01,-6.06007e-02,
-9.21626e-02,5.06484e-02,-1.56210e-01,4.90810e-02,1.69184e-01,1.73125e-01,-8.28683e-02,-2.65192e-01,-2.82667e-01,-1.91907e-01,2.11141e-01,-2.01015e-01,
5.92195e-03,1.65777e-01,-1.07492e-01,-2.13583e-01,-1.16337e-01,-2.74736e-01,-1.74564e-01,6.20566e-02,-1.47345e-01,2.46371e-01,1.03874e-02,2.29050e-01,
7.08907e-02,2.57756e-01,2.01170e-01,1.80095e-01,5.98674e-02,2.54519e-01,-9.11366e-02,-2.71404e-02,1.98507e-01,-1.68463e-01,-2.52185e-01,9.64772e-02,
-6.89650e-02,2.53717e-01,2.10811e-01,2.84987e-01,1.10531e-02,2.60053e-01,-3.85026e-02,-2.89435e-03,-9.70308e-02,1.99487e-01,1.43349e-01,2.29310e-01,
-1.98748e-01,-2.61672e-01,8.61971e-02,4.76382e-02,6.92398e-02,1.07361e-01,-4.98650e-02,1.46967e-01,1.17253e-02,2.36150e-01,-2.17471e-01,-1.04708e-01,
1.29114e-01,-1.57129e-01,7.22739e-02,1.21008e-01,-1.79555e-01,1.67603e-01,1.57423e-01,2.64430e-01,7.67663e-02,-8.33745e-02,-9.82250e-02,-3.23236e-02,
-2.55508e-01,3.63746e-02,-5.45232e-02,-2.61985e-01,1.55725e-01,2.33507e-01,2.90378e-02,2.12534e-01,-4.74001e-03,2.26485e-01,2.28366e-01,-6.22359e-02,
-1.82665e-01,8.51115e-02,2.28325e-01,1.05980e-01,-8.26043e-02,1.57815e-01,2.43931e-01,1.83914e-01,-2.58914e-02,3.71114e-02,-2.48724e-01,1.67694e-01,
2.03791e-01,-2.00774e-01,-5.03724e-03,-9.55364e-02,2.88179e-01,1.93521e-01,-1.01612e-01,7.11418e-02,2.11846e-01,-1.73147e-01,-1.39096e-01,-1.87002e-01,
-1.25363e-02,1.56300e-01,2.44467e-01,5.86143e-02,-2.57286e-01,-2.82295e-01,9.86766e-02,-1.07909e-01,-2.81156e-01,-1.06434e-01,-1.82463e-01,2.77759e-01,
-4.60223e-02,2.65844e-02,-2.26837e-01,1.80470e-01,-2.66979e-01,1.73143e-01,1.90721e-01,-9.52651e-02,-2.74185e-01,7.89824e-03,-8.97747e-02,-2.84929e-02,
-2.73122e-01,-1.56496e-01,2.59511e-01,7.71139e-02,7.95997e-02,8.53019e-02,-2.04854e-01,-8.23883e-02,1.85737e-01,-1.98727e-01,1.34604e-01,1.63316e-01,
-1.75934e-01,1.03452e-01,-2.93154e-02,-3.06929e-02,1.74523e-01,-6.22414e-02,-1.88344e-01,-1.10228e-01,-9.92233e-02,2.35863e-01,1.90132e-02,-2.99402e-02,
1.91045e-01,3.44286e-03,-2.88379e-01,-1.54719e-01,1.76853e-02,1.92563e-01,-2.77967e-01,-5.83348e-02,-9.48371e-03,-1.44174e-01,-1.20047e-01,-2.23787e-01,
-1.50575e-01,-1.48687e-01,-1.99871e-01,-1.84296e-01,6.88721e-02,4.62452e-02,2.88010e-01,-1.13095e-01,-1.96985e-01,-1.59543e-01,7.37351e-02,-2.11442e-01,
-1.14349e-01,1.51926e-01,-2.21914e-01,4.49633e-02,-1.05608e-01,4.73784e-02,1.64261e-01,1.40436e-01,2.72985e-01,-3.41865e-02,1.46324e-02,-2.31754e-01,
9.50570e-02,-5.69644e-02,-9.76697e-02,-9.48591e-02,6.64617e-02,6.56527e-02,1.09745e-01,-7.63462e-02,-1.18119e-01,-2.75650e-01,-2.01697e-01,2.66206e-02,
2.54466e-01,1.39230e-01,-2.20090e-02,-1.16318e-01,6.30176e-02,1.71228e-03,1.60828e-01,-1.32443e-01,2.37137e-01,-2.80804e-01,-4.36858e-02,-5.57910e-02,
2.24440e-01,-2.16850e-01,-1.38400e-01,2.49195e-01,3.11850e-02,2.41826e-02,6.40340e-02,-1.85101e-01,5.03442e-02,-2.87884e-01,-2.47389e-01,2.36438e-01,
-2.77946e-01,-8.74395e-02,7.62665e-02,-2.00481e-01,2.06492e-01,2.72206e-01,2.05085e-01,1.51876e-01,2.56636e-01,-2.16183e-01,2.51722e-01,1.35542e-01,
-1.15025e-01,8.23730e-02,-2.88222e-01,-7.86602e-02,-1.20512e-01,-2.74101e-01,-1.62095e-01,-2.44832e-01,1.12876e-01,7.98005e-02,-2.07128e-01,-1.91862e-02,
-1.54423e-01,4.65476e-02,-2.64543e-01,-2.44755e-01,-1.92383e-01,-1.36298e-01,-3.22915e-02,-1.26883e-01,1.13220e-01,3.56724e-02,-6.08412e-02,-1.89365e-01,
2.21608e-01,-2.61404e-01,1.23600e-02,-2.22357e-01,1.09972e-01,-2.82672e-01,1.24405e-01,2.68642e-01,6.21966e-02,-6.86033e-02,-2.97301e-02,1.52832e-02,
-2.61207e-01,2.12424e-01,-1.30738e-03,1.35790e-01,2.88890e-02,2.85232e-01,1.84114e-02,-2.18207e-01,-1.96806e-01,3.73510e-02,2.81442e-01,7.48044e-02,
4.25815e-02,-2.07457e-01,-6.52476e-02,3.92543e-02,-1.37497e-01,-2.02021e-01,-4.96928e-02,1.02379e-01,2.85541e-01,1.24067e-01,2.77864e-01,8.52362e-02,
7.56017e-03,2.54779e-01,-1.26406e-01,1.20650e-01,-9.29528e-02,-4.14101e-02,-2.48839e-01,-1.91192e-01,-2.62068e-01,-9.80269e-02,2.32512e-01,9.23932e-02,
-3.04037e-02,1.51749e-01,-2.42649e-01,-1.54946e-01,-1.02239e-01,-3.30769e-02,2.15148e-01,-1.75177e-01,-7.96873e-02,1.85099e-01,-2.10431e-01,-2.30092e-01,
-5.58553e-02,1.50974e-01,-1.70447e-01,1.73134e-01,-2.62251e-02,2.50895e-01,2.04137e-01,-4.77723e-02,-2.49492e-01,-5.27603e-02,-1.37778e-01,2.23488e-01,
-3.83203e-03,2.57868e-01,-1.34145e-01,-2.60254e-01,-2.08231e-01,-2.30617e-02,2.45801e-01,-2.53277e-02,-1.06839e-02,3.08559e-02,2.48494e-01,-2.30374e-01,
-9.55152e-02,1.24343e-01,-1.33734e-01,2.65295e-01,-1.82092e-03,-1.01441e-01,-2.12972e-01,8.89631e-02,-2.09566e-02,2.38830e-01,1.24667e-01,-2.14796e-01,
-8.11074e-04,-2.03595e-02,-2.14485e-01,-1.78975e-01,2.04871e-01,-1.39719e-01,1.59238e-01,-2.09630e-01,-1.05057e-01,-2.44988e-01,2.40587e-01,2.38425e-01,
1.25926e-01,-1.86233e-01,1.42924e-01,1.36786e-01,5.09063e-02,1.16307e-01,2.87775e-01,-1.80295e-01,-1.66365e-01,2.31706e-01,1.31241e-01,-2.86033e-01,
2.69151e-01,7.12664e-02,1.40503e-01,-1.55207e-01,-1.65596e-01,-2.64838e-01,2.85745e-02,9.39866e-02,1.22833e-01,-1.53249e-01,2.16319e-01,1.11160e-01,
-1.88365e-01,5.14351e-02,1.11511e-01,-9.99899e-02,2.17460e-01,-1.05759e-01,9.53047e-02,2.10439e-01,6.17312e-02,1.55282e-01,3.82035e-02,-2.83346e-01,
-1.22731e-01,
-1.39117e-01,
-1.40598e-01,
-2.32615e-01,
-1.72307e-01,
-2.36930e-01,
2.02601e-01,
-1.82396e-01,
-6.09042e-02,
9.92792e-02,
-1.70424e-01,
1.40134e-01,
-2.64674e-01,
5.61982e-02,
-9.56535e-02,
1.07895e-01,
8.31268e-03,
2.65226e-01,
1.10671e-01,
-1.48278e-01,
2.62572e-01,
-8.00038e-03,
-9.75207e-02,
2.45401e-01,
9.20852e-02,
-5.93475e-02,
2.48243e-01,
-5.41635e-02,
-2.87189e-01,
-1.02909e-01,
3.90001e-02,
8.92848e-02,
-7.12222e-02,
-1.58518e-01,
9.48078e-02,
1.82488e-01,
6.47541e-02,
1.04280e-01,
1.95256e-01,
-1.91746e-01,
-9.28664e-02,
2.48303e-01,
-6.44273e-02,
2.40101e-01,
-2.64321e-01,
1.23804e-01,
-2.75672e-01,
-1.37206e-01,
-1.90887e-01,
9.06622e-02,
1.05776e-02,
-2.76841e-01,
-1.99457e-01,
1.61294e-01,
6.65176e-02,
-1.73854e-01,
-9.56296e-02,
1.24933e-01,
1.86207e-01,
1.03289e-01,
-4.69020e-02,
-1.41091e-01,
7.29567e-02,
1.78631e-01,
1.34617e-03,7.53566e-02,-1.02134e-01,8.08445e-02,-8.27219e-03,-2.67221e-02,-9.22918e-02,-9.31409e-02,2.74506e-03,4.62291e-02,-7.03031e-02,-3.66745e-02,-6.37762e-02,-9.26564e-02,8.52259e-02,2.09981e-02,2.61682e-02,1.26521e-02,3.28734e-02,-7.66864e-03,-5.74758e-02,1.82887e-02,-7.54761e-02,2.69323e-02,9.66555e-02,7.97393e-02,2.00236e-03,-7.70424e-02,-1.00370e-01,-9.72806e-02,1.23136e-01,-9.83492e-04,1.10542e-01,2.76684e-02,-3.32537e-02,7.37886e-02,5.68003e-02,7.63388e-02,1.21742e-01,1.07523e-01,4.80658e-02,-8.96524e-02,9.56682e-02,1.07043e-01,-9.03397e-02,9.83419e-02,4.91957e-02,-2.47308e-02,-2.80787e-02,5.97905e-02,1.08261e-01,1.08202e-01,1.64950e-02,-5.99135e-02,-5.63031e-02,-1.22116e-01,8.05698e-02,-6.28619e-02,1.18501e-01,4.54621e-02,4.94300e-02,1.01906e-01,-1.08993e-02,-1.55913e-02,
-6.28233e-02,-1.96695e-02,1.82751e-02,-1.09462e-01,-1.09467e-01,1.03005e-01,-1.14334e-01,5.87224e-02,-8.64675e-02,2.50109e-02,-1.09073e-01,-1.49247e-02,-1.24497e-02,3.73819e-02,-3.25285e-02,-3.88660e-02,1.01638e-01,8.97646e-02,1.19230e-01,7.92062e-02,5.64420e-03,-3.12456e-02,7.11044e-02,6.45311e-02,6.68045e-02,-1.17209e-01,8.14762e-02,-4.69394e-02,8.49124e-02,1.15148e-01,1.12593e-01,-4.98202e-02,-6.02029e-02,5.88877e-02,-8.88735e-02,3.90961e-02,1.21543e-01,2.01816e-02,-3.43649e-02,-8.05024e-02,-1.01066e-01,-3.16307e-02,-2.94276e-03,2.14002e-02,-6.13810e-02,9.29984e-02,9.81424e-02,3.97913e-02,-1.19254e-01,7.12278e-02,4.54720e-02,4.08072e-02,9.14425e-02,-3.24391e-02,1.82707e-02,-7.42363e-02,1.35895e-02,-1.82354e-03,-1.54711e-02,9.76221e-02,1.12725e-01,-1.15811e-01,-7.30022e-02,-1.10472e-01,
-9.07877e-02,-4.38800e-03,-7.57923e-02,-6.67388e-02,-1.11250e-02,5.82466e-02,-1.13633e-01,-1.08329e-01,-6.64122e-02,8.06870e-02,1.00822e-01,9.71860e-02,1.10880e-01,-1.82442e-02,8.62759e-02,1.10073e-01,9.13169e-02,5.80038e-02,6.77629e-02,1.07958e-01,-3.29303e-02,1.96821e-02,-6.78571e-02,2.22100e-02,5.45810e-02,-2.72407e-02,3.23356e-02,1.02802e-01,5.80252e-02,2.82904e-02,9.91168e-02,2.80074e-02,-8.38692e-02,-7.87701e-02,-6.93854e-02,-2.54451e-02,7.73340e-02,6.13570e-02,-1.06668e-02,9.29037e-02,7.80273e-02,-7.67902e-02,9.66591e-02,-1.18673e-01,-5.83514e-02,4.58523e-02,1.05179e-01,-5.29324e-02,-5.64774e-02,1.06624e-01,5.27113e-02,9.48573e-02,4.52352e-02,-1.11259e-02,6.26441e-02,1.08171e-01,-1.10065e-01,-1.06183e-01,5.05034e-02,1.12802e-01,7.02663e-02,-5.76998e-02,9.31936e-02,-6.66035e-02,
-6.71409e-02,2.29872e-02,1.19885e-01,4.70190e-02,-4.78569e-02,-7.62381e-02,-6.34451e-02,1.13783e-01,3.69799e-02,9.33757e-02,2.49513e-02,6.07359e-02,-3.42907e-02,4.24160e-02,-1.01125e-01,-2.59242e-02,9.85692e-02,1.81379e-02,-9.75064e-02,1.08458e-01,-1.21334e-01,3.17180e-02,-1.04338e-02,1.07976e-01,1.13812e-01,-6.99575e-02,-4.57929e-02,-5.65677e-02,-3.60927e-02,5.63127e-02,-7.91879e-02,-9.11821e-02,-1.07585e-01,7.20077e-02,-9.41742e-02,-6.37971e-03,2.97504e-02,-1.23986e-01,-8.23362e-03,-1.06434e-01,-1.65792e-02,-1.31174e-02,-6.37898e-02,-4.29178e-02,6.71439e-03,1.99902e-02,1.03374e-01,-9.34052e-02,3.88137e-02,5.07896e-02,3.26000e-02,-8.46310e-02,-3.83305e-02,-5.90025e-02,5.39914e-03,1.11763e-01,9.39292e-02,-8.98568e-02,4.85670e-02,9.70689e-02,6.74401e-02,1.98172e-02,4.87621e-03,8.85339e-02,
1.40795e-02,-8.33650e-02,4.30077e-02,-4.98017e-02,1.08665e-01,-2.06566e-02,-5.82272e-02,1.20101e-01,3.24217e-02,8.36711e-03,9.80925e-02,-1.75581e-02,-8.98467e-02,9.28587e-02,3.14442e-02,7.44384e-02,-8.91119e-02,7.87765e-02,-1.19200e-01,1.09154e-01,3.38637e-02,6.88827e-02,-9.82222e-03,-5.44343e-02,-2.66490e-02,-7.22259e-02,-2.32665e-02,-3.51425e-02,1.06816e-01,7.78612e-03,-9.78812e-02,9.04581e-02,-8.56251e-03,1.22145e-01,-5.74423e-03,4.34878e-02,3.41760e-02,-1.21045e-02,8.89857e-02,-3.46912e-02,-6.83805e-02,-6.35018e-02,-1.84365e-02,-7.70280e-02,-7.05506e-03,4.29642e-03,-5.23660e-02,4.54165e-02,5.05298e-02,-7.82125e-02,-4.66172e-02,-2.62438e-02,1.01136e-01,-7.61873e-02,-3.70868e-02,1.00152e-01,-4.44362e-02,-9.25919e-02,8.27285e-02,3.48623e-02,7.22049e-03,-3.34631e-02,6.66778e-02,8.67456e-02,
-1.82384e-02,9.88440e-02,-2.47373e-02,9.78029e-02,-9.37521e-04,-1.64195e-02,6.28790e-02,-8.96304e-02,1.09786e-02,-7.00485e-02,-1.19850e-01,-5.34152e-02,7.52425e-02,7.16001e-02,1.01988e-01,1.17730e-01,-3.71547e-02,-5.41881e-04,-6.46327e-02,-5.51226e-02,1.11212e-01,1.24144e-01,-7.61770e-02,-4.64258e-02,6.64653e-02,1.13084e-01,-4.30788e-02,-5.36692e-02,-2.10275e-03,-1.36350e-02,-9.95713e-02,-1.97166e-02,1.26193e-02,8.84962e-02,-8.70268e-02,6.91464e-02,9.47475e-02,8.60974e-02,-1.40522e-02,-1.21267e-01,-5.32349e-02,6.88799e-02,5.48692e-02,-5.88344e-02,2.84179e-02,5.52933e-02,2.31606e-02,1.81814e-02,8.48921e-02,6.53733e-02,-1.07423e-01,-7.39029e-02,-3.72491e-02,-8.69869e-03,-1.10511e-01,1.17892e-02,-5.62578e-03,1.05629e-01,3.92445e-02,-1.10324e-01,-5.71474e-02,7.12311e-02,5.07828e-02,1.28214e-02,
-5.72252e-02,2.10730e-02,4.52207e-02,5.10563e-02,7.83618e-03,8.00693e-02,8.20646e-02,-8.57445e-02,6.45126e-02,2.75561e-02,7.57560e-02,-6.49509e-02,-6.53756e-02,4.54008e-02,-1.27037e-02,7.92728e-02,-1.18150e-01,8.68460e-02,7.46294e-02,8.98898e-02,-5.70551e-02,-9.70766e-02,-9.70974e-02,-3.58782e-02,-1.10668e-01,5.74630e-03,-7.37610e-02,4.15255e-02,-1.06291e-02,-3.54979e-02,-9.71698e-02,-1.22753e-01,5.24046e-02,-1.22687e-01,4.85842e-02,1.12671e-01,5.20041e-02,3.46997e-03,9.26825e-02,-8.03859e-02,1.15936e-01,-1.02653e-01,7.42191e-02,3.61694e-02,4.51407e-02,9.42766e-02,-4.23905e-02,-4.11637e-02,1.95122e-02,-2.50783e-02,7.53638e-02,-7.12060e-02,-1.17695e-01,6.18418e-03,4.35508e-02,-6.07153e-02,1.63405e-02,-2.69574e-02,-7.34143e-02,-5.49404e-02,-6.12608e-03,-8.43177e-02,7.92865e-02,3.41893e-02,
2.95620e-03,-8.92872e-02,1.12442e-01,-1.17382e-01,5.69610e-02,-7.30606e-02,5.99323e-02,6.73163e-02,5.79903e-02,-9.53495e-02,1.16564e-01,-6.78404e-02,-2.82084e-02,9.72201e-03,1.08720e-01,-1.24976e-01,-7.65672e-02,8.16274e-02,4.83172e-02,5.72337e-02,1.20677e-01,-5.89299e-02,-2.60109e-02,-4.96702e-02,-1.35002e-03,1.24371e-01,-1.60892e-02,-9.82256e-02,-1.18327e-01,-9.06125e-02,1.27034e-02,2.82045e-02,-8.68728e-02,2.42357e-02,5.29542e-02,-8.01155e-02,-5.61303e-02,7.14620e-02,-5.32152e-02,-1.10938e-01,-1.89743e-02,1.04110e-01,-6.48498e-02,2.64103e-02,1.12725e-01,-3.69744e-02,4.37709e-02,1.13858e-01,8.76142e-02,-1.19304e-01,1.05538e-01,8.94612e-03,-4.03599e-02,7.33631e-02,1.16372e-01,5.00008e-02,8.82825e-02,-8.16062e-02,8.82076e-02,9.22327e-02,-1.69740e-02,6.60276e-02,6.33922e-02,-5.60336e-02,
1.88815e-02,1.17453e-01,3.82896e-02,-9.85752e-02,-5.60639e-02,-1.18255e-01,6.99991e-03,-3.80107e-02,7.61008e-02,-3.98997e-02,6.03176e-02,9.77139e-02,5.12611e-02,7.98121e-02,1.06190e-01,-2.89739e-02,-6.42891e-02,-4.64738e-02,4.36892e-02,4.57841e-03,1.68685e-02,8.89876e-02,4.82829e-03,-1.54942e-02,-4.21105e-02,-8.38409e-02,-9.61060e-02,9.64192e-02,1.01731e-01,-7.89122e-02,-4.85937e-03,6.17913e-02,-6.58961e-02,1.64490e-02,7.95316e-02,5.46308e-02,1.13816e-01,-2.78912e-02,4.05163e-02,6.45849e-02,1.08635e-01,-1.08383e-02,-4.34917e-02,-3.04068e-02,-3.84455e-02,3.27838e-02,7.12512e-03,5.41595e-02,-9.56948e-02,1.05062e-01,-3.50882e-02,-3.07917e-02,1.09246e-01,5.18386e-02,2.36853e-02,1.01751e-01,-2.05351e-02,-6.98542e-02,1.02523e-01,-4.80317e-02,7.65869e-03,6.70630e-03,8.82275e-02,7.47818e-02,
-2.86468e-02,2.90152e-03,2.31493e-02,-8.02832e-02,-9.04544e-02,-3.51734e-02,8.04025e-02,-1.03805e-01,-5.28133e-02,8.84942e-02,5.60500e-03,8.92503e-02,-1.41286e-02,-8.26878e-02,-9.32340e-02,1.24328e-01,-3.43558e-02,1.13935e-02,-6.25526e-02,-5.60604e-03,4.17047e-02,8.76187e-02,7.11892e-02,-8.74089e-02,-1.61203e-02,-1.96721e-02,2.33784e-03,9.53179e-02,4.69522e-02,-5.21243e-05,2.74271e-02,-6.90203e-02,-2.60863e-02,-2.60031e-02,-1.13546e-01,2.21732e-02,-2.16982e-02,2.25855e-02,2.46782e-02,-1.12362e-01,3.53094e-02,-3.72685e-02,-1.23889e-01,4.01136e-02,-2.84396e-02,7.33393e-02,-8.97920e-02,-3.23254e-02,1.14868e-01,-3.56741e-02,-4.27688e-02,-4.05113e-02,-5.22590e-03,1.09641e-01,6.78044e-02,1.10347e-01,8.35893e-02,-7.04882e-02,8.44371e-02,-3.34807e-02,-3.51006e-02,3.69310e-02,1.56158e-02,5.31260e-02,
2.98649e-02,5.97086e-02,-9.78162e-02,-1.19536e-01,-3.76986e-02,9.47398e-03,1.04617e-01,-2.38815e-02,-8.65574e-03,3.09685e-02,-8.65757e-02,-3.35846e-02,-7.00119e-02,3.58159e-02,3.54316e-02,-1.16033e-01,-6.07744e-02,-6.12010e-02,4.02158e-02,-5.83462e-02,-2.29476e-02,-1.19582e-01,-9.51382e-02,-1.14965e-01,-4.41072e-02,-7.88140e-02,-1.02702e-01,-1.05188e-02,-1.09027e-01,-3.30046e-02,1.17507e-01,4.51718e-03,-1.06938e-01,6.22225e-02,2.37036e-02,-5.04981e-02,-1.96443e-02,4.24120e-02,5.06842e-02,7.26222e-03,-1.41146e-02,7.08388e-02,6.23119e-02,-2.63882e-02,1.23755e-01,3.51802e-02,2.87563e-02,-1.36538e-02,3.69291e-02,-1.09159e-01,7.93560e-02,-5.56440e-02,-1.07988e-01,8.76603e-02,-5.62610e-02,-1.10935e-01,-3.76280e-02,-2.49474e-02,9.28002e-02,-8.02728e-02,5.79070e-03,-6.42646e-02,-7.98999e-03,1.18012e-01,
1.15735e-02,2.51009e-02,9.29187e-02,9.21773e-02,2.91085e-02,-3.08719e-03,-1.00011e-01,8.24395e-02,-5.56539e-02,-1.17666e-01,2.86693e-02,1.04336e-01,-3.39451e-02,-2.61185e-02,1.22539e-01,-9.02598e-02,1.40386e-02,-3.28681e-02,9.97661e-02,-5.42228e-02,-4.08901e-02,5.35156e-02,1.16856e-01,-6.38230e-02,-1.09726e-01,1.19467e-01,1.96977e-02,3.61774e-02,7.21634e-02,9.27905e-02,9.82673e-03,-9.77716e-02,-1.22355e-01,-1.62433e-02,-9.62965e-02,-2.57611e-02,3.90886e-02,8.96183e-02,1.03231e-01,-7.16592e-02,-2.25038e-02,-1.18326e-02,-9.03866e-02,-1.23304e-01,-4.94840e-02,3.18488e-02,1.20594e-01,1.06021e-01,1.13510e-01,1.05992e-01,5.11316e-02,-4.67386e-02,-5.94913e-02,-7.74927e-02,6.92358e-02,9.12677e-03,7.22866e-02,-8.10666e-02,-2.71692e-02,2.33752e-02,1.65154e-02,-8.98955e-02,9.87746e-02,-9.62105e-02,
-1.15889e-01,3.50386e-04,-9.03805e-03,9.24761e-02,-7.53532e-02,-3.99798e-02,-2.06676e-02,8.26288e-02,6.08975e-02,-1.04520e-01,-6.25889e-02,-1.04802e-01,-7.19540e-02,-1.52095e-02,8.67611e-02,1.03378e-01,-6.63767e-02,9.57292e-02,3.43863e-02,-1.14788e-01,-4.41931e-02,3.71466e-02,-3.48066e-02,3.53727e-02,6.27802e-02,2.67878e-02,-5.35017e-02,-3.31262e-03,6.18606e-02,-7.50101e-02,-8.92832e-02,-7.65622e-02,2.55810e-02,-1.70663e-02,-1.11389e-02,7.84137e-02,-5.70804e-02,-1.22186e-01,9.83244e-02,-1.94560e-02,-7.96208e-02,-8.67638e-03,1.22149e-01,-1.10059e-01,2.57801e-03,1.08730e-01,3.57874e-02,-6.43396e-02,-8.36219e-02,-5.48996e-02,7.63293e-02,1.08705e-01,7.24353e-02,2.94419e-02,7.61877e-02,-4.63049e-03,-8.40479e-02,-4.37292e-02,-7.45178e-02,1.15369e-01,3.02771e-03,2.17974e-02,-8.62198e-02,-2.58715e-02,
-1.14949e-01,-1.23671e-01,-1.17404e-02,1.24378e-01,-2.69500e-02,-3.25681e-02,6.93356e-02,-8.93657e-02,9.19055e-02,-4.58428e-02,-1.54749e-02,2.58451e-02,-9.55923e-02,1.15964e-01,-8.35038e-02,1.15356e-01,1.08564e-01,4.30017e-02,6.13867e-02,1.06460e-01,-3.50760e-02,-1.20144e-01,-9.58494e-02,9.43270e-02,4.37701e-02,-4.44390e-02,-5.18837e-02,1.12326e-01,3.69921e-02,-3.34186e-02,-4.47830e-02,-1.11684e-02,-2.87232e-03,4.08223e-02,-1.14916e-01,-1.24956e-01,1.23509e-02,5.72817e-02,1.18743e-01,6.11500e-02,-1.07896e-01,4.09611e-02,6.54823e-03,-8.66963e-02,-1.15533e-01,1.07746e-01,-4.01694e-02,1.23963e-01,-1.04637e-01,-2.61738e-02,3.27613e-02,-2.47139e-02,-9.15453e-02,8.48051e-02,5.08056e-02,-4.54506e-02,-2.52154e-02,1.24947e-02,3.46723e-02,-1.12227e-01,1.05756e-01,-5.36940e-02,-6.90973e-02,-1.15523e-01,
1.18253e-01,3.58813e-03,-9.85364e-02,-8.14481e-02,1.06226e-01,-3.10376e-02,-5.03540e-02,-9.63720e-02,-5.16490e-02,9.26130e-02,9.36156e-02,-7.89067e-03,1.18945e-01,-1.12578e-01,3.41934e-02,8.71561e-02,-3.02079e-02,2.71143e-02,-1.09562e-01,-1.08963e-01,-3.57120e-02,-9.86791e-02,-2.63492e-02,4.27431e-02,3.02004e-02,-2.19384e-02,-9.76576e-02,1.12737e-01,5.85050e-02,-9.82287e-02,8.54421e-03,8.60990e-02,-9.11892e-02,-3.95129e-02,-1.17256e-01,9.41215e-02,9.45531e-02,-6.61361e-02,1.17585e-01,9.62469e-02,-2.31725e-02,4.68178e-02,-8.93675e-03,-3.35733e-02,2.29138e-03,-1.48495e-02,2.58546e-02,-6.81316e-02,-8.48027e-02,-2.33872e-02,-6.17139e-02,1.03487e-01,-7.09855e-02,6.04527e-03,-9.94798e-02,-2.12553e-02,3.33738e-02,6.08380e-02,-9.42432e-02,7.71710e-02,-1.27402e-02,-1.19669e-01,-1.99006e-02,8.74600e-02,
-5.27527e-02,-1.21974e-01,-1.07391e-01,3.13753e-02,3.34098e-02,-1.59017e-02,1.83442e-02,6.03478e-02,1.06310e-01,7.31680e-02,4.44971e-02,9.40739e-02,-1.01413e-01,1.17253e-01,-6.03069e-02,8.50203e-02,7.36937e-03,7.63852e-02,6.75850e-02,-7.57928e-02,-4.13939e-02,1.10009e-01,-1.14797e-03,-1.62700e-03,-8.95173e-02,1.03136e-01,-4.03793e-02,1.12105e-01,4.18279e-02,8.27514e-02,4.80353e-02,9.55256e-02,-8.24888e-02,-7.20051e-02,-1.58304e-03,-9.67234e-05,3.65593e-02,-1.20555e-01,3.23918e-02,-4.68221e-02,-1.05389e-01,1.11989e-01,-1.83172e-02,1.05762e-01,-1.67182e-02,1.33318e-02,-3.00843e-02,-7.74211e-02,-2.28198e-02,2.70496e-02,8.13167e-02,9.67726e-04,-7.95668e-02,1.13545e-01,3.25897e-02,2.18868e-02,-4.38658e-02,6.77342e-02,-1.13748e-01,-5.00598e-02,6.40499e-02,9.74357e-04,1.72272e-04,6.51684e-02,
7.71101e-03,-9.24203e-02,-5.35868e-02,8.50877e-03,-1.21852e-01,4.08586e-02,2.89194e-02,6.59747e-03,-2.39786e-02,4.42072e-02,-8.37486e-02,6.85149e-02,-1.37316e-02,-8.24305e-03,1.05500e-01,-8.21908e-03,7.86238e-02,1.00282e-01,1.85619e-02,5.75049e-02,-4.25289e-02,-1.11843e-01,-9.92592e-02,1.23532e-01,1.08356e-01,9.94296e-02,-4.55338e-02,-8.77469e-02,6.07077e-02,-1.05121e-01,-7.73865e-02,8.20172e-02,4.29475e-02,-8.67636e-02,1.16247e-01,-1.04586e-01,1.21816e-01,-1.29192e-02,3.68257e-02,-9.83374e-02,-1.74439e-02,6.23780e-02,6.79699e-02,-2.43812e-02,-9.63949e-02,-4.41763e-02,3.62013e-02,1.99696e-02,6.15043e-02,8.07434e-03,-3.04690e-02,1.02394e-01,1.08770e-01,-5.93219e-02,-3.40564e-02,-1.69950e-02,4.14782e-02,2.85431e-02,-9.92641e-03,8.43927e-02,-2.60356e-02,8.21584e-02,2.56789e-02,7.25210e-02,
9.47653e-02,9.43612e-02,-1.45029e-02,-3.80962e-02,-8.00522e-02,1.19361e-01,5.72351e-02,-1.02510e-01,1.34847e-03,6.05793e-02,6.82437e-02,-1.07898e-01,1.13056e-01,-5.22053e-02,-5.12750e-02,5.64526e-02,1.20266e-01,9.99509e-02,5.58957e-04,-1.14582e-01,2.68690e-03,6.86293e-02,2.57832e-02,2.39273e-02,4.23461e-02,-3.81757e-02,-2.46906e-02,9.98247e-02,9.48849e-02,5.76536e-03,-5.67975e-02,-1.07182e-01,2.98919e-02,4.54445e-02,2.52401e-02,-1.05321e-01,-2.68569e-02,-1.23589e-01,-7.88132e-02,-4.08626e-03,-6.15740e-02,-1.04807e-01,6.17894e-02,-9.94766e-02,1.08650e-01,-1.16434e-01,5.39483e-03,9.41163e-02,7.80410e-02,7.98521e-02,4.84343e-02,-8.87136e-02,3.30580e-02,-4.35245e-02,-7.79243e-02,6.68575e-02,7.96969e-02,1.05427e-01,-5.37765e-02,3.17080e-02,9.10140e-02,-4.12374e-02,-5.61868e-02,5.44057e-02,
-1.81830e-02,4.07405e-02,-9.46243e-02,9.64597e-02,3.30399e-02,1.17825e-01,-4.53142e-02,1.24123e-01,-6.95722e-02,9.92934e-02,7.53538e-02,-1.04521e-01,-4.99686e-02,4.76019e-02,4.27060e-02,-3.89962e-02,-4.01078e-03,-8.74567e-02,-5.87518e-02,6.14350e-02,2.40951e-02,8.01413e-02,3.91714e-02,-5.44615e-03,7.08416e-04,1.16903e-01,4.28161e-02,-4.51408e-02,-3.83526e-02,-9.15432e-02,-2.59233e-03,5.17347e-03,-3.05538e-02,-1.23900e-01,7.34098e-02,5.95005e-02,-5.60636e-02,-5.69123e-02,1.55176e-02,4.26073e-02,1.19986e-02,-1.24917e-01,9.95352e-02,-5.85927e-02,-6.31531e-02,5.33046e-02,-2.72103e-02,-4.16492e-02,7.43277e-02,6.14136e-02,9.50411e-02,8.98745e-02,2.91720e-04,5.16073e-02,-2.77788e-02,9.02633e-02,8.62156e-02,4.11558e-02,-6.99252e-02,-1.30571e-02,3.65717e-02,7.68163e-02,-1.55056e-03,-1.08353e-01,
6.05275e-03,-7.38221e-02,1.75693e-02,-2.79281e-02,8.40243e-02,1.11544e-01,1.00582e-01,6.54593e-02,3.08047e-02,-9.77796e-02,-1.03867e-01,1.01483e-03,7.30609e-02,-1.03026e-02,-1.14128e-01,1.16837e-01,-1.07772e-01,-2.80741e-02,8.73358e-02,3.19238e-02,1.16790e-01,-3.72029e-02,9.24377e-02,7.14292e-02,-1.24886e-01,5.96906e-02,-8.95435e-02,-6.71144e-03,5.39525e-02,-5.18412e-02,5.66230e-02,-5.01056e-03,-2.31162e-02,4.34127e-02,-7.22283e-02,-1.75397e-03,-4.86336e-02,-2.99628e-02,1.22621e-01,-3.08181e-02,-1.06721e-01,-1.05807e-01,1.06304e-01,1.00792e-02,4.84969e-02,-2.06388e-02,-4.50257e-02,9.85970e-02,3.63540e-02,2.65852e-02,5.83663e-02,9.70307e-02,-6.56691e-03,6.23132e-02,-3.79346e-02,-8.11834e-02,7.81069e-02,1.15207e-01,-7.87143e-02,-5.82815e-02,-1.89123e-02,1.19608e-01,1.16619e-01,8.73374e-02,
8.00223e-02,-2.46149e-02,4.58515e-02,1.07416e-02,3.35557e-02,-1.04157e-01,-1.11608e-01,-1.20638e-01,-2.39950e-02,6.69901e-02,-1.08455e-01,7.98865e-02,-5.26644e-02,5.00762e-02,1.05401e-01,5.01821e-02,1.24025e-01,4.12809e-02,-6.82746e-02,-2.90426e-02,9.23043e-02,8.14525e-02,-1.86372e-03,-2.48694e-02,7.88053e-02,1.10794e-01,-4.44582e-02,1.25180e-03,-4.75635e-02,-1.01329e-01,1.04180e-01,6.51184e-02,-7.53376e-02,-6.16483e-02,1.20157e-01,-8.88041e-02,1.15242e-01,-8.71068e-03,-7.92571e-02,-6.56605e-02,-3.60308e-02,-5.71732e-03,-6.22940e-02,2.48794e-02,2.13783e-02,-8.58140e-03,1.09691e-01,5.86367e-02,-6.61164e-02,7.71122e-02,7.22871e-02,-6.63271e-02,-2.55596e-02,-8.63781e-02,2.42931e-03,-8.54406e-02,-8.04835e-02,-3.54306e-03,2.76409e-02,-1.57722e-02,7.51600e-02,6.40123e-02,3.06158e-03,7.30000e-02,
1.15141e-02,1.23043e-01,-6.41678e-02,1.13135e-01,9.59679e-02,1.42834e-02,-3.48003e-02,-1.24619e-01,-5.80375e-02,-9.98135e-02,-2.36912e-02,5.55364e-02,4.83949e-03,-7.33962e-02,-1.70342e-02,6.95012e-02,-5.58325e-02,3.55856e-02,4.04587e-02,9.33171e-02,-1.22704e-01,-3.39921e-02,-1.04633e-01,9.28456e-02,-9.32627e-02,-1.06374e-01,5.48817e-02,7.90192e-02,-2.54470e-02,5.12230e-02,6.93401e-02,9.77484e-02,6.97519e-02,4.02073e-02,-9.97439e-02,-4.45275e-02,-6.23091e-02,1.60163e-02,3.64002e-02,-5.45290e-02,-3.54472e-02,7.81590e-02,-1.08115e-01,-4.10403e-03,1.17761e-01,1.24398e-01,-7.37485e-02,-1.10211e-01,-1.14016e-01,1.07546e-01,2.36570e-02,-1.08006e-01,5.21392e-03,-6.58405e-03,1.90575e-02,1.17200e-01,-4.81319e-02,6.53741e-02,1.03400e-01,-4.08984e-02,-9.45454e-02,-8.88301e-02,9.17947e-02,8.36523e-02,
-3.90668e-02,3.66660e-02,-3.52904e-02,-5.51514e-02,-6.24448e-02,8.01323e-02,-4.08486e-02,9.20813e-03,-1.08905e-01,9.38975e-02,2.30267e-02,-7.20339e-02,8.75179e-02,8.87546e-02,8.25590e-02,-2.38983e-02,-1.23940e-02,1.18312e-01,-3.16551e-02,1.07247e-01,8.13528e-02,-6.63904e-02,8.38095e-02,9.97504e-02,-4.69062e-02,-1.17441e-01,-7.51662e-02,-5.66459e-02,2.94631e-02,6.85471e-02,2.35943e-02,-9.84320e-02,-2.44548e-02,-8.07485e-02,-1.16040e-01,-1.23726e-01,1.19553e-01,3.06118e-02,5.21720e-02,9.82356e-02,-1.26605e-02,-8.60083e-02,-6.48397e-02,-6.48506e-02,-8.68284e-02,-6.56390e-03,8.44326e-02,5.87882e-02,6.34233e-02,5.07026e-02,4.01815e-02,1.18132e-01,-5.39408e-02,6.63325e-02,-2.74627e-02,-3.49796e-02,-5.47415e-02,-8.35145e-02,-7.43106e-02,-9.18689e-02,3.06790e-02,8.44009e-02,3.22471e-02,-7.73923e-02,
6.37752e-02,1.04515e-01,-7.76967e-03,-9.68732e-02,1.01521e-01,1.85275e-02,1.16491e-01,-1.03188e-01,-8.59241e-02,-3.45790e-02,2.17679e-03,-5.67765e-02,-9.16752e-02,-9.96604e-02,1.71336e-02,3.14690e-02,-7.40007e-03,1.13601e-01,-5.41346e-02,1.21106e-01,4.07875e-02,-3.99521e-02,1.11309e-02,-8.94380e-02,4.10664e-03,-7.74149e-02,1.52418e-02,-1.18469e-02,-9.45371e-02,9.19766e-02,3.05076e-02,9.91746e-02,-4.95124e-02,6.91189e-02,-5.96102e-02,-7.35850e-02,-1.18957e-01,9.48283e-02,-6.08850e-02,3.77525e-02,-7.79803e-02,-6.68477e-02,8.66893e-02,-2.97506e-02,-7.07806e-02,3.76772e-02,-2.41471e-02,3.77789e-02,3.44924e-02,-1.11275e-01,-8.63164e-02,-2.24189e-02,-9.90020e-02,-1.01253e-01,-6.24576e-02,-6.60946e-02,4.00370e-02,-6.81837e-02,1.01198e-02,1.55168e-02,-1.01203e-02,-1.07362e-01,8.89848e-03,-5.75364e-02,
-1.29425e-02,-2.92122e-02,-3.05649e-02,4.98905e-02,7.89015e-02,-3.17482e-02,6.15104e-02,-5.11243e-02,3.97593e-02,3.77298e-02,8.28530e-02,-1.11327e-01,-1.20006e-01,-2.33305e-02,-1.12195e-01,1.17013e-01,9.57834e-02,-6.05759e-03,-5.58782e-02,9.50515e-02,3.36376e-02,1.11219e-01,8.62394e-02,8.78707e-02,-1.35837e-02,3.30038e-02,-3.97046e-02,1.15198e-01,1.20229e-01,8.37354e-02,3.02717e-02,-6.75886e-02,-9.27918e-02,4.20231e-02,9.06704e-02,-2.05888e-02,-1.63733e-02,6.18556e-02,9.66753e-03,-3.27614e-02,-5.78313e-02,-4.35362e-02,3.72156e-02,-4.12554e-02,-7.78773e-02,-2.97807e-02,-6.88182e-02,-1.19691e-01,1.09587e-01,3.39648e-02,-1.23820e-01,5.33644e-02,3.48095e-02,6.84938e-02,-4.87757e-02,3.56720e-02,-3.39915e-02,7.47844e-02,-2.82066e-02,-8.31014e-02,7.54235e-02,8.76074e-02,-9.30846e-02,1.23584e-01,
-4.44223e-02,1.15241e-01,-1.95318e-02,1.22962e-01,-1.47626e-03,-4.10851e-02,-1.83125e-02,-1.05528e-01,7.41981e-02,-1.17272e-01,1.95106e-02,-7.79808e-02,-2.40646e-02,7.21450e-02,3.67098e-02,1.73159e-02,-7.98342e-02,8.09845e-02,-4.79342e-02,-4.77663e-02,6.53875e-02,1.06045e-01,7.67053e-02,-6.18126e-02,-1.01453e-01,7.34574e-02,1.24570e-01,7.77020e-02,1.11657e-01,5.67045e-02,1.73284e-03,1.15666e-01,-8.67994e-02,-8.53006e-02,7.92221e-02,7.08457e-02,4.61824e-02,1.18220e-02,4.90728e-02,-8.10487e-02,4.04550e-02,-1.15020e-01,-1.10747e-01,8.73557e-02,2.44439e-02,9.60598e-02,2.99908e-02,-7.15877e-02,1.05880e-01,-8.21470e-02,3.63850e-02,-1.23325e-01,-7.16482e-03,-5.91197e-02,-1.11324e-01,-3.76703e-02,-3.47438e-02,-1.11121e-01,-1.00489e-01,7.40037e-02,-2.45168e-02,-7.31683e-02,-9.07808e-02,-4.02734e-02,
7.43405e-02,1.11103e-01,-2.99091e-02,-2.24667e-02,-1.11437e-01,-3.63239e-02,-3.11000e-02,-9.02788e-02,-9.51699e-02,3.78592e-02,2.17479e-03,-1.49024e-02,1.10214e-01,4.19298e-02,9.00756e-02,-5.75894e-02,-9.68072e-02,-8.58767e-02,4.34786e-02,-2.77866e-02,9.04901e-02,-4.24951e-02,8.01596e-02,4.65273e-02,5.56437e-02,6.85232e-02,-7.00721e-02,-7.00212e-02,-2.65188e-02,4.86209e-02,1.19730e-01,-7.96629e-02,-1.89587e-02,-5.91443e-02,1.23687e-01,-3.15157e-02,-8.16218e-02,4.00806e-02,-9.18759e-02,1.04244e-01,-1.23365e-01,3.60470e-02,-8.80258e-02,7.94041e-02,7.16230e-02,4.13314e-04,7.12038e-02,-1.24955e-01,3.51609e-02,8.07784e-02,5.38826e-02,-1.16410e-01,8.70460e-02,2.49601e-02,1.47425e-02,5.87648e-02,-9.23199e-02,-7.14736e-02,-1.02649e-01,1.45565e-03,-4.64787e-02,9.71064e-04,-1.23867e-01,-1.14231e-01,
8.12745e-02,-8.97036e-02,-8.75673e-02,-3.90579e-02,-1.17959e-01,-6.39064e-02,-4.59343e-02,-7.65700e-02,9.20557e-02,6.06069e-02,1.03877e-01,1.09273e-01,-8.31791e-02,-1.98706e-02,-1.65540e-02,-3.58421e-02,-1.96543e-02,1.19752e-01,-9.29170e-02,-6.17874e-02,7.83166e-02,4.29265e-03,8.08236e-03,8.24540e-02,-7.57562e-02,7.27852e-02,1.15940e-01,-1.49141e-02,-7.58462e-03,-2.66905e-02,-6.15524e-02,-1.98878e-03,6.22454e-02,1.15246e-01,-8.04222e-02,-1.97565e-02,4.66763e-02,-1.03903e-01,7.74960e-02,-5.06054e-02,-8.06879e-02,-9.87377e-02,-1.12004e-01,-1.10419e-01,5.13590e-02,9.57598e-02,5.30607e-02,-4.04176e-03,1.42086e-02,-1.14744e-01,3.24851e-02,-9.69692e-02,7.06110e-02,8.13418e-02,3.77610e-02,-3.79021e-02,3.65498e-02,-1.47030e-02,-1.04544e-01,4.60197e-03,7.99253e-02,-1.82402e-02,-1.30768e-03,-6.78853e-02,
-1.14129e-01,1.01977e-01,3.41610e-02,1.17074e-01,1.05708e-01,1.46670e-02,-3.22273e-02,-1.11776e-01,6.90863e-02,-8.47891e-02,-6.91301e-02,-5.21293e-02,2.58063e-02,-9.45336e-03,7.48778e-02,-1.16437e-01,-8.95733e-02,1.02961e-01,-8.68073e-02,-3.06745e-02,8.87040e-02,8.18861e-02,-8.91624e-02,6.77045e-02,-1.00383e-01,5.29788e-02,1.83671e-02,-4.87672e-02,-6.61231e-02,-6.47287e-02,-6.94574e-02,-4.07618e-02,-8.43508e-02,-6.27131e-02,6.87865e-02,-1.04776e-01,2.60393e-02,1.09266e-02,1.00984e-01,-1.13198e-01,6.81559e-02,-5.49131e-02,1.09642e-01,8.90743e-02,8.82750e-02,8.18944e-02,-1.13593e-01,-8.56089e-02,4.57639e-02,5.49915e-02,6.98852e-02,-2.94159e-02,7.62637e-02,-5.87946e-02,1.98449e-02,1.17840e-01,-3.95022e-02,1.00515e-01,4.64328e-02,8.20831e-02,-1.12188e-01,-8.63432e-02,-1.11949e-01,1.13567e-01,
-4.23281e-02,1.02676e-01,1.39886e-02,5.57007e-02,3.97883e-03,6.41583e-02,5.85583e-02,-1.12460e-01,1.92856e-02,8.08526e-02,5.33928e-02,1.16207e-01,-9.05477e-02,9.02482e-02,7.17246e-02,9.19240e-02,-8.70486e-02,-4.65866e-02,-3.31841e-02,2.41399e-02,-7.50243e-02,-8.87515e-02,-2.73192e-02,7.46206e-02,1.11170e-01,5.49396e-02,-3.60799e-02,3.34174e-02,3.58966e-03,-5.52112e-03,-1.02186e-01,-4.99445e-02,1.10101e-01,1.01638e-01,-4.55745e-02,-4.23016e-02,9.87938e-02,9.90017e-02,-9.58318e-02,-1.15647e-01,-2.70679e-02,-6.12266e-02,-1.62519e-02,4.27879e-02,2.83632e-02,-8.83835e-02,8.95183e-02,2.59433e-02,9.80342e-02,9.86887e-02,7.18279e-02,2.56586e-02,7.20693e-02,-9.48599e-02,-1.06976e-01,1.90471e-03,2.46712e-02,-1.05314e-01,-6.88575e-02,1.17629e-01,-9.33204e-02,1.17101e-01,-5.04287e-02,-1.14267e-02,
1.11718e-01,-5.84890e-02,1.07533e-03,5.58722e-02,8.90335e-02,-1.08423e-01,1.18115e-01,-9.78973e-02,6.16373e-02,7.33474e-02,1.13885e-01,-5.22970e-02,4.69713e-03,-8.00599e-02,-6.43345e-02,1.24034e-01,7.55563e-02,-1.22452e-01,-9.87175e-02,4.70818e-02,-5.55601e-02,1.13566e-01,1.09341e-01,-8.41465e-02,-3.57774e-02,-2.77102e-02,8.45554e-02,4.79784e-02,-8.00621e-02,-5.21725e-02,1.27378e-02,5.14818e-02,9.03525e-02,-7.14056e-02,1.13601e-01,5.99871e-02,-5.52431e-02,1.08984e-01,-1.22509e-01,3.91026e-02,8.08720e-02,-1.17229e-01,1.23582e-01,8.98419e-02,1.85651e-02,-1.00390e-02,-1.59555e-02,-1.08597e-02,1.13657e-01,-6.23980e-02,4.94637e-03,-9.47459e-02,-7.63144e-02,1.14972e-01,-9.24831e-02,-4.92974e-02,9.04517e-02,2.42182e-02,3.42373e-02,1.12511e-01,-3.42077e-03,-2.74861e-02,1.06438e-01,-1.18472e-01,
-4.22321e-02,3.57063e-03,1.12888e-01,9.75729e-02,-8.09021e-03,2.76493e-02,3.45809e-02,-8.63236e-02,1.66295e-03,-3.68844e-02,-4.73334e-02,3.10553e-02,-9.11369e-02,-9.13614e-02,6.43469e-02,5.93887e-02,-4.40233e-02,1.20535e-01,9.70127e-02,2.84531e-02,-2.81443e-02,-7.61101e-02,1.16767e-01,8.83232e-02,-1.09953e-01,5.55538e-02,-1.61746e-02,4.01400e-02,-8.27577e-02,-2.65022e-02,4.97641e-02,-5.80279e-02,-9.21169e-02,1.22330e-01,-5.87178e-02,1.17683e-01,5.62959e-02,-4.26681e-02,-9.77863e-02,2.19231e-02,-8.27957e-02,-1.01261e-01,-8.37337e-02,4.40799e-02,3.34138e-02,1.07571e-01,8.44891e-02,4.57854e-02,-1.01876e-01,-1.04946e-01,-1.00685e-01,-4.84646e-02,1.17197e-01,2.38933e-02,-8.35516e-02,1.18014e-02,-3.95213e-02,-1.10193e-01,7.03657e-02,5.20213e-02,5.02647e-02,1.19644e-01,-3.78337e-02,-3.90087e-02,
8.49389e-02,1.18325e-01,-7.40083e-02,4.28541e-02,-1.24244e-01,-4.25583e-02,3.57667e-02,-3.47811e-02,-6.26499e-02,-2.92608e-02,-2.39051e-02,6.89492e-02,9.08381e-03,8.59409e-02,1.24861e-01,-1.26580e-02,4.07617e-02,-8.15058e-02,5.69895e-02,-2.86981e-03,-1.21400e-01,9.40415e-02,5.55331e-02,-2.85181e-02,-5.11983e-02,4.15855e-02,1.39909e-02,-1.01985e-02,5.79610e-02,-2.18536e-02,-7.56557e-02,-3.02552e-02,8.08920e-02,-1.17636e-01,9.19000e-02,7.52737e-02,9.86326e-03,8.57328e-02,-1.05529e-01,-5.61396e-02,-2.79602e-02,-1.24565e-01,6.38424e-02,1.22004e-01,4.44264e-02,-1.05709e-01,-6.18906e-02,-1.23511e-02,-8.48024e-02,1.23327e-01,7.07587e-02,-3.22346e-02,-1.48958e-02,-1.15088e-01,8.53247e-02,-1.10094e-01,-5.49945e-02,-6.95708e-03,1.05732e-01,2.75264e-02,7.75840e-02,-5.71186e-02,-8.49312e-02,-7.77573e-02,
-1.09606e-01,3.75509e-02,-7.61103e-02,-1.11799e-01,9.61572e-02,1.07769e-02,8.96723e-02,-9.29532e-02,5.09671e-02,-1.58691e-02,-1.04339e-01,3.07610e-02,-8.32650e-02,-3.51217e-02,4.42123e-02,7.59861e-02,9.43185e-02,-5.22807e-02,1.84830e-02,8.72421e-03,-4.78456e-02,2.44162e-02,-6.86097e-02,-4.05585e-02,-1.08168e-01,2.97440e-02,-1.20802e-01,4.28835e-02,-3.94804e-02,9.64124e-02,9.84565e-02,-2.66648e-02,9.63093e-02,-7.03611e-02,-9.24178e-02,-9.91316e-02,-4.26601e-02,-7.56077e-03,1.14767e-01,-1.06132e-01,-4.15333e-02,1.19745e-01,-8.83908e-02,-9.08934e-02,1.60084e-02,4.60100e-03,8.52159e-02,-3.80388e-02,5.03161e-02,-1.19789e-01,1.03604e-02,3.77905e-02,-4.12896e-02,6.67164e-02,-8.82785e-02,-6.14023e-02,-5.54056e-02,-4.77324e-02,-8.22609e-02,-3.08761e-02,-1.19720e-01,1.06980e-01,-5.46222e-02,5.43333e-02,
-5.36098e-02,2.83895e-02,-5.87498e-02,9.17410e-02,-1.17904e-01,5.74532e-02,9.17003e-03,-9.79623e-02,-4.91646e-02,4.77380e-02,-1.22636e-01,-8.86218e-02,1.72430e-03,9.96729e-02,-9.04207e-03,1.04086e-02,-5.06396e-02,-1.17785e-01,-1.00221e-01,-7.38024e-02,3.47246e-02,1.73668e-02,6.25996e-02,1.00812e-01,8.47254e-02,5.53796e-02,-4.56146e-02,-1.41484e-02,9.66504e-04,9.49496e-03,4.46563e-02,-5.30701e-02,7.89404e-02,2.88889e-02,-1.01663e-02,7.70999e-02,9.51869e-02,-3.94810e-02,-1.24557e-01,4.02079e-02,-7.56061e-02,2.90705e-02,-1.69791e-02,-2.62431e-02,2.50943e-02,-8.89569e-02,-9.26865e-02,6.32602e-02,-1.20774e-01,-7.99067e-02,5.81122e-02,-3.61685e-02,9.05801e-02,8.56798e-02,-8.77985e-02,1.20254e-01,6.56361e-02,-8.27002e-02,1.35526e-02,-2.05037e-03,-2.68272e-03,7.88047e-02,1.13355e-01,-1.08989e-01,
8.72747e-02,-8.73990e-02,-1.16744e-01,5.45095e-02,-1.96851e-02,7.13798e-02,9.53321e-02,-3.67215e-02,-1.01333e-01,7.51461e-02,-1.10209e-01,3.90745e-02,2.15101e-02,-4.18217e-02,-4.52183e-02,-1.09641e-01,-1.21243e-01,-1.05829e-01,8.59744e-02,5.88263e-02,1.20921e-01,2.97379e-02,8.74931e-02,-4.20901e-02,5.99229e-02,-8.32194e-02,-7.16491e-02,1.14783e-02,5.37922e-02,2.61901e-02,-9.03457e-02,-1.20673e-01,8.00168e-02,-2.67136e-02,-1.09230e-02,2.07187e-03,-8.25014e-02,-1.09897e-02,9.09628e-02,-4.80168e-02,9.74854e-02,1.18988e-01,-1.22306e-01,-1.89981e-02,8.00382e-02,-1.08727e-02,-2.89359e-02,-1.24553e-01,-4.55405e-02,-8.89596e-02,9.01945e-02,-2.45230e-02,1.04934e-01,-6.56386e-02,1.97949e-02,5.57383e-02,4.93256e-02,-2.23697e-02,5.66802e-02,-3.65389e-02,1.52570e-02,-9.74976e-02,1.23903e-01,-5.60031e-02,
7.96634e-02,-8.26907e-02,-6.92677e-02,4.12066e-02,-4.17589e-02,5.73983e-02,-6.29128e-02,1.58384e-03,-1.07918e-01,-1.04626e-01,-3.40578e-03,1.00668e-01,-6.68215e-02,-1.24595e-01,7.50625e-02,-5.69776e-02,-2.72162e-02,-9.93599e-02,-1.14170e-01,7.33461e-02,-7.22354e-02,1.19657e-01,-6.74125e-02,5.03047e-02,-9.95451e-02,1.05471e-01,-2.76958e-02,1.21139e-01,4.22954e-02,-6.31786e-02,-6.62345e-02,-5.13024e-02,-2.33312e-02,-4.85609e-02,1.20348e-02,1.08263e-01,7.31787e-02,-6.82490e-02,1.26021e-02,3.47657e-02,1.13876e-01,8.45287e-02,-7.89928e-02,1.23789e-01,-4.55581e-02,-1.13424e-01,1.19699e-01,-2.77528e-02,-6.43590e-03,5.89437e-02,-7.09765e-02,-7.40950e-02,-1.20599e-01,-7.86301e-02,-1.73004e-02,-7.57952e-02,9.57278e-02,8.44297e-03,1.23685e-01,1.07808e-02,1.24971e-01,-9.45120e-02,3.27576e-02,1.09539e-01,
-6.34032e-02,-1.15267e-01,9.07500e-02,-4.76646e-02,1.01665e-02,7.26030e-02,-2.11671e-02,1.24524e-01,-1.13135e-01,-3.41332e-02,4.56529e-02,5.57338e-02,4.02303e-02,3.78626e-02,6.24424e-02,9.75549e-02,-3.27321e-02,1.02056e-01,-1.12564e-01,1.13385e-01,1.12462e-01,1.18884e-01,1.15758e-02,-6.69245e-02,1.00741e-01,-6.15686e-04,1.20551e-01,-6.37270e-02,6.87634e-02,1.03136e-01,-3.42079e-02,2.75763e-02,-2.96620e-02,-7.99204e-02,-5.35655e-02,1.73167e-02,-1.08502e-01,-9.85957e-02,6.98620e-02,-1.12372e-01,-7.75515e-02,2.53960e-02,1.10890e-01,-2.00099e-02,-8.12324e-02,2.14951e-02,1.01685e-01,6.61010e-02,-7.35975e-02,-6.18844e-02,2.07399e-02,-5.79479e-02,-2.91681e-02,-7.60372e-02,-9.31742e-02,8.02787e-02,-1.12159e-01,4.25214e-02,5.76526e-02,-7.83946e-02,-6.88060e-02,-7.13771e-02,-7.99645e-02,6.51902e-02,
2.30004e-02,8.89269e-02,-9.80884e-02,4.66060e-02,-2.50384e-02,1.18159e-01,1.04847e-02,1.10101e-02,-5.89277e-03,7.64068e-02,1.13790e-02,-1.85707e-03,1.17084e-01,9.19578e-02,-1.14171e-01,-5.57630e-02,-9.07055e-03,-5.71175e-02,1.06253e-02,-2.33187e-02,-2.44657e-02,-4.97329e-02,-3.28233e-02,6.88512e-02,9.35666e-03,-8.07303e-02,-5.74807e-02,-7.79034e-02,5.25524e-02,-8.31294e-02,-6.32575e-02,-1.51024e-02,-6.84453e-02,1.08822e-03,-1.54161e-02,-2.93060e-02,-7.54186e-02,-1.47868e-02,-6.52688e-02,9.59744e-02,-7.84039e-02,-9.36477e-02,-7.61510e-02,1.06380e-01,9.88164e-02,-1.04697e-01,1.08919e-01,-6.94058e-02,-9.81604e-02,3.15372e-02,7.38572e-02,3.85106e-02,7.83364e-02,-1.03184e-01,8.85920e-02,8.50964e-02,-5.49254e-02,1.07989e-01,9.86949e-02,-1.00633e-01,1.14649e-01,1.16378e-01,2.54003e-02,-7.17178e-02,
5.81641e-02,3.71561e-02,-1.15999e-01,1.18662e-01,8.35952e-02,7.47371e-02,1.18030e-02,-2.76160e-02,-3.61305e-02,1.02410e-01,-1.01373e-01,-1.52559e-02,2.62857e-02,-4.84946e-02,1.04115e-01,6.19213e-02,-4.80054e-02,6.26326e-02,-2.70117e-02,1.93873e-02,8.66049e-02,1.65949e-02,-6.25403e-02,-1.15687e-01,-1.17176e-02,7.42963e-03,-1.08641e-01,4.60095e-02,-9.98780e-02,6.08507e-02,-1.20195e-01,-9.59087e-02,-9.74884e-02,-8.90666e-02,7.59752e-02,-1.42312e-02,6.08274e-03,-3.35550e-02,1.70687e-03,2.74992e-02,-8.47834e-02,-9.93111e-02,-1.16048e-01,3.60054e-02,6.94949e-02,9.24216e-02,3.41856e-02,-4.75717e-03,6.43884e-03,-1.12079e-01,4.52840e-02,-6.22845e-03,-2.40194e-02,-8.55196e-02,-8.12411e-02,5.60278e-02,3.29974e-02,-1.20916e-01,-2.79781e-03,2.94263e-02,5.76883e-02,-2.76706e-02,2.77901e-02,-1.11059e-01,
-1.08542e-01,1.42409e-02,-7.71509e-02,-7.88710e-02,5.34037e-02,-9.89676e-02,-1.14945e-01,7.35193e-02,4.24570e-02,1.93147e-02,1.11516e-01,7.03737e-02,-6.21087e-02,-6.63093e-02,3.09865e-02,-1.17747e-01,7.92437e-02,5.90498e-02,8.50572e-02,-7.98907e-02,3.70366e-02,4.32152e-02,-7.34622e-02,-8.14347e-02,-1.25280e-02,-1.06324e-01,6.85007e-02,-9.35557e-02,7.86007e-02,-7.91368e-03,-7.13269e-02,1.35547e-02,-9.78794e-02,1.15737e-01,1.11838e-01,-1.08026e-01,8.18550e-02,6.68953e-02,2.94420e-02,-1.12590e-01,-5.47811e-04,-2.92292e-02,-2.46627e-02,1.15289e-01,3.73874e-02,-1.24232e-02,-4.63080e-03,1.06172e-01,-5.31885e-02,-6.10313e-03,-2.06930e-02,-7.35689e-02,7.32350e-03,8.41033e-02,9.06593e-02,1.12088e-01,-1.14781e-01,3.19887e-02,-1.18048e-01,-5.09763e-02,1.15584e-01,-2.53916e-02,-1.37685e-02,5.58371e-02,
4.47401e-02,6.01405e-02,1.35241e-02,-3.96462e-02,-6.81205e-02,4.04061e-02,9.30607e-02,-1.55945e-02,1.80259e-02,-4.38273e-03,5.10029e-02,-9.19434e-02,1.77867e-02,-1.09782e-01,6.78436e-02,-9.08045e-02,-3.77801e-02,-3.52045e-02,2.85825e-03,5.79381e-02,-5.82568e-02,-1.17842e-02,2.99536e-02,-1.18834e-01,4.96948e-02,6.31507e-02,2.45851e-02,-1.78040e-02,-7.89891e-02,8.92982e-02,-1.10058e-01,1.16270e-01,1.65238e-02,-5.58987e-03,1.50682e-02,-1.14128e-01,8.69304e-02,-2.15408e-02,-7.43704e-02,-5.46722e-02,8.51071e-02,1.13039e-01,-2.90095e-02,7.65545e-02,5.34244e-02,-6.01541e-02,-8.89594e-02,1.21810e-01,6.08012e-04,4.20062e-02,1.11956e-01,-2.86858e-02,-1.05987e-01,1.11146e-01,5.21244e-02,2.43500e-02,3.49158e-02,2.16377e-02,7.70983e-02,-7.43270e-02,3.97045e-02,4.59001e-02,-9.81876e-02,-2.86909e-02,
-7.19401e-02,6.77337e-02,-7.03236e-03,4.60737e-02,-1.16387e-01,-9.64770e-02,8.38468e-02,3.10418e-02,6.21555e-02,1.09358e-02,-4.03867e-02,4.35168e-02,-4.54713e-02,-9.18384e-03,6.70299e-03,6.77795e-02,-8.17931e-02,-1.04737e-01,-2.58034e-02,3.93587e-02,7.98741e-02,5.53013e-02,2.62097e-02,1.18583e-01,-9.78359e-02,-9.09737e-02,-9.58072e-02,1.15552e-01,6.00965e-02,2.23754e-02,1.09211e-01,-9.62224e-02,-2.99005e-02,1.30305e-02,-1.10496e-01,-7.07864e-02,3.33757e-02,-8.39353e-04,1.10424e-01,1.57014e-02,1.06794e-01,-3.73260e-02,7.58983e-02,1.23290e-01,-3.10582e-02,-8.01070e-03,1.33162e-02,7.15217e-02,4.43325e-02,-7.52363e-02,5.32129e-02,-5.06167e-03,-1.09984e-01,4.68828e-02,2.21803e-02,-1.26653e-02,1.07194e-01,3.42403e-02,8.75079e-02,1.11313e-01,1.09342e-01,1.17400e-02,-9.03748e-02,-3.42575e-02,
5.31548e-02,9.19544e-02,-1.11035e-01,2.82214e-02,1.11762e-01,-4.49628e-04,1.79635e-02,-9.57048e-02,1.21967e-01,4.94699e-02,1.15894e-02,1.12226e-01,1.05397e-01,2.39429e-02,1.12529e-01,-7.71074e-02,-3.02739e-02,-3.66459e-02,1.82419e-02,5.04888e-02,-6.70651e-03,-1.00321e-01,6.39732e-03,-4.33060e-02,6.68729e-02,-8.00521e-02,-1.16474e-01,9.22287e-02,1.21145e-01,8.72264e-02,-1.13743e-01,-1.59167e-02,-7.54026e-02,-2.66278e-02,9.61609e-03,8.19253e-02,-1.75118e-02,-1.05481e-01,-1.45520e-02,-1.20164e-01,-8.09506e-02,3.88419e-02,-2.05840e-02,-3.45962e-02,-8.82918e-02,7.27975e-03,8.22116e-02,5.23908e-03,-3.51282e-02,-1.07481e-01,6.93955e-02,1.11314e-01,3.09519e-02,-1.10710e-01,-3.20508e-02,-1.14707e-01,1.02685e-01,-9.27947e-02,6.70613e-02,-1.14686e-01,-1.05320e-02,9.49640e-02,-3.71154e-02,1.32211e-02,
1.28353e-02,-6.53256e-03,-9.57266e-02,-5.29779e-02,5.34121e-02,2.15133e-02,-7.52806e-02,8.04099e-02,7.31061e-02,9.45717e-02,3.94468e-03,5.66167e-03,-2.31933e-02,9.33641e-02,2.03195e-02,-1.14158e-01,-6.73171e-02,-6.86352e-02,-5.50412e-02,-6.64891e-02,-7.28635e-02,-6.39089e-02,4.99560e-02,7.41946e-02,-1.75712e-02,8.72194e-02,4.94774e-02,-5.03691e-02,-4.14476e-02,7.84238e-02,1.02041e-01,4.00950e-03,-1.21640e-01,3.51999e-02,-1.02606e-01,5.94101e-02,8.30791e-02,3.02036e-02,-1.10029e-01,-9.11300e-02,7.83709e-02,-1.11363e-01,9.74177e-02,4.34866e-02,7.07948e-02,-6.41723e-02,3.15895e-02,2.70432e-02,1.05353e-01,-8.12870e-02,-9.49508e-02,2.62375e-02,5.63665e-03,-8.15309e-02,-4.62413e-02,1.09171e-01,-7.59937e-02,-3.38718e-02,7.54143e-03,-6.79628e-02,3.25083e-02,5.42421e-02,1.08772e-01,9.68164e-02,
-2.78683e-02,6.54231e-02,1.18163e-01,-8.94883e-02,-5.83809e-02,-5.91839e-02,1.19258e-01,-3.38696e-02,4.38119e-02,-9.06266e-03,-5.82203e-02,-3.80089e-02,-6.88291e-02,-8.23314e-02,6.47731e-02,4.99784e-02,1.08020e-01,7.59899e-02,4.68671e-02,-2.96427e-02,2.52783e-02,-5.06277e-02,-1.30135e-02,-4.10095e-02,2.10790e-02,-1.06991e-01,-2.18515e-02,6.87692e-02,2.13697e-02,2.47556e-02,-8.97354e-02,-1.08221e-02,-9.00841e-02,-8.74849e-02,6.67855e-02,5.27655e-02,6.00518e-02,8.13693e-02,6.55800e-02,-9.10290e-02,-2.02277e-03,-2.53170e-02,-1.01667e-02,-1.76100e-02,-5.70746e-03,-8.92058e-02,1.15917e-01,-2.66933e-02,1.44100e-02,1.21597e-01,1.08542e-02,-4.74099e-02,-2.62344e-02,-9.70918e-02,-1.08251e-01,9.03343e-02,2.78531e-02,-6.82506e-02,-1.14238e-01,-4.87374e-02,-1.02027e-01,2.71729e-02,-3.39459e-02,-2.57500e-02,
7.30222e-02,5.45625e-02,-8.74753e-02,7.79922e-02,5.76687e-02,-3.24561e-03,1.24513e-01,-7.68683e-02,-7.81110e-02,-5.99305e-02,6.76018e-02,-6.26228e-02,4.49419e-05,4.95313e-02,3.56955e-02,-8.58692e-02,-4.47063e-03,-1.00178e-01,-3.74419e-02,1.15001e-01,-1.59549e-02,-6.87237e-02,-1.21742e-01,-8.31334e-02,-2.03476e-02,-1.32205e-02,4.33522e-02,7.53498e-02,3.34930e-02,-9.94889e-02,4.93450e-02,-2.44589e-02,1.22349e-02,5.98162e-02,-7.33349e-02,-9.16779e-02,1.21994e-01,9.24878e-02,1.45286e-02,1.42796e-02,3.19110e-02,1.03140e-01,-8.01514e-02,-6.18182e-02,-5.16400e-02,2.27721e-02,1.18483e-01,4.53670e-03,5.68716e-02,9.46815e-02,3.53087e-02,4.76104e-02,8.05146e-03,-3.81235e-02,-6.51264e-02,-1.51266e-02,-1.40298e-02,-6.33134e-02,-1.24158e-01,-1.08850e-01,-4.48617e-02,-2.28405e-02,4.06384e-04,9.04265e-02,
-1.10210e-01,1.87209e-03,6.95899e-04,8.50375e-02,6.52594e-02,-1.31415e-02,1.14001e-02,3.11891e-02,-7.74744e-02,-7.98278e-02,-1.12529e-01,7.58418e-02,7.07267e-03,2.20559e-02,9.35197e-02,-8.70206e-02,-6.65742e-02,1.00042e-01,1.08489e-01,-6.11171e-02,3.57922e-02,-5.07718e-02,1.65789e-02,-1.38600e-02,2.25296e-02,1.23605e-01,-5.79711e-02,-9.78316e-02,3.48921e-02,6.59134e-02,1.01146e-01,-8.83301e-02,2.32484e-02,-1.12224e-01,-8.51614e-02,-1.16994e-01,5.66638e-02,5.81548e-02,-3.29476e-02,4.93948e-02,9.00294e-03,-2.50086e-02,6.93916e-03,1.17376e-02,-9.97127e-02,3.90366e-02,-6.52316e-03,4.44183e-02,6.11746e-03,-4.78494e-02,-1.21532e-01,-7.33620e-02,1.09715e-01,1.06923e-02,5.44760e-02,5.86061e-02,7.62898e-02,3.19677e-02,8.05772e-02,-1.07098e-01,1.08643e-01,-6.72081e-02,-1.30775e-02,-1.02556e-01,
-8.24957e-02,1.16895e-01,2.75956e-03,1.60922e-02,-2.27628e-02,1.24107e-01,1.10157e-01,5.27770e-02,9.25380e-02,-1.19690e-01,-4.64757e-02,2.74162e-02,7.72090e-02,-1.05038e-01,-2.64983e-02,-4.04444e-03,8.57943e-02,-4.09754e-02,1.24705e-01,3.24002e-02,-6.83321e-02,1.77151e-02,-1.22129e-01,2.10710e-02,1.16254e-01,-8.27753e-02,3.85328e-03,-4.82621e-02,-3.50186e-02,-8.30923e-02,-6.85966e-02,5.39769e-02,-1.08950e-01,1.21510e-01,-1.08092e-01,-2.86150e-02,-4.36470e-02,-1.12471e-01,-4.87195e-02,1.23401e-01,-9.56717e-02,3.78134e-02,5.71252e-02,2.90872e-02,4.45562e-02,2.64950e-02,-2.96073e-02,-9.58256e-02,7.81232e-03,4.41365e-02,-6.63472e-02,-8.76599e-02,-6.00794e-02,-5.13334e-02,-5.91841e-03,1.19731e-02,-1.45078e-03,-3.80175e-03,1.06431e-01,1.20927e-01,-6.15614e-02,-2.28427e-02,-2.17422e-02,3.32667e-02,
7.55288e-02,-9.58451e-02,9.62522e-02,5.79104e-03,-1.08664e-01,1.15321e-01,6.85753e-03,7.13713e-02,9.65836e-02,-2.35499e-02,9.36785e-02,-8.67858e-02,8.14739e-02,9.66485e-02,1.11196e-01,-3.93894e-02,1.24042e-01,-2.89727e-02,-1.23213e-01,-8.89216e-02,7.28922e-03,5.69642e-02,-9.22143e-04,1.04032e-01,4.81076e-02,-1.04612e-01,-1.05588e-01,-2.11480e-02,8.90313e-02,-2.63978e-02,4.74589e-02,-1.09518e-01,-9.28641e-02,-4.81895e-02,4.29548e-02,-2.67033e-02,1.92307e-02,1.01752e-01,9.08205e-02,1.10525e-01,-6.37694e-03,-1.65254e-05,-1.66835e-03,-2.82280e-02,5.59075e-02,-6.45666e-02,-9.14391e-02,-7.31252e-02,-8.62533e-02,9.12009e-02,-1.00186e-01,-2.77369e-02,-9.42191e-02,2.23437e-03,8.54793e-03,2.72929e-02,-6.30257e-02,-9.28684e-02,1.96216e-02,1.03780e-01,1.03067e-02,-1.20848e-01,-4.35440e-03,-6.66440e-03,
-1.11284e-01,3.78149e-02,-6.86737e-02,-7.96913e-02,7.90276e-02,1.92550e-02,-2.25316e-02,-1.63053e-02,4.15320e-02,-3.81557e-02,-6.98801e-02,-3.41132e-02,5.80029e-02,9.19983e-02,-5.11326e-02,-6.04559e-02,2.23479e-02,7.48909e-02,-1.15536e-01,-8.05594e-02,-7.28414e-02,-6.59999e-03,-4.85965e-02,6.86188e-02,-6.97326e-02,5.41325e-02,-6.78518e-02,-8.65714e-02,-2.47246e-02,9.01818e-02,-2.92788e-02,-7.58609e-02,1.19713e-01,1.03212e-01,-1.13285e-01,7.31606e-02,-1.12543e-01,-1.03291e-01,9.68866e-02,-5.67670e-02,-5.66152e-02,-5.43499e-02,-8.47721e-02,-4.38183e-02,-1.08617e-01,1.07269e-01,-6.63238e-02,1.35811e-02,9.19425e-02,-8.63556e-02,-1.90589e-02,-5.45818e-02,-9.93677e-02,1.01484e-02,2.00607e-02,-6.55985e-02,-8.50782e-02,-1.17387e-01,-6.16083e-02,5.53521e-02,-4.28556e-02,2.35266e-02,1.07573e-02,-5.17036e-02,
-6.48667e-02,-2.55214e-02,1.05151e-01,-1.23689e-01,-9.93113e-03,4.56298e-02,-1.02433e-01,-4.07776e-02,-9.45010e-02,6.47408e-02,3.80346e-02,1.13677e-01,-5.33944e-02,1.20460e-01,-5.85434e-02,4.63770e-03,-1.07949e-01,-6.22933e-02,7.26695e-02,9.61691e-02,-2.60741e-03,-4.84678e-02,-1.00327e-01,-8.97374e-02,-1.06959e-01,9.39349e-02,9.74755e-02,-8.65833e-02,4.53915e-02,-7.85784e-02,6.84437e-02,8.32484e-02,1.20299e-01,7.23876e-03,-2.26478e-02,4.90974e-02,-8.52290e-02,3.47561e-02,7.13945e-02,-5.87027e-02,9.82860e-02,-4.65072e-02,-1.18425e-02,6.62317e-02,1.04525e-01,9.45896e-02,-1.24322e-01,-2.32483e-02,1.17002e-01,1.01190e-01,-2.47721e-02,9.89902e-02,1.12308e-01,5.36244e-02,1.03519e-01,7.60788e-02,-8.00782e-02,-1.39641e-02,-1.00972e-01,3.08404e-02,-2.85496e-02,1.19880e-02,7.30349e-02,5.57527e-02,
-2.96586e-02,1.21075e-02,-3.35281e-02,6.77469e-03,4.64872e-02,1.52463e-02,-7.75329e-02,-5.34800e-02,-4.57299e-02,-1.17518e-01,7.87814e-02,-1.06864e-01,-1.40042e-02,-2.74205e-03,-9.88929e-02,-8.80927e-03,1.58922e-02,-1.00324e-01,6.33654e-02,1.21441e-01,-5.89644e-02,-5.11292e-02,-3.63354e-03,-4.22030e-02,-2.33748e-02,-9.48790e-02,9.87586e-03,5.12348e-02,-8.09805e-02,4.47754e-02,-6.78602e-02,1.06396e-01,-4.18833e-02,-6.23626e-02,-2.86810e-02,4.61306e-02,1.06339e-01,5.03912e-02,7.27708e-02,9.54840e-02,2.83099e-02,9.82942e-02,-6.73518e-02,1.20782e-01,6.23665e-02,-7.62770e-02,-9.58166e-02,-7.56589e-02,2.29234e-02,-1.35575e-02,-2.64164e-02,-3.05077e-02,8.84334e-02,-8.31368e-02,-9.59706e-02,5.82451e-02,8.88530e-02,-4.21307e-02,-1.02959e-01,-1.23292e-01,-5.51752e-02,7.16107e-02,1.09848e-02,-4.28982e-02,
7.62150e-02,-4.61554e-02,-5.43686e-02,1.79559e-02,-9.33007e-02,7.20661e-02,6.86313e-02,5.55269e-02,-8.57286e-02,8.18066e-02,-1.22416e-01,3.62182e-02,-9.55273e-02,-9.90797e-02,2.62604e-02,6.48990e-02,6.20874e-02,-6.29531e-02,-5.33696e-02,1.35761e-02,3.73506e-02,-6.20668e-02,5.26923e-02,3.89701e-02,2.07566e-02,-6.86400e-02,1.13521e-01,3.84128e-02,-1.84380e-02,2.32200e-02,3.61069e-03,6.01510e-02,-5.48285e-02,-5.49809e-02,-1.87751e-02,-8.98457e-03,5.57287e-02,3.83948e-02,-7.85576e-03,8.62537e-02,-1.17522e-02,-1.16474e-01,1.97715e-02,-7.48611e-02,-7.14463e-02,-1.84790e-02,-9.37573e-02,-2.70363e-02,9.07339e-02,1.34600e-02,-2.75411e-02,1.03886e-01,4.01571e-03,2.06516e-02,-1.88627e-02,6.46977e-02,5.38049e-02,-1.57030e-02,-9.59937e-02,-1.04255e-01,-3.63023e-02,-4.83812e-02,-4.37715e-02,1.05693e-01,
3.42294e-02,6.99797e-02,6.11754e-02,5.42067e-02,5.34174e-02,7.01185e-02,-7.69494e-02,5.80521e-02,1.10626e-01,-1.21131e-01,6.02591e-02,9.74027e-02,-4.12574e-02,6.72414e-02,-9.62696e-02,3.89088e-02,8.70933e-02,-4.85968e-02,7.54446e-02,1.01030e-01,-5.47244e-02,3.98860e-02,1.00985e-01,2.90597e-02,2.86955e-03,1.05610e-01,3.92603e-02,-6.90601e-02,8.44972e-02,3.67143e-02,-3.24683e-02,-9.07500e-03,7.75330e-03,-1.11517e-01,-1.74326e-03,-6.02576e-02,-3.02892e-02,-9.72414e-02,-3.51578e-02,-7.53281e-02,-9.86199e-03,6.53912e-02,-4.00124e-02,1.11827e-01,7.79085e-02,3.18121e-02,7.68448e-02,-8.08102e-02,1.04252e-01,2.85239e-02,5.52289e-02,1.12116e-01,7.26901e-02,-1.19588e-01,-6.74968e-02,-6.44776e-02,-9.85692e-02,5.27555e-02,3.79209e-02,-8.93950e-02,-8.33686e-02,-6.70360e-02,6.24724e-02,-8.23367e-02,
1.15720e-01,5.86277e-03,1.12600e-01,-2.08377e-02,3.95701e-02,-2.96024e-02,-1.35558e-02,3.84663e-02,1.20618e-01,-9.77483e-02,-9.89050e-02,1.00253e-01,3.58234e-02,2.58980e-02,6.74622e-02,7.48722e-03,4.57525e-02,6.98945e-02,5.94455e-02,3.28205e-02,-1.23396e-01,4.57661e-02,-1.19729e-01,-3.16087e-02,1.10315e-01,-7.90171e-02,-1.91753e-02,2.76283e-02,-3.58369e-02,-2.95967e-02,-8.84096e-02,1.11548e-01,-5.61651e-02,-1.11810e-01,-3.49015e-02,1.04623e-01,-2.73879e-03,-4.27756e-03,-1.13152e-01,8.32558e-02,-1.15322e-01,-1.01741e-01,-2.47635e-02,1.06146e-01,1.05245e-02,-1.14169e-01,7.09020e-02,1.11491e-01,2.87339e-02,6.39323e-02,1.04637e-01,-3.80726e-03,-7.94742e-02,9.81956e-02,1.18774e-01,-6.06116e-02,-1.18765e-02,-3.31994e-02,9.06290e-02,-1.17633e-01,3.55241e-02,-1.61552e-02,1.14800e-01,-1.66100e-02,
-2.97693e-02,-8.43093e-02,-3.73332e-02,-3.13926e-02,2.57702e-02,-1.07360e-01,6.30895e-02,-4.10301e-02,-6.04665e-03,-6.57232e-03,1.88304e-02,-1.22278e-01,2.30409e-02,-6.67639e-02,-1.18855e-01,-1.02339e-01,-8.45114e-02,5.21974e-02,-1.24596e-01,4.43367e-02,2.42843e-02,1.98963e-03,-2.98084e-02,1.18754e-01,-1.12395e-03,4.03765e-02,6.65807e-02,-4.26567e-02,8.55794e-02,6.56048e-02,-8.45550e-03,-1.10207e-01,5.05273e-02,-6.18532e-02,1.14285e-01,1.10353e-01,-9.96870e-02,2.12128e-02,3.55458e-02,-6.03241e-02,-8.97820e-02,-6.23879e-02,-1.48711e-02,-8.68891e-02,-1.15426e-02,-4.39823e-02,9.86768e-02,-1.10470e-01,6.20500e-02,8.96119e-02,8.50171e-02,-9.03781e-02,-8.42673e-02,3.30864e-02,8.14667e-02,-1.05958e-01,-1.63147e-02,2.11438e-02,1.05975e-01,2.32811e-02,-4.90936e-02,2.44424e-02,-1.06361e-01,9.66811e-02,
-3.55668e-02,-7.63960e-02,-4.58024e-02,-1.07756e-01,-5.81587e-02,-1.23936e-01,-3.91418e-02,-1.02930e-01,1.51388e-02,-7.68356e-02,6.45511e-02,-5.37550e-02,-1.39989e-02,-6.16879e-02,-3.64966e-02,1.65345e-02,-1.21192e-01,7.32712e-02,-1.46860e-02,-9.16316e-02,1.57889e-02,-7.78077e-02,-2.31447e-02,-6.91784e-02,-4.92584e-02,-6.07659e-02,-1.24889e-01,1.72094e-02,-7.32637e-02,2.81831e-02,-1.02629e-01,-1.11067e-01,-5.34882e-02,-4.99567e-02,-9.40482e-02,4.19434e-02,1.48133e-02,9.45855e-02,3.12345e-02,2.31917e-02,3.70827e-02,-3.09061e-02,8.83028e-04,-1.81625e-02,2.15276e-02,-5.99790e-02,7.86350e-02,1.04053e-01,8.97795e-02,-9.12871e-02,-2.43477e-02,9.50007e-03,-1.16652e-01,-5.52081e-02,1.08560e-01,6.81173e-02,1.18987e-03,4.36919e-02,9.32795e-02,-3.49541e-02,1.13788e-01,1.00182e-01,4.93279e-02,-1.24449e-01,
-6.74988e-02,-1.31536e-02,-4.34056e-02,7.74258e-02,-3.23555e-02,-8.84594e-03,-1.24208e-01,3.44842e-02,5.51558e-02,-1.17854e-01,-2.47931e-03,1.05432e-01,2.40076e-02,9.53067e-02,-7.38201e-02,2.30870e-02,-5.28541e-02,-1.24528e-01,6.49542e-02,-8.94153e-03,-3.25031e-02,-9.34950e-02,-1.80373e-02,1.13983e-01,-6.04110e-02,7.83562e-02,-1.52079e-02,-5.00260e-02,-5.54198e-02,3.09430e-02,-1.23180e-01,-1.17103e-02,1.14622e-01,8.56185e-02,8.13132e-02,1.09134e-01,-1.56413e-02,1.11298e-01,6.77677e-02,9.03605e-02,5.30010e-02,-1.20892e-01,-4.68087e-02,3.57219e-02,7.72184e-02,-7.82119e-02,3.32682e-02,1.03109e-01,-3.82905e-02,-1.15836e-01,3.35328e-02,-1.17196e-01,3.70427e-02,-8.75974e-03,-4.67817e-02,-5.74740e-02,-2.68211e-02,-3.12090e-02,-3.72862e-02,1.20010e-01,-7.26967e-03,7.55637e-02,3.50365e-02,-1.03773e-01,
-5.98643e-02,-1.20060e-01,-4.77841e-02,-1.48267e-03,9.35374e-02,5.43788e-02,-4.73801e-02,-8.45950e-02,-1.08958e-01,6.15544e-02,-1.16869e-01,7.36187e-02,-9.38386e-02,-1.45297e-02,4.73638e-02,1.01322e-01,-8.92226e-02,5.02779e-02,3.21678e-02,8.66377e-02,-5.98793e-02,7.43921e-02,-2.30125e-02,5.13478e-02,6.61945e-02,7.90973e-02,8.97744e-03,2.61408e-02,1.18919e-01,1.54076e-02,6.42247e-02,-4.76857e-02,-1.20200e-01,-8.62312e-03,-1.11705e-01,3.75485e-02,-1.06283e-01,4.70994e-02,3.45958e-02,-9.93494e-02,-9.53128e-02,5.39216e-02,6.85453e-02,-9.56878e-02,4.68874e-02,-3.65688e-02,-2.25123e-02,8.52225e-02,5.48912e-02,-3.78140e-02,9.69423e-02,-9.68459e-02,-1.14659e-01,1.02241e-01,-2.79823e-02,-5.52440e-02,9.12164e-02,9.14293e-02,3.72632e-02,-3.36233e-02,-1.02126e-01,2.02931e-02,-1.20758e-01,-1.22890e-01,
-1.03467e-02,-3.92905e-03,-6.71629e-02,1.39129e-02,-2.83412e-02,7.95288e-02,8.77260e-02,3.60713e-02,9.73732e-02,1.21384e-01,4.13565e-02,-4.17629e-03,-1.26439e-03,1.14783e-01,6.86929e-02,8.33280e-02,6.35228e-02,3.26955e-02,-1.85225e-02,-2.49186e-03,2.66183e-02,6.94218e-03,1.22404e-01,-2.79538e-02,-1.23062e-01,-7.85185e-02,-5.44079e-02,-4.49525e-02,-6.71369e-03,3.56846e-02,2.51146e-02,-1.20362e-01,9.74918e-02,8.68771e-02,4.10047e-03,5.21960e-02,-2.16148e-02,7.66953e-02,9.00467e-02,4.68726e-02,8.47074e-02,-3.57267e-03,-4.45003e-02,-6.85574e-02,5.32755e-02,-3.95821e-02,-1.04213e-01,-8.12856e-02,-9.26259e-02,1.19217e-01,-6.45166e-02,2.98998e-02,5.49182e-02,-8.46438e-03,-4.32187e-02,-1.15263e-01,-2.88032e-03,1.26372e-02,8.47177e-02,-4.81770e-02,-2.79644e-02,-1.04704e-01,2.47821e-02,4.84782e-02,
-1.21191e-02,-7.52740e-03,1.77698e-02,4.11830e-02,-9.56509e-03,1.08519e-01,7.52363e-02,9.88034e-02,-4.26424e-02,-2.66990e-03,-5.78754e-02,1.01498e-01,-1.02724e-01,-5.53304e-02,8.22798e-02,-5.32017e-02,-9.65168e-02,2.06795e-02,-1.06437e-01,6.07254e-02,4.16792e-02,7.47619e-02,-1.03782e-01,3.47251e-02,2.31323e-03,-1.22790e-01,-1.14374e-01,6.54443e-02,-4.83108e-02,9.56871e-02,7.81736e-02,-2.00839e-02,-8.85357e-02,-6.12296e-02,-8.56958e-02,-3.31638e-02,-4.20731e-02,-9.40030e-02,-5.65737e-02,1.03467e-01,-2.20588e-02,-3.25999e-02,8.07331e-02,6.63220e-02,1.93921e-02,1.40748e-02,-1.09525e-02,2.09224e-02,7.27027e-02,-4.60978e-03,-7.55267e-02,-1.09510e-01,3.55583e-02,1.23640e-01,6.86942e-02,7.12328e-02,1.14227e-01,-4.46944e-03,1.23271e-01,-4.49054e-02,3.35158e-02,1.14456e-01,7.27382e-02,2.50507e-02,
4.09269e-02,3.73937e-02,7.10262e-02,-9.39548e-02,1.13076e-01,-8.32128e-02,-1.76760e-02,-7.20749e-02,-3.32235e-02,4.58939e-02,1.69169e-02,-8.93197e-02,-3.58710e-02,-3.60381e-02,-7.59068e-03,1.05249e-01,1.08751e-01,3.12544e-03,6.04184e-02,-8.18947e-02,8.27902e-02,9.14443e-02,1.01923e-01,-7.45404e-02,-3.49752e-02,-1.00226e-01,6.42354e-02,7.93790e-02,-1.77956e-02,-1.05895e-01,-9.82404e-03,-4.40101e-02,-5.87543e-02,-2.71182e-02,8.46816e-02,8.34303e-02,2.00849e-02,6.44785e-02,-9.23736e-02,-1.01313e-01,8.30044e-02,1.15191e-01,-2.68174e-02,-1.16187e-01,6.02709e-03,-1.15356e-01,4.37829e-02,1.09824e-01,1.24487e-01,8.04456e-02,9.59994e-02,-1.00552e-01,1.35069e-02,-4.46169e-02,7.69110e-02,7.24661e-02,4.48666e-02,7.01467e-02,-2.15850e-02,-1.05068e-01,-1.00848e-01,5.74930e-02,1.06307e-01,-1.22772e-01,
2.62569e-02,-1.02146e-01,3.88549e-03,2.84791e-02,7.03122e-02,5.35447e-02,-2.01999e-02,-3.88988e-02,-1.12442e-01,7.68912e-02,1.26959e-02,5.65733e-02,-4.40983e-02,4.00753e-02,-6.36053e-02,-6.90556e-02,-1.24565e-01,6.83196e-02,8.28808e-02,-4.87776e-02,1.08261e-02,-2.38509e-02,6.01875e-02,-1.69247e-02,3.42219e-02,1.24454e-01,3.68649e-03,-3.19879e-02,-3.44651e-02,1.00257e-01,4.56324e-02,6.12439e-02,-2.96501e-02,-8.07897e-02,-5.03291e-02,-3.38924e-03,1.94549e-02,3.61210e-02,9.55683e-02,-9.39289e-02,9.73295e-02,1.08980e-01,1.92549e-02,-2.08125e-02,6.64161e-02,-3.88564e-02,1.61339e-02,-2.49390e-03,4.37201e-02,-1.12483e-01,-3.71361e-02,-2.97876e-02,4.01323e-02,-4.13850e-02,3.55399e-02,-7.75044e-02,-9.21221e-02,-5.07835e-02,-8.48214e-02,3.36047e-03,-1.24341e-01,1.31907e-02,7.44376e-02,6.82712e-02,
1.57942e-02,
-5.18087e-02,
-2.37604e-02,
-1.22990e-02,
-8.72463e-02,
-6.99485e-02,
-9.95664e-02,
5.70502e-02,
-6.61112e-02,
-6.39741e-02,
1.18244e-01,
-1.14379e-02,
-4.95397e-02,
8.57251e-02,
-1.80373e-02,
-7.93411e-02,
-1.16667e-01,
7.99733e-02,
3.59029e-02,
3.99360e-02,
-1.09616e-01,
9.84250e-02,
-1.10145e-01,
3.07132e-02,
-8.56275e-02,
-7.86119e-02,
8.47243e-03,
1.23757e-02,
-5.73367e-02,
-5.13206e-02,
1.11229e-01,
-1.14345e-01,
4.32543e-03,
1.03815e-02,
9.98248e-02,
-4.41681e-02,
5.67831e-03,
1.14136e-01,
1.99796e-02,
9.08958e-02,
-6.64130e-02,
-6.40067e-03,
-4.32262e-02,
1.13946e-01,
-6.10434e-03,
-1.01771e-01,
-1.10489e-01,
-1.71598e-02,
-6.97918e-02,
1.46639e-02,
3.98790e-02,
-2.84735e-02,
-4.61314e-02,
9.18046e-02,
8.68548e-02,
9.44561e-02,
8.75878e-03,
-1.12238e-01,
1.21000e-01,
4.35510e-02,
-5.95067e-02,
-1.14988e-01,
8.47148e-02,
9.53875e-02,
1.24306e-01,2.18882e-02,-1.01566e-01,6.12891e-02,7.24405e-02,-9.30708e-02,1.00802e-01,-7.97018e-02,2.82218e-02,9.10526e-02,-4.39749e-02,5.42645e-02,2.11387e-02,4.63432e-02,-5.84178e-02,6.91488e-02,-3.54135e-02,1.10811e-01,-3.15502e-03,9.96179e-02,8.19087e-02,5.70180e-02,5.40012e-02,5.24136e-02,7.45392e-03,5.94554e-02,-1.07186e-01,5.42612e-02,8.48728e-02,-3.49270e-03,9.16847e-02,-1.07028e-01,-4.11082e-02,-1.07328e-01,4.39409e-02,-1.11605e-01,-1.06130e-01,4.84299e-02,7.78547e-02,-1.18763e-01,-9.36451e-02,-6.87476e-02,6.52279e-02,5.05042e-02,9.56031e-02,-2.57475e-02,-7.07090e-02,2.07244e-03,9.18181e-02,-4.22781e-02,-7.91679e-02,-1.07452e-01,-3.46998e-02,-1.06764e-01,1.22888e-01,5.55448e-02,-2.42636e-03,2.39712e-02,-1.14673e-01,1.10822e-01,9.32966e-02,-5.71205e-02,8.61119e-02,9.87743e-02,
1.12141e-01,8.70557e-02,-2.30908e-04,-7.88728e-02,-3.59246e-02,-3.17342e-02,4.26376e-03,1.23513e-01,4.41845e-02,-3.43308e-02,-1.37940e-02,1.58658e-02,-3.59796e-02,7.44634e-02,-7.58002e-02,-4.92129e-02,-1.57024e-02,-4.92282e-02,-2.30963e-02,3.37802e-02,-8.30775e-02,-5.12253e-02,9.22312e-02,1.10790e-01,-2.53867e-02,-6.89823e-02,-5.75294e-02,-1.06444e-01,-2.61959e-02,5.21148e-02,-1.05329e-01,5.08376e-02,7.89333e-02,-1.96057e-02,-1.02332e-01,1.23860e-01,9.95226e-02,-6.51208e-02,-1.10114e-01,-7.65204e-03,2.34410e-02,4.78090e-02,-5.20521e-02,-9.55085e-03,7.82411e-02,2.47931e-02,-5.62218e-02,-8.81813e-02,5.98525e-02,-7.88824e-03,8.95292e-03,-2.15550e-02,8.25837e-02,-4.50042e-02,-2.48231e-02,9.86293e-02,-9.74094e-02,-9.20339e-02,-1.84266e-02,3.78090e-02,-1.36555e-02,4.06192e-02,5.95986e-02,-6.00364e-02,
4.56987e-02,1.81296e-02,-4.61076e-02,-1.01754e-01,-6.00030e-02,-1.04177e-01,4.91056e-02,-8.07605e-02,-3.97941e-02,-5.53728e-02,-1.32714e-02,-8.02483e-02,1.03163e-02,-5.53501e-02,-5.98502e-02,5.17462e-02,-1.23793e-01,-1.18231e-01,1.03350e-01,-2.81407e-03,6.53480e-02,8.45990e-02,1.10321e-01,5.93987e-02,-4.85169e-02,-8.02859e-02,-3.49691e-02,8.04437e-02,-1.17765e-01,6.69532e-02,4.14566e-02,7.66904e-02,-7.61650e-02,7.53743e-02,-1.16209e-01,-3.05391e-02,6.50765e-02,-5.20107e-02,9.37932e-02,2.72166e-02,-7.67691e-02,5.97135e-02,-3.29973e-02,2.54045e-02,4.21409e-02,-4.79136e-02,4.69431e-02,-1.20049e-01,-3.78475e-02,5.81820e-02,5.22851e-02,1.21775e-01,5.06538e-03,7.18832e-05,-1.98294e-02,-1.08639e-01,-5.58486e-02,-1.82269e-02,-8.61751e-03,-8.56812e-02,2.61523e-02,3.37370e-02,9.03149e-02,-1.04387e-01,
1.28599e-03,-4.40393e-02,2.78405e-02,1.05598e-01,1.01097e-01,-1.45425e-02,6.60640e-02,-6.79062e-02,-6.01737e-02,-5.81437e-02,-7.92865e-02,-3.54465e-02,1.06056e-01,-8.40340e-02,-9.07971e-02,1.13714e-01,-2.99046e-02,-1.15020e-01,7.68099e-02,-9.80193e-02,-3.54079e-02,-1.15415e-01,-1.56546e-02,1.07457e-01,-1.04125e-01,3.85644e-02,-4.26328e-02,-5.72792e-02,-7.50547e-02,-1.03353e-01,-1.09640e-01,4.46401e-02,6.11345e-02,-1.09094e-01,-3.07329e-03,4.05204e-02,5.15972e-02,1.02740e-01,5.70979e-02,-7.20586e-02,1.10426e-01,-4.72281e-02,8.77451e-02,7.17541e-02,3.32018e-02,9.87026e-02,2.32361e-02,-4.02074e-02,-7.53844e-02,1.16047e-01,-1.21349e-01,-9.39762e-02,3.91487e-02,5.67793e-02,-7.36405e-02,-3.09594e-02,-6.92849e-02,8.95135e-02,5.34922e-02,7.94928e-02,8.94187e-02,-4.04001e-02,2.16658e-02,-9.87535e-02,
1.22859e-01,-9.96184e-02,-6.76716e-02,4.61011e-02,8.25528e-02,-2.31882e-02,2.36637e-02,-6.10190e-02,-1.67899e-02,3.21421e-03,-8.45431e-02,-9.60826e-02,9.99798e-02,-6.89189e-02,1.04050e-01,-1.03613e-02,-2.68490e-02,-3.26941e-02,3.40667e-02,-1.62645e-02,1.92476e-02,6.69530e-02,-1.21738e-01,-1.04035e-01,1.30451e-02,-7.84750e-02,5.59710e-02,9.52930e-02,-1.23001e-01,-5.37204e-02,9.53898e-02,-1.13362e-01,-4.09398e-02,-1.20654e-02,-2.33159e-02,8.60562e-02,1.03983e-01,5.07570e-02,6.81306e-02,-6.56471e-02,-7.81700e-04,4.04126e-02,-1.74356e-02,-6.75870e-03,-5.96631e-02,-3.70576e-02,-4.34057e-02,-9.52086e-02,1.15142e-01,-4.10762e-02,1.11177e-01,-4.39517e-02,6.74123e-02,1.17006e-01,-3.65057e-02,7.64274e-02,2.29078e-02,-5.85432e-02,-4.86764e-03,5.52380e-02,-7.86799e-02,3.72224e-02,-4.63381e-02,-5.10134e-02,
7.14494e-02,-5.19617e-03,6.48458e-03,3.17321e-02,1.23128e-01,-1.15628e-01,4.93558e-02,-3.63643e-02,-3.44509e-02,-4.34239e-03,-6.34628e-02,-5.71351e-02,-1.50228e-02,2.58975e-02,-9.04972e-02,4.83048e-02,9.56932e-02,1.10871e-01,3.59282e-02,6.54532e-02,1.20846e-01,-3.30767e-02,-2.67456e-02,-1.13384e-01,-1.26906e-02,4.26149e-02,1.16601e-01,5.34430e-02,2.09842e-02,8.08490e-02,3.00772e-02,1.27313e-02,4.47161e-02,4.44937e-02,6.24541e-02,9.60758e-02,-1.15820e-01,-2.31993e-02,-6.67703e-02,6.19478e-02,2.32941e-02,-8.26288e-02,-8.30909e-02,-3.01910e-02,-1.09319e-01,-2.87473e-02,5.82885e-02,-4.16540e-02,-7.51161e-02,1.19259e-01,4.51063e-02,9.68064e-02,1.19410e-01,-5.88518e-02,1.16093e-01,3.35967e-02,1.02730e-01,-3.70564e-02,-3.55414e-02,2.69366e-02,-1.24498e-01,1.21662e-01,-1.10811e-02,9.27147e-02,
-1.06592e-01,3.54646e-02,1.73108e-02,-2.12246e-02,-4.49412e-02,1.50472e-04,1.84637e-02,-4.76331e-02,-5.22518e-02,8.62168e-02,4.72553e-02,1.22422e-01,2.83558e-02,1.13702e-01,1.00397e-01,9.43646e-02,-7.94767e-03,-2.99038e-02,-7.22446e-02,4.30414e-02,1.97809e-02,1.24502e-01,8.67068e-02,-1.03598e-01,5.24083e-02,-6.75624e-02,-2.43341e-02,-3.19131e-02,7.00804e-02,-4.61732e-02,7.72652e-02,-6.92226e-02,-1.03210e-01,-5.82554e-02,1.08975e-01,3.34375e-02,-4.63175e-02,1.07836e-01,-1.04770e-01,1.40962e-03,4.65995e-03,1.06012e-01,-4.41095e-02,3.17551e-02,-4.69172e-02,-9.23409e-02,-7.65049e-02,3.54326e-02,-9.45143e-02,8.52675e-02,-1.08286e-02,3.24528e-02,9.02032e-02,-1.09325e-01,-1.20187e-01,5.44793e-02,7.28275e-02,9.88636e-02,-1.21999e-01,8.02630e-02,1.08830e-01,1.20812e-01,1.74973e-02,2.63011e-02,
9.01112e-02,-1.02136e-01,-7.42855e-02,1.02668e-01,3.87587e-02,6.48902e-02,2.88853e-02,-3.75174e-02,7.38101e-02,4.38031e-02,-1.19621e-01,7.68591e-02,-1.19187e-01,9.35207e-02,6.15724e-02,-9.53799e-02,-1.02815e-01,-1.06562e-01,3.41855e-02,2.53855e-02,1.18324e-02,-7.30072e-02,7.90828e-02,-8.28484e-02,-9.37620e-02,2.99098e-02,-9.07394e-02,-9.10367e-02,-7.87109e-02,3.24799e-02,-8.34278e-02,-2.35823e-02,9.59193e-02,-4.90061e-02,-6.22515e-02,6.69300e-02,4.28524e-02,3.65438e-02,-4.95938e-02,8.10139e-03,8.15234e-03,1.24541e-01,-9.78838e-02,5.76554e-02,6.24313e-02,1.24308e-01,-5.41631e-02,1.10191e-01,-6.71133e-02,-1.32484e-02,-1.64224e-02,9.27653e-02,-2.44341e-02,-8.93940e-02,-4.50267e-02,3.45724e-02,4.78673e-02,-7.78969e-02,1.20426e-01,6.92293e-02,2.96377e-02,-8.09375e-02,9.16333e-02,1.01410e-01,
-9.07191e-02,2.93500e-02,7.78179e-02,4.81610e-02,1.20787e-01,9.57478e-02,1.21791e-01,-1.02935e-02,-1.08784e-01,6.98033e-03,-6.04038e-02,5.40861e-02,9.12889e-02,-1.45282e-02,8.71891e-02,-1.23423e-01,-9.02560e-02,-4.09314e-02,-3.36495e-02,7.02245e-02,-2.65447e-02,-1.02449e-01,4.64756e-02,-8.14679e-02,3.00832e-02,-6.41714e-02,6.34590e-02,4.34321e-02,-1.11046e-01,8.11570e-02,-5.27517e-02,1.23484e-01,-1.04251e-01,3.74638e-02,-5.34305e-02,5.14678e-02,3.56219e-02,-8.37609e-02,-8.29202e-03,1.05178e-01,-1.60325e-02,-1.54484e-02,-8.39804e-02,-1.93069e-02,1.34025e-02,3.89958e-02,1.06483e-01,3.77358e-02,-7.43758e-02,3.18287e-02,-3.13908e-02,1.14348e-01,5.79920e-02,-1.70940e-02,4.70464e-02,1.15490e-01,8.99632e-02,1.16673e-01,3.26491e-02,-1.35627e-02,7.78212e-02,-9.26037e-02,7.16641e-02,8.60149e-02,
-7.63130e-02,4.16168e-02,-6.39857e-02,8.40769e-02,5.19350e-02,1.14677e-01,2.80913e-02,1.19956e-02,-1.15077e-02,1.00764e-01,3.74802e-02,8.64198e-02,-7.93782e-02,1.06740e-01,-1.21913e-01,-9.39172e-02,7.40036e-02,1.04474e-01,-1.04325e-01,6.41309e-02,-3.28496e-02,-4.41438e-02,-6.84296e-02,8.32944e-02,9.21396e-02,-2.80813e-02,-1.18373e-01,7.11739e-03,-6.68405e-02,-8.44517e-02,1.21266e-01,1.11439e-01,3.95083e-02,-1.20022e-01,5.69150e-02,-2.68472e-02,1.16227e-01,3.25495e-02,1.08075e-02,1.13393e-01,4.98489e-02,-1.05796e-01,5.59868e-02,1.10551e-01,-1.37915e-02,-8.38301e-02,1.05754e-01,-5.34198e-02,1.17078e-01,5.20408e-02,4.43043e-02,3.49248e-02,-1.20230e-01,1.87845e-02,2.36043e-02,5.99792e-02,3.68569e-02,8.77346e-02,-1.01731e-01,-3.74095e-02,-8.01859e-02,-1.12628e-01,-3.22569e-02,9.03726e-02,
5.27047e-02,1.08449e-01,8.13732e-02,-7.29201e-02,1.08046e-01,-5.43598e-02,1.09951e-01,6.43030e-03,4.00892e-02,-4.72264e-02,9.00533e-02,2.28842e-02,5.44798e-02,5.05193e-02,8.89698e-02,6.19588e-02,7.02577e-02,5.85663e-02,1.00324e-01,-9.35975e-02,-1.14613e-01,8.93653e-02,-7.51190e-02,-6.57922e-02,1.00606e-01,4.14414e-02,-1.19357e-01,9.90352e-02,-6.81049e-02,-4.12015e-02,-5.73665e-03,1.16001e-01,-4.88465e-02,6.86132e-02,7.73902e-02,-1.83924e-02,5.64131e-02,-1.10514e-01,-1.07843e-02,-7.26651e-02,1.98675e-02,-9.85466e-02,5.39435e-02,-4.99264e-02,-1.14343e-01,9.87014e-02,3.40090e-02,3.40352e-02,-2.94112e-02,-3.52074e-02,8.69727e-02,9.27295e-02,-5.16549e-04,1.00847e-01,3.17109e-02,-2.91101e-02,6.06923e-02,2.69756e-04,1.09798e-01,2.61441e-02,-6.82105e-02,-7.56349e-02,7.51254e-02,-6.19023e-03,
-3.24555e-02,-4.65740e-02,5.43787e-02,3.33558e-02,7.50497e-02,1.14291e-01,-7.80420e-02,-8.81093e-02,-5.78233e-02,8.55678e-03,-1.43973e-02,3.13589e-02,-4.90221e-02,-1.03545e-01,-5.60283e-02,3.71150e-02,5.29442e-02,7.51343e-02,4.76509e-02,-3.88139e-02,1.19004e-01,1.67598e-02,5.08630e-02,-5.04838e-02,1.20254e-01,-1.19412e-01,-8.94824e-02,-5.96847e-02,-1.22679e-01,-4.27494e-02,-2.48285e-03,-5.36212e-02,7.20850e-03,9.00757e-02,-9.60672e-02,8.55829e-02,1.21472e-01,-7.39631e-02,7.34297e-02,5.72737e-02,1.06548e-01,-1.58095e-02,5.74374e-02,-9.24610e-02,4.43561e-03,-2.19917e-02,1.20689e-01,-1.03831e-01,8.85041e-02,-5.51928e-02,-4.53878e-02,-2.94790e-02,1.97303e-02,6.67906e-02,-7.35586e-02,-4.25051e-02,-1.22932e-02,-8.10944e-02,1.34245e-02,3.68421e-02,1.06969e-02,7.56931e-03,-1.02824e-01,-7.36921e-02,
-9.61035e-02,1.02472e-01,6.88747e-02,-2.25602e-02,6.94171e-02,5.07944e-02,1.94259e-02,-4.56747e-02,7.49933e-02,2.09541e-02,1.24097e-01,-9.03489e-02,1.03225e-01,7.50027e-02,4.29436e-02,-4.81198e-02,8.88447e-02,2.46731e-02,-6.11166e-02,-6.20339e-02,9.51203e-02,-1.77567e-02,2.74813e-02,5.45988e-02,3.94449e-03,-8.41395e-02,3.32773e-04,3.67350e-02,9.37231e-02,-5.64293e-02,-8.09756e-02,1.13967e-01,4.04364e-02,-1.00382e-01,4.58381e-02,7.39115e-02,8.28474e-02,5.90081e-02,7.72445e-02,-4.97798e-02,1.09034e-01,3.52274e-02,-1.18541e-01,-7.59386e-02,4.65134e-02,-1.82887e-02,1.10413e-01,-2.99771e-02,1.18973e-01,1.08904e-01,6.63425e-02,-8.31791e-02,-2.43806e-02,9.46810e-02,3.66843e-02,8.00582e-02,-6.98747e-03,-7.79111e-02,9.69138e-02,-9.64808e-02,-1.19974e-01,1.12375e-01,-3.47370e-02,5.57908e-02,
4.11486e-02,2.33730e-02,-4.86302e-02,2.97425e-02,-8.95202e-02,2.20492e-02,8.93176e-02,2.76568e-02,4.94972e-03,-4.94137e-02,1.36472e-02,2.82062e-02,-1.03809e-01,4.45806e-02,1.13779e-01,-1.04689e-01,-4.63285e-03,6.89223e-02,-1.15350e-03,-1.03883e-01,6.26970e-02,-5.11963e-02,-1.00595e-01,6.19098e-02,1.03396e-01,-8.61375e-02,5.00429e-02,7.87264e-02,-1.02162e-01,-9.77646e-03,1.24892e-01,-1.00342e-01,-1.45690e-02,3.26674e-02,-4.33981e-02,-1.02746e-01,6.67628e-02,-4.00084e-02,-5.47595e-02,1.12485e-01,-1.20102e-01,-5.31180e-02,4.00032e-02,9.38746e-02,6.99430e-02,5.39789e-02,1.07691e-01,3.12728e-02,2.44687e-02,-6.17694e-02,-1.24150e-01,-9.71024e-02,3.13273e-02,-2.68878e-02,6.77437e-02,-2.84493e-02,6.96103e-02,4.83291e-02,-9.23149e-02,-4.25869e-02,-8.98405e-02,-4.25561e-02,1.16018e-01,4.43563e-03,
1.13650e-02,-4.50112e-02,1.13807e-01,-5.20449e-02,1.02228e-01,-1.01954e-01,8.10146e-02,1.20970e-01,5.05467e-02,5.87312e-02,6.42674e-02,4.81146e-02,2.68481e-02,4.11964e-02,2.05794e-02,7.46488e-02,8.98633e-02,-2.05672e-02,1.51771e-03,4.17753e-02,-4.35582e-02,2.17150e-03,9.51725e-02,3.65088e-02,2.42573e-02,5.98452e-02,9.48517e-02,6.01328e-02,1.13179e-01,5.11349e-02,1.07960e-01,1.68985e-02,3.07994e-02,-7.07564e-02,2.17341e-02,1.11175e-01,-9.91729e-02,6.16725e-02,7.45338e-02,6.52698e-02,-5.95203e-02,-8.46376e-02,9.07394e-02,-4.54984e-02,3.42341e-02,-3.30803e-02,5.98845e-02,-1.23148e-01,-6.43324e-02,3.38168e-03,-3.80121e-03,2.61161e-02,-5.58470e-02,-4.02778e-04,-2.49743e-02,7.87899e-02,4.28526e-02,6.38321e-02,5.26161e-02,-5.57308e-02,-1.12509e-02,-1.74303e-02,1.19865e-01,-7.76552e-03,
3.49153e-02,-7.24826e-02,1.07926e-01,6.63792e-03,-3.88347e-03,5.95704e-02,7.66557e-02,9.40256e-02,3.29220e-03,1.24119e-01,-1.05523e-01,8.70614e-02,-2.20014e-02,-2.76518e-03,-3.18582e-03,-5.63334e-02,-4.88415e-02,-4.01753e-02,-7.69786e-02,-9.07680e-02,5.46958e-02,1.12524e-01,3.67339e-02,-4.20212e-02,-1.01594e-01,-7.48077e-02,-1.11713e-02,-4.73276e-02,2.46862e-02,-8.66227e-02,-1.07640e-03,-1.03919e-01,-7.24615e-02,-8.36294e-02,9.72581e-03,-3.51792e-02,1.24532e-01,-3.83886e-02,6.85891e-02,-5.85757e-02,7.56510e-02,3.69469e-02,4.05085e-02,-2.39403e-02,8.93080e-02,-1.08959e-01,7.53650e-02,-5.99942e-02,1.75072e-02,7.57635e-02,1.00680e-01,-1.07594e-01,-7.54656e-02,-1.54666e-02,2.84266e-02,-1.10414e-01,-1.18687e-01,-2.64532e-02,-9.96918e-02,4.64752e-04,-4.06446e-03,3.95160e-02,-9.03926e-02,-3.96144e-02,
1.73680e-03,9.63436e-02,-1.90689e-02,-1.21496e-01,1.06689e-01,-1.09441e-01,-2.89724e-02,7.66235e-02,4.71054e-03,6.55348e-02,7.47353e-03,2.12588e-02,-6.53731e-02,1.16118e-01,-1.98997e-02,1.15271e-01,2.83583e-02,-4.92789e-02,9.53286e-02,-1.09092e-01,2.26253e-02,1.82297e-02,-7.94816e-02,5.48650e-02,-8.21689e-02,8.47087e-02,1.47022e-02,7.57477e-03,9.22339e-02,5.48429e-02,7.07802e-02,-1.96714e-02,1.23250e-01,7.03648e-04,9.94065e-02,4.32276e-02,3.43885e-02,7.62224e-02,-9.68253e-02,1.12945e-01,-3.38635e-02,-5.26313e-02,-1.47843e-02,-1.10269e-01,1.20872e-01,-3.93675e-02,-5.29293e-02,1.12043e-01,3.94093e-02,-9.75622e-02,-2.89911e-02,-8.79820e-02,6.92611e-02,-7.96191e-02,-5.84787e-02,1.08832e-03,-1.16699e-01,-2.45202e-02,8.64566e-02,5.15472e-02,-5.04661e-02,-1.14171e-02,1.09955e-01,7.19835e-03,
-3.23774e-02,-5.18474e-03,-8.36699e-02,-1.11817e-01,-6.76833e-03,-5.40709e-02,5.34193e-02,-1.53501e-02,5.51489e-02,-9.24159e-02,-7.35192e-02,4.85612e-02,1.22724e-01,7.00276e-02,7.60452e-02,-8.93813e-02,-3.71685e-02,-7.01058e-02,5.41802e-02,5.79291e-02,1.02098e-01,-1.04944e-01,7.33834e-02,9.27627e-02,3.62932e-02,2.11011e-02,-5.21979e-02,9.23658e-02,-3.01632e-02,5.99690e-02,-2.37874e-02,1.94726e-02,2.81219e-02,-1.01929e-01,-9.42363e-03,-7.66144e-02,8.22298e-02,-8.89976e-02,-1.04471e-01,-9.71734e-02,9.37541e-02,-3.55736e-02,-4.10916e-02,-8.41500e-02,-1.56946e-02,1.17266e-01,-4.66935e-03,-4.61316e-02,3.61734e-02,-2.75027e-02,4.45582e-02,3.49735e-02,4.00159e-03,2.52210e-03,-8.23744e-03,-3.11139e-03,-1.23029e-01,-1.15400e-01,-6.86538e-02,4.39772e-02,5.55433e-02,-3.16302e-02,-1.23489e-01,-2.49158e-02,
-2.52828e-02,-2.03340e-02,-1.11544e-01,-1.44352e-02,-1.09180e-01,-3.49565e-02,6.05678e-02,-8.19073e-02,-4.33296e-03,-1.09772e-01,3.22138e-02,-4.68337e-02,9.72729e-02,-1.86125e-02,8.32433e-02,6.21943e-02,-1.24205e-01,-1.16049e-01,-1.20274e-01,-1.53134e-02,1.21861e-01,9.99572e-02,-8.67161e-03,-5.21733e-02,8.10243e-02,4.01271e-02,1.10171e-02,4.16680e-02,4.15930e-02,6.28478e-02,2.67786e-03,6.67498e-02,7.04373e-02,1.08494e-01,2.77832e-02,5.17751e-02,4.91403e-02,-2.03728e-02,-6.32579e-02,-5.27511e-02,3.49910e-02,8.81531e-02,-4.52694e-02,1.53574e-02,-7.81819e-04,-1.59619e-02,5.16354e-02,-9.41311e-02,1.31588e-02,8.37190e-03,3.33730e-02,4.90209e-02,-1.03962e-01,7.82088e-02,6.71935e-02,-3.58684e-02,8.88930e-02,6.19738e-02,1.10947e-01,-5.69909e-02,-9.39843e-02,3.18691e-02,9.71656e-02,8.38183e-02,
1.65250e-02,-2.79351e-02,1.08326e-01,-6.64759e-03,1.58332e-02,-3.36107e-02,-6.10118e-02,1.19005e-01,-7.37427e-02,1.14745e-01,5.42915e-02,-8.09499e-02,9.67531e-02,-1.12399e-01,-1.87411e-02,1.09066e-01,-1.18243e-02,-1.04725e-01,-2.55215e-02,9.05311e-02,9.28715e-02,1.01898e-01,4.09018e-02,-9.30702e-02,7.98922e-02,5.25199e-02,-1.19251e-02,-3.05239e-02,5.26838e-02,7.84771e-03,1.15807e-01,6.78304e-02,2.43012e-02,9.00042e-02,1.12822e-01,-6.35304e-03,4.14196e-02,-9.02700e-02,1.08915e-01,4.05976e-02,-1.00137e-01,1.14106e-01,1.08511e-01,-5.33876e-03,6.35057e-02,2.21245e-02,-1.17482e-01,-4.40043e-02,-9.30214e-02,-7.86495e-02,8.76362e-02,5.70680e-02,5.63045e-03,7.56951e-02,1.45767e-02,-9.46065e-02,-6.22806e-02,1.12653e-01,-6.56719e-02,-1.24016e-01,-2.80226e-02,-1.13905e-01,-9.35564e-02,-2.71793e-02,
-1.17613e-01,-6.28720e-02,9.60353e-02,9.76233e-02,-3.54673e-02,5.21302e-02,-1.21349e-01,-4.67915e-02,6.14418e-03,1.06184e-01,-1.25578e-02,1.07498e-01,4.21366e-02,-8.15891e-02,-2.56848e-02,-1.17687e-01,-9.38098e-03,-3.08155e-02,5.46333e-02,-3.41171e-02,8.22124e-02,9.57110e-02,1.06859e-01,-5.44279e-02,1.44184e-02,-6.16583e-02,8.06530e-02,-5.60446e-02,-7.20631e-02,7.43433e-02,-6.95164e-02,4.77010e-02,-1.02192e-01,-3.27352e-02,8.90057e-02,1.20445e-01,-2.20182e-02,1.14488e-01,-2.60250e-02,2.58996e-02,-3.66486e-02,6.45909e-03,1.15573e-01,-6.98403e-03,-1.22890e-01,1.17235e-01,-1.43462e-02,-4.77920e-02,7.88323e-02,8.54472e-02,-8.00216e-02,-7.79915e-02,-8.75416e-02,-1.89576e-02,2.28441e-02,1.24330e-01,-1.01869e-01,-7.95924e-02,-1.26129e-02,-4.48622e-02,8.97508e-02,1.46422e-02,-1.75493e-02,-5.89960e-02,
1.06775e-01,-1.24735e-01,8.77182e-03,1.15214e-01,7.76756e-03,1.10231e-01,-2.88936e-02,-3.10194e-02,-7.78475e-02,-1.04692e-01,5.48656e-02,1.18190e-01,4.52054e-02,-1.15842e-02,7.49145e-02,-3.50669e-02,6.11775e-02,2.56500e-02,-1.04397e-01,7.99230e-02,1.93138e-02,1.07538e-01,2.68855e-02,1.01373e-01,6.55138e-02,-6.59393e-02,3.29554e-02,1.13839e-01,9.26211e-02,-8.15403e-02,-5.84696e-03,5.34526e-02,-1.00302e-01,-6.88608e-02,5.97626e-02,1.89069e-02,1.01606e-01,7.85405e-02,1.16458e-01,4.82330e-02,1.11202e-01,-8.23728e-02,4.93971e-02,-1.12839e-01,-4.12591e-03,1.20574e-01,9.12937e-02,-5.10553e-02,6.09636e-02,-5.54407e-02,8.42919e-02,9.79120e-02,1.75378e-02,1.08406e-01,-4.88701e-02,1.24802e-01,-3.85244e-02,-7.36856e-02,-9.65590e-02,4.02772e-02,-8.92757e-02,-2.29782e-02,-2.30358e-02,6.38108e-02,
-1.57021e-02,-1.17971e-01,5.92142e-02,-7.71775e-02,-4.79387e-02,-1.16840e-01,2.07520e-02,1.22771e-02,7.97788e-02,-2.12991e-02,-2.85026e-02,-1.13592e-01,-5.03480e-02,6.82824e-02,-8.00504e-02,-6.77992e-02,1.98919e-02,5.95947e-02,-4.54243e-02,-1.29849e-02,-8.61353e-02,-8.59308e-02,-2.63412e-03,7.04521e-02,-1.20997e-03,-9.61447e-02,-2.89138e-02,1.07579e-01,-9.78421e-02,6.96937e-02,-2.29097e-02,2.29595e-02,-3.97389e-03,-6.71739e-02,3.22757e-02,-8.99191e-02,4.54897e-02,8.59825e-02,4.92645e-02,-7.59756e-02,8.20913e-02,1.13851e-01,8.75272e-02,2.26635e-03,2.14306e-02,-1.70695e-02,-9.25052e-02,3.23409e-02,-5.47888e-02,6.12323e-02,8.05108e-02,4.43469e-02,-7.87988e-02,8.93452e-02,-9.60465e-02,1.22830e-01,-1.00637e-01,6.77296e-02,5.72783e-02,3.48326e-02,1.23965e-01,-8.58645e-03,-1.16555e-01,-1.07527e-01,
-4.24501e-02,6.83696e-02,4.03480e-03,2.24500e-02,1.13566e-01,2.18953e-02,-1.01329e-01,6.11603e-04,-4.65314e-03,1.00209e-01,7.79828e-02,-3.59207e-02,6.55499e-02,-4.23595e-02,6.00192e-02,2.07490e-02,-3.82933e-02,1.75488e-02,-1.16310e-01,-1.84655e-02,-8.87584e-02,-8.48182e-02,1.04862e-01,1.35773e-02,3.72692e-02,1.13821e-01,-5.74526e-03,5.49159e-02,6.08067e-02,7.99385e-03,1.13475e-01,7.87677e-02,-8.88443e-02,7.91167e-02,1.02181e-01,-1.22857e-01,6.84291e-02,-1.05796e-01,3.96205e-02,1.14637e-01,-1.57081e-02,8.07281e-02,-2.19797e-02,-3.94068e-02,-3.81761e-02,-1.17472e-01,-3.97637e-02,-4.38004e-02,2.48108e-02,-1.13037e-01,-9.36409e-02,-6.58098e-02,9.63479e-02,9.69027e-02,1.24986e-01,-1.16033e-01,-1.06490e-01,-8.00987e-02,7.50891e-02,1.23090e-01,1.02898e-01,1.04772e-01,-5.38522e-02,-7.75605e-02,
1.40052e-02,1.00921e-01,-7.47623e-02,1.11960e-02,6.27547e-02,-7.47641e-02,-8.05914e-02,-7.88279e-02,-7.70230e-02,-3.06518e-02,7.80745e-03,-1.06114e-01,5.96585e-02,-8.40217e-02,-2.59759e-02,1.06166e-01,9.64350e-02,-8.42731e-02,5.32873e-02,9.60726e-02,-2.78639e-02,-5.63599e-03,9.27362e-02,1.16150e-01,-2.22051e-03,-6.77675e-02,8.54992e-02,-3.63351e-02,4.64542e-03,5.64498e-02,-7.18816e-03,-4.64945e-02,1.11427e-01,-6.97070e-02,-3.29178e-02,5.45726e-02,-1.02512e-01,9.67187e-02,-3.41107e-02,-1.24173e-03,-6.92711e-02,-9.79395e-02,-9.89364e-02,8.97563e-02,-1.24196e-01,5.71576e-02,5.06303e-02,-5.09278e-02,-1.11800e-01,-2.44617e-02,7.86126e-02,-5.89395e-03,7.92434e-02,-2.97385e-03,1.48807e-02,6.48475e-02,-6.67982e-02,6.45751e-02,-4.05281e-02,-9.38161e-02,-3.16233e-02,1.89937e-02,7.22272e-02,-8.91283e-02,
-7.08797e-02,-9.53609e-02,-1.22857e-01,-1.49875e-02,-1.13374e-01,-9.96695e-02,1.02156e-01,2.05300e-02,8.12652e-02,9.67012e-02,9.41525e-02,-2.32657e-02,-6.71523e-02,-7.57951e-03,1.24168e-01,4.20300e-02,-8.09150e-02,1.09703e-01,3.20836e-02,1.14312e-02,-4.50592e-02,-8.78358e-03,6.67099e-02,4.83625e-02,1.60510e-02,-7.83038e-02,-1.03038e-01,9.81840e-02,1.23782e-01,-5.89505e-04,5.11434e-02,-4.17495e-02,-5.16952e-02,6.19186e-02,-1.32157e-02,3.11477e-02,-6.29710e-02,6.52988e-02,8.36250e-02,6.75976e-02,-9.71433e-02,-7.52441e-02,7.39290e-02,7.07261e-02,-3.03761e-02,1.16113e-01,5.14876e-02,-4.22225e-02,9.09832e-02,-1.11470e-01,-3.08638e-02,6.22052e-02,-6.31886e-02,-6.31590e-02,3.40244e-02,-7.09706e-02,-1.24977e-01,-1.11366e-01,-1.18970e-01,1.05208e-01,3.55175e-02,-8.16229e-02,-1.15767e-01,8.49489e-02,
7.43332e-02,2.68419e-02,9.65030e-02,-1.05740e-01,-6.47421e-02,4.85520e-02,1.11959e-02,-2.13896e-02,-3.25796e-02,1.72351e-02,-1.10025e-01,7.80062e-02,-4.54320e-02,-5.44052e-03,-1.18816e-02,-7.14045e-02,5.27403e-02,-9.77585e-02,-8.85411e-03,1.22759e-01,-1.22785e-01,6.35681e-02,8.08318e-02,-8.93253e-02,-8.07947e-03,-9.29526e-02,-9.46985e-02,-3.35540e-02,-6.77229e-02,1.20541e-01,-2.63316e-02,-9.21571e-02,1.04679e-01,1.02733e-01,-4.82681e-02,-3.55244e-02,-4.07824e-02,1.25951e-03,1.18088e-01,-1.12724e-01,-9.36802e-02,-1.08496e-01,-8.95604e-02,2.72732e-02,8.25653e-02,9.51740e-02,5.74692e-02,-4.08265e-02,-5.99529e-02,-4.58493e-02,-3.66669e-02,2.62215e-02,-3.50229e-02,8.43175e-03,1.03171e-01,8.43390e-02,-7.80502e-02,2.08990e-02,4.94396e-02,-4.01227e-02,2.60299e-02,-8.94874e-02,-3.72907e-02,-8.50957e-02,
8.96898e-02,1.16771e-01,-5.32891e-03,-1.14686e-01,1.22670e-01,-1.00209e-01,-3.42639e-02,-6.49098e-02,2.44896e-02,7.55998e-02,8.86162e-02,-4.88933e-02,1.20046e-01,1.22608e-01,-4.43546e-02,-9.02207e-02,1.00334e-01,1.63019e-05,8.21868e-03,-6.15954e-02,-3.15835e-02,-1.21446e-01,7.83238e-03,-8.18409e-02,4.69990e-03,-4.17518e-02,-1.12656e-02,1.08257e-01,5.87202e-02,-1.18259e-01,1.21760e-01,-2.53776e-02,8.06438e-02,4.17215e-02,-7.88364e-02,-1.18179e-01,-5.14951e-03,-1.56075e-03,-7.88572e-02,-1.18340e-01,5.01953e-03,-4.81367e-02,-9.71030e-02,3.10382e-02,-9.10341e-02,-1.10842e-01,-9.92756e-02,-8.61006e-02,-9.50998e-03,-4.91697e-02,-6.46623e-02,8.53720e-02,-8.37469e-02,7.23354e-02,-7.97708e-02,3.07366e-02,6.35264e-02,-1.02649e-01,-8.73279e-02,-4.88570e-02,1.66517e-02,1.05189e-01,-9.27716e-02,-9.25298e-02,
1.23596e-01,-1.22381e-01,6.67176e-02,-5.50922e-02,-1.10536e-01,4.76898e-02,-3.97948e-02,-7.34712e-02,-1.31343e-02,-4.98460e-02,-1.14360e-01,-2.34981e-02,4.13440e-02,-3.76125e-02,1.20393e-01,-4.22622e-02,-6.50595e-02,6.95737e-02,9.35084e-02,-5.03524e-03,4.53426e-02,8.83302e-02,3.43857e-02,-1.96104e-02,8.83486e-02,-2.52259e-02,9.08921e-02,-6.02664e-02,-1.05156e-02,1.02138e-01,1.13147e-01,6.45658e-03,-8.17839e-02,-8.69952e-03,9.39113e-02,2.13218e-02,9.97297e-02,-3.02712e-02,4.05317e-02,3.16651e-02,5.78872e-02,-9.55673e-02,-7.11558e-02,-3.55405e-02,-1.17189e-01,1.55051e-02,-1.21551e-01,5.42742e-02,-3.50756e-02,-4.78637e-02,6.74893e-02,-1.23526e-02,1.10351e-01,-8.89638e-02,1.01232e-01,-9.74411e-02,-4.04091e-02,3.83817e-02,-1.90884e-04,-3.17737e-02,-8.70704e-02,2.94982e-02,1.26641e-02,8.93763e-02,
4.04230e-03,1.20557e-01,9.33579e-02,-3.19083e-03,-1.16696e-01,3.70389e-02,9.73527e-02,-4.67534e-03,6.70774e-03,3.94146e-02,1.04064e-01,-4.47974e-02,8.88221e-02,-1.22964e-01,1.06741e-01,1.11620e-01,1.23391e-02,1.22574e-02,1.01921e-01,4.47588e-02,-8.40689e-02,4.65526e-02,5.36478e-02,-1.15860e-01,7.98787e-02,7.01626e-02,1.87984e-02,1.86290e-02,7.69177e-02,4.37479e-02,-7.48023e-02,-9.17548e-03,2.50573e-02,2.04374e-02,5.22445e-02,-8.75859e-02,1.13413e-01,6.60030e-02,-1.40519e-03,3.73815e-02,-1.24248e-02,-9.56728e-02,-2.35358e-02,-1.01841e-01,7.01083e-02,8.52604e-02,4.56829e-03,-1.04431e-01,1.13441e-01,-3.98642e-02,9.26562e-02,-3.98334e-02,6.47697e-02,-1.99366e-02,-4.15081e-02,-1.36565e-03,9.93146e-02,1.17851e-01,7.96015e-02,-1.11206e-01,-9.60362e-02,-2.20993e-02,8.06441e-02,-1.18715e-01,
3.74019e-02,5.90919e-02,4.67454e-02,9.34593e-02,-4.13838e-02,-5.02815e-02,1.13171e-01,1.04359e-01,-1.92702e-02,3.73906e-02,-9.49667e-02,-8.24736e-02,-1.08572e-01,4.91835e-03,5.21505e-02,-7.44117e-02,3.33600e-02,4.49567e-02,5.53669e-02,-1.66117e-02,-9.15711e-02,7.66030e-02,9.57346e-02,8.87645e-02,5.94910e-02,-1.87902e-02,-1.75347e-02,5.87507e-02,-3.53433e-03,1.04810e-01,-4.12069e-02,4.68710e-02,1.40591e-03,1.01388e-01,9.23999e-03,-1.82699e-02,2.11752e-02,-1.19669e-01,5.84034e-02,-9.95305e-02,3.76611e-02,8.09446e-02,-1.16341e-01,1.20204e-01,-7.74607e-02,-1.00635e-01,-5.17348e-02,7.70652e-02,-6.08715e-02,-9.43675e-02,-1.16415e-02,-8.11069e-02,1.13554e-01,-4.37841e-04,8.93605e-02,-1.05383e-01,2.67378e-02,-9.06317e-02,-1.31722e-02,2.02220e-02,-8.57622e-02,8.85373e-02,3.93611e-02,8.99892e-02,
4.93964e-02,-2.74222e-02,-8.59860e-02,-8.02888e-02,9.33037e-02,-5.32736e-02,-2.80365e-02,1.19737e-01,-4.91579e-02,-3.49618e-02,7.72819e-02,8.17646e-02,9.04783e-02,9.47998e-02,7.24920e-02,5.31560e-02,-9.12077e-02,-1.76687e-02,4.91376e-02,9.25894e-03,-9.77447e-02,1.66809e-02,1.03043e-01,1.19855e-01,-1.10988e-01,1.16007e-02,1.79924e-02,1.15494e-01,3.82273e-02,9.47323e-02,1.08645e-01,6.18132e-02,-3.39619e-02,-5.67819e-02,2.41122e-02,-9.03796e-02,3.41220e-02,5.28197e-02,-8.89003e-02,-3.78392e-02,-4.61964e-02,-1.14687e-01,-3.46006e-02,-8.75534e-02,1.02010e-01,5.08970e-02,8.18535e-02,5.17264e-03,4.09945e-02,4.16730e-02,-1.08937e-02,-1.03253e-01,-4.20345e-02,-5.89949e-02,-4.23493e-02,-7.30019e-02,-7.65822e-02,-4.46155e-02,8.41840e-03,1.13170e-01,3.08298e-03,-1.20530e-01,-1.56941e-02,8.08347e-02,
-8.34719e-02,8.51959e-02,5.66875e-02,-1.17631e-01,1.22115e-02,1.24913e-01,-6.06199e-02,2.29587e-02,7.45627e-02,1.22014e-01,1.16961e-01,1.09231e-01,7.96788e-02,-7.94863e-02,-3.95325e-02,9.80986e-02,-7.91075e-02,-2.21300e-03,-9.55414e-02,-1.15400e-01,-1.87239e-02,-1.82079e-02,-4.78505e-02,-8.57068e-02,3.48493e-02,-6.23036e-02,-5.41398e-03,4.75832e-02,8.02491e-02,-3.33482e-02,-8.32565e-03,-5.20844e-02,4.58271e-02,3.30652e-02,-1.72670e-02,5.14571e-02,-6.76305e-02,-1.18831e-02,1.22551e-01,-4.94748e-02,6.70704e-02,-5.02004e-02,-4.97021e-02,-1.23987e-02,-7.18746e-02,-2.29994e-02,-1.35394e-02,1.22519e-01,1.21508e-01,-8.81250e-03,8.79726e-02,8.47822e-02,-6.50970e-02,-9.37200e-02,-3.39287e-02,-4.51228e-02,5.49363e-02,2.20001e-02,4.64188e-02,-4.94031e-02,-5.42591e-02,-9.35478e-02,-2.23541e-02,-7.94172e-02,
-1.88675e-02,6.17065e-03,-1.23282e-01,-7.06653e-02,-1.24885e-01,8.65778e-03,-9.25475e-02,-5.62971e-02,9.02310e-02,-1.19220e-03,7.43789e-02,1.09452e-01,7.78936e-02,7.75077e-02,1.02845e-01,2.21772e-03,5.80782e-02,-2.10220e-02,9.69507e-02,-7.01438e-02,-4.84282e-02,4.32472e-02,2.14086e-03,6.39234e-02,-1.00353e-01,-1.22636e-01,1.24083e-01,4.08480e-02,9.03546e-02,-1.00042e-01,-1.22666e-01,-2.23230e-03,4.44169e-02,8.11052e-02,-6.18251e-02,6.48147e-02,-4.29343e-02,3.28892e-02,7.86466e-02,1.22161e-01,-7.52021e-02,-1.08762e-01,-7.04320e-02,4.04187e-02,-1.01799e-01,8.72037e-03,-5.91611e-02,8.03717e-02,2.20805e-02,2.02260e-02,4.13452e-02,8.85303e-02,-1.17329e-01,6.89748e-02,-3.73821e-02,7.20682e-02,4.22190e-02,-1.19894e-01,5.89981e-02,-8.40539e-02,-2.05118e-02,2.90546e-02,-1.22103e-01,8.87949e-02,
3.44528e-02,9.75060e-02,-8.11685e-02,1.12426e-01,1.13834e-01,-3.39459e-02,-2.61874e-02,7.37446e-02,-1.08380e-01,1.25527e-04,-1.21510e-01,-4.13664e-02,-6.49158e-02,-6.67070e-02,4.24568e-03,4.90106e-02,-1.05817e-01,-7.49890e-02,-4.34668e-02,-1.15044e-01,-9.17163e-02,1.05738e-02,9.81178e-02,-8.12297e-02,-5.90682e-02,-1.53784e-02,-1.00786e-01,7.83144e-02,-1.22369e-01,7.06557e-02,-2.89940e-02,2.81958e-02,8.70228e-02,7.15728e-02,1.94884e-02,-7.99551e-02,3.54230e-02,-9.25606e-02,-3.40281e-02,1.13190e-01,-6.28573e-02,2.17341e-02,-8.87036e-02,3.37592e-02,9.98121e-02,4.54227e-02,4.95817e-02,7.67104e-03,8.82293e-02,5.98782e-02,-6.41965e-02,-3.21974e-02,6.30808e-02,4.84680e-02,-6.56706e-02,2.71207e-02,-7.92267e-02,6.73431e-03,1.72956e-03,-8.69127e-02,8.01581e-02,9.89049e-02,3.47114e-02,3.91338e-02,
1.94315e-02,-2.40628e-02,-1.02002e-01,3.93489e-02,-1.63321e-02,3.29514e-02,-1.12645e-01,-1.06538e-01,-1.18514e-01,-9.21546e-02,-5.45202e-02,9.16536e-02,4.96730e-02,4.50848e-02,-1.18615e-01,-3.84660e-02,3.11067e-02,-6.93585e-02,2.59212e-02,1.63725e-02,1.13240e-03,-1.11526e-01,-1.10872e-01,1.57993e-02,8.03928e-02,-1.14644e-01,-1.18878e-01,1.69328e-03,-4.53922e-02,-6.08587e-02,-1.09094e-02,8.91879e-02,-1.62150e-03,-8.01320e-02,2.57842e-02,2.79461e-02,3.76957e-02,-1.18521e-01,1.19410e-01,-4.32692e-03,-9.59883e-02,5.41980e-02,-8.60389e-02,-4.66962e-02,4.61571e-02,1.11993e-01,1.24778e-01,-8.98730e-02,4.87576e-02,-8.16762e-02,-7.05447e-02,1.92071e-02,-9.27680e-02,-1.17217e-01,9.36092e-02,-1.10198e-01,1.21064e-01,5.12929e-02,-6.69392e-02,-2.97200e-02,-6.92046e-02,-3.34291e-02,4.12845e-02,-8.70531e-02,
9.14436e-02,-1.08751e-01,7.99119e-02,-5.62999e-02,-6.15854e-02,-2.95655e-02,7.02239e-02,2.62627e-02,2.73775e-02,-1.75951e-02,-4.65094e-02,-3.45246e-02,-1.04404e-01,3.12832e-02,-1.03629e-01,1.24821e-01,1.14613e-01,-2.36431e-02,6.97452e-02,-9.48100e-02,-9.65909e-02,5.44148e-02,7.44648e-03,-1.13760e-01,1.32147e-02,1.12661e-02,1.65896e-02,-6.29798e-02,-1.26845e-03,1.15115e-01,3.63130e-02,-6.36061e-02,-8.45782e-02,-4.50270e-02,1.21228e-01,-2.94293e-02,-1.18071e-01,1.22801e-01,-1.15881e-01,5.86786e-02,-1.17300e-01,-8.14847e-02,3.47605e-02,-1.06985e-02,-7.49657e-02,-5.52669e-02,-6.74945e-02,-8.76325e-02,9.67914e-02,-4.70134e-02,8.49088e-02,-6.81002e-02,1.17206e-01,5.13193e-02,1.11750e-01,-8.95515e-02,1.51685e-02,4.43692e-02,3.48883e-02,-1.00698e-01,9.98635e-02,-9.77251e-02,1.11531e-02,-2.66095e-03,
3.40327e-02,1.14996e-01,-2.77441e-02,-4.16787e-03,-6.77933e-02,-1.23122e-01,-1.18990e-01,-1.24384e-01,-5.22440e-02,-2.46053e-02,-1.06896e-01,2.98613e-02,-1.20717e-01,2.11634e-02,-9.66048e-02,-1.22100e-01,2.04717e-02,5.48757e-02,-9.34807e-02,5.84132e-02,9.72586e-02,-5.64757e-02,1.17144e-01,4.46141e-04,8.83539e-02,-1.20217e-01,-9.67190e-02,-1.05009e-02,-7.17160e-03,-4.48791e-02,6.95730e-02,7.03172e-02,-5.24106e-02,-2.72856e-02,7.94617e-02,-2.74299e-02,-2.94809e-02,-8.34569e-04,9.36662e-02,1.02583e-01,9.10575e-02,2.43166e-02,-1.12190e-01,-8.43106e-03,-2.67283e-02,-1.12829e-01,1.09886e-01,-3.39649e-02,-7.39913e-02,5.18813e-02,1.18241e-01,-5.29874e-02,-2.77913e-02,5.69903e-02,4.40739e-02,-1.10144e-01,-4.42349e-02,-4.26507e-02,7.55211e-02,-8.98240e-02,3.22947e-02,1.21860e-01,-1.09069e-01,-5.18213e-02,
-9.29814e-02,1.83987e-02,6.11019e-02,1.11249e-01,-1.19667e-01,4.94668e-02,4.11800e-02,2.11533e-02,1.08792e-01,-8.32966e-03,-3.27073e-02,6.73774e-02,7.97785e-02,5.27001e-02,1.82447e-02,7.97860e-02,-1.03038e-01,-9.14331e-02,-1.02584e-01,3.18223e-02,1.43967e-02,-1.20048e-01,-1.66399e-02,-1.40973e-02,7.11447e-02,2.61695e-02,1.56680e-02,-6.53845e-02,1.02495e-01,2.95242e-02,1.46225e-02,-8.54551e-02,-9.04445e-02,6.15703e-03,5.62465e-02,1.16257e-01,1.23401e-01,-3.39791e-02,1.07632e-01,1.59171e-03,1.09862e-01,5.16333e-02,-7.55101e-02,-5.02670e-02,1.22566e-01,-5.48170e-02,-7.60692e-02,-1.20045e-01,6.87344e-02,-8.13001e-02,-1.20969e-02,-1.86601e-02,-1.09359e-02,2.52799e-02,-1.14965e-01,6.38667e-02,-6.19883e-02,4.53128e-02,-2.77533e-02,-7.34182e-02,-3.33925e-02,-6.42363e-02,-6.43074e-02,-3.14905e-02,
-7.21255e-02,-1.08260e-01,2.58136e-02,-1.19292e-01,-8.30774e-02,7.62002e-02,-4.22771e-02,-4.18638e-02,1.05446e-01,1.54579e-03,-4.96512e-02,-9.07960e-02,1.13341e-01,-4.29122e-02,-3.60438e-02,5.54517e-02,-4.39807e-02,-1.19367e-01,7.26688e-02,-8.67339e-02,1.04123e-01,-1.03686e-01,6.34839e-02,7.06454e-02,-1.09199e-01,7.56021e-02,2.30945e-02,-2.79381e-02,-1.16860e-01,6.79117e-02,2.30525e-02,3.76792e-02,1.19810e-01,-4.11203e-02,7.27370e-02,7.79110e-02,-1.23079e-01,9.86886e-02,4.84135e-02,1.09463e-01,-1.87334e-02,8.29848e-02,-9.37115e-02,9.88072e-03,-1.05433e-01,1.00432e-01,9.81023e-02,-1.00934e-01,-7.26624e-02,-2.47072e-02,-4.95130e-02,1.42526e-02,-7.49734e-02,-1.22616e-01,-1.09732e-01,-3.47722e-02,7.54427e-02,3.04366e-02,-2.62536e-02,9.00859e-03,-4.62568e-02,1.31100e-02,3.50943e-02,4.64651e-02,
9.19574e-02,8.23812e-02,-1.23179e-01,-7.17418e-02,8.95311e-02,1.98128e-02,-1.09038e-01,-5.92288e-03,7.03415e-02,1.24859e-01,2.31546e-02,5.27439e-02,1.03258e-01,-8.73134e-02,-9.15422e-02,-1.83350e-02,-4.78725e-02,5.60043e-02,2.92710e-02,-1.33069e-03,-3.26163e-02,4.42761e-02,-1.49159e-02,-5.94222e-02,1.72411e-02,4.64685e-03,1.24515e-01,5.74590e-03,3.43269e-02,5.02545e-02,-5.51971e-02,-3.49016e-02,-5.17627e-02,7.41143e-02,3.03222e-02,5.64473e-02,-8.46424e-02,7.31134e-02,-7.51413e-02,-4.76509e-02,-2.93069e-02,-4.83593e-02,2.65840e-02,1.03266e-01,1.16890e-01,3.58456e-02,-2.91623e-02,4.71126e-03,-1.24326e-02,-8.80140e-03,2.19386e-02,5.86452e-02,9.87090e-02,9.49209e-02,6.87666e-02,5.43001e-02,-6.90629e-02,6.01788e-02,-9.96723e-02,3.63306e-02,-5.83839e-02,5.98078e-02,7.97869e-02,-1.00300e-01,
1.09691e-01,-1.61894e-02,-5.48020e-02,-9.38967e-02,6.10939e-02,-1.33062e-02,8.83738e-02,-1.14838e-01,-6.86355e-02,-8.10213e-02,-1.10798e-01,-6.79485e-02,-2.93709e-02,-5.02630e-02,9.04193e-02,4.90036e-02,2.04921e-02,3.65261e-02,-7.35399e-02,8.23030e-02,-3.49000e-04,9.76634e-02,5.91556e-02,9.94054e-02,1.72659e-02,-9.61214e-03,-8.72524e-03,-1.17150e-01,6.72704e-02,-8.76251e-02,-1.18021e-01,-4.84695e-02,5.33637e-02,-4.17705e-02,5.25645e-02,5.66995e-02,-3.15146e-02,5.04256e-02,-9.63237e-02,1.01765e-01,6.33819e-02,-1.00449e-01,5.55920e-02,7.78792e-02,7.72479e-02,2.29261e-02,1.16131e-01,1.95761e-02,5.86288e-02,2.53945e-02,6.99547e-02,-2.56143e-02,1.00527e-01,1.16409e-01,5.06875e-02,8.44837e-02,2.41241e-02,3.81156e-02,2.70694e-02,-1.42762e-02,2.22754e-03,3.77388e-02,1.20897e-01,-8.30761e-02,
-6.22059e-02,9.43432e-02,-6.81539e-02,8.73767e-02,5.92859e-02,7.92074e-02,-1.05857e-01,6.39470e-02,-9.08372e-02,1.23383e-01,7.53211e-02,-9.24554e-02,1.14017e-01,8.02382e-02,-7.91023e-02,1.96614e-02,-2.90767e-02,-1.01853e-02,-5.18230e-02,-3.30316e-02,-7.76588e-02,9.15779e-02,-1.13870e-01,-1.04917e-01,9.31641e-02,4.30620e-02,2.73766e-03,1.24041e-01,-1.18573e-01,7.38300e-02,-7.47591e-05,1.10219e-03,1.15294e-01,-7.69085e-03,7.55213e-02,6.98862e-02,-9.69937e-02,7.30520e-02,8.66623e-02,7.28830e-02,-1.18206e-01,-1.08012e-01,3.61027e-02,-8.75218e-03,6.07037e-02,9.94768e-02,-4.30262e-02,3.26837e-02,3.02356e-02,-4.80617e-02,-1.12535e-01,5.34447e-02,-2.98660e-02,4.81539e-02,-9.02521e-02,-1.06864e-01,6.64997e-02,1.02737e-02,1.20149e-01,6.46838e-02,1.24356e-01,-7.17175e-02,-9.46533e-02,1.13515e-01,
1.13326e-02,9.33879e-02,-1.12414e-01,3.93223e-02,1.07702e-01,-2.49617e-02,1.11599e-02,1.21250e-02,-2.96709e-02,1.17851e-02,8.39316e-02,1.10476e-01,5.57725e-02,1.94693e-02,-3.94588e-02,4.71850e-02,-3.82494e-02,-1.11691e-01,-4.46358e-02,-6.32281e-02,-9.83821e-02,-6.08613e-02,-9.45880e-02,2.25510e-02,1.18389e-01,-8.43665e-03,-5.72097e-02,9.68577e-02,-2.53011e-02,8.22607e-02,-2.47823e-02,1.39799e-02,3.00170e-02,1.08929e-01,-1.12697e-01,5.35308e-02,-3.38796e-02,1.04966e-01,-8.16605e-02,1.24168e-02,7.37223e-02,1.29236e-02,7.22231e-02,5.88649e-02,1.20934e-02,6.76242e-03,6.50871e-02,-6.89717e-03,-7.21074e-02,-1.00805e-01,4.60024e-02,-2.68193e-02,1.13395e-02,7.67521e-02,-8.01746e-02,2.53137e-02,6.51948e-02,-3.46999e-02,-1.01554e-02,-7.34651e-03,5.44803e-02,-5.66012e-02,1.16690e-01,-2.20660e-02,
1.14176e-01,-3.12267e-02,6.80687e-02,1.13068e-01,-6.06900e-02,4.96246e-03,-6.19869e-02,-1.09227e-02,1.23913e-01,-9.19361e-02,1.21903e-01,-4.75786e-02,2.22252e-02,-9.20938e-02,4.08195e-02,2.77095e-02,1.05810e-01,9.99182e-02,-5.94320e-02,1.24734e-01,1.13543e-01,-1.17684e-01,-7.14663e-02,5.45117e-02,-6.28437e-03,1.21805e-01,9.38305e-02,1.06177e-02,-9.56441e-02,-5.20967e-02,-1.21673e-01,4.18574e-02,4.13079e-02,2.99940e-02,1.23416e-01,3.56356e-02,-2.43846e-02,8.44939e-02,1.07479e-02,4.90078e-03,1.17090e-02,-9.55870e-02,4.55438e-02,-4.76240e-02,-9.47486e-02,-5.11402e-02,1.12044e-01,9.09101e-02,-5.11577e-02,9.73872e-02,-1.23544e-01,-2.19180e-02,2.10066e-02,5.85945e-03,6.75613e-02,6.17343e-02,-5.04174e-02,-9.22588e-02,1.34729e-02,-1.11381e-02,-1.14629e-01,1.48335e-03,7.94659e-02,-4.57190e-03,
