// Neural Network File Format by Kyle Julian, Stanford 2016
5,12,3,64,
12,64,64,64,64,3,
0,
-1.5,-1.5,-1.5,-1.5,-1.5,-1.5,-0.5,-0.5,-0.5,-0.5,-0.5,-0.5,
1.5,1.5,1.5,1.5,1.5,1.5,0.5,0.5,0.5,0.5,0.5,0.5,
0.0,0.0,0.0,0.0,0.0,0.0,0.0,0.0,0.0,0.0,0.0,0.0,0.0,
3.0,3.0,3.0,3.0,3.0,3.0,1.0,1.0,1.0,1.0,1.0,1.0,1.0,
1.39414e-01,4.21529e-01,2.46760e-02,-1.27116e-01,3.67894e-03,3.40906e-02,-1.59037e-01,-2.44150e-01,8.50515e-03,-5.83159e-01,-5.81372e-02,-2.14344e-01,-9.84946e-02,-2.66098e-01,2.33454e-01,3.42562e-02,-7.54256e-02,6.02423e-01,-1.20224e-01,-2.47652e-02,-2.73407e-01,-2.17697e-03,7.93635e-03,9.71057e-03,1.12215e-02,-4.07937e-02,2.57903e-01,6.61589e-01,-7.99502e-02,4.30013e-01,5.10817e-01,6.36539e-02,4.07503e-01,-1.32183e-01,1.05393e-01,-1.99660e-01,7.55041e-02,1.17649e-01,-3.98357e-01,-1.98234e-01,-3.97322e-01,5.88058e-03,2.36872e-01,-4.19367e-01,2.47894e-01,1.64683e-01,3.41937e-02,-5.60069e-01,5.28625e-02,4.10586e-01,-4.72352e-02,-3.28195e-01,6.71579e-02,2.45559e-01,4.69120e-02,3.22231e-01,-3.87803e-01,1.61405e-01,1.91904e-01,4.87924e-02,7.49747e-02,2.67690e-02,-1.59724e-01,1.77885e-02,
4.67535e-01,5.55880e-02,-3.15217e-02,1.33577e-02,8.56357e-03,-8.55485e-01,-3.63801e-02,1.61141e-01,2.03140e-01,-4.38807e-01,-3.86373e-03,-1.02268e-01,-6.51377e-04,2.86613e-01,1.50861e-01,-7.72816e-02,-2.39088e-02,-2.03090e-02,6.51341e-02,-1.45911e-01,4.50455e-01,-3.36771e-02,-1.58085e-03,-3.54131e-02,3.33285e-01,-1.88109e-02,-8.69421e-02,2.60240e-01,6.06435e-02,3.81565e-01,3.37917e-03,-1.36375e-01,2.29575e-01,-7.59067e-02,6.69966e-02,6.53261e-02,1.50208e-01,-1.06621e-01,-3.94631e-02,-1.04033e-01,-3.40505e-01,5.93558e-02,8.23151e-02,-6.19357e-01,-1.17237e-01,-1.10491e-01,-3.52013e-02,7.88348e-01,-2.11445e-01,1.21850e-01,1.05366e-01,-3.34406e-01,-1.38524e-01,6.16614e-02,6.60048e-02,-1.34810e-01,-2.16303e-02,2.84686e-01,-3.45988e-01,1.15408e-01,-1.52247e-02,7.17030e-02,-1.83408e-01,2.21413e-02,
-5.06169e-01,-5.11694e-01,1.21039e+00,-4.22692e-01,8.56526e-01,1.39692e-01,5.97085e-02,-1.84448e-01,-3.13428e-01,3.40573e-01,6.37074e-02,-5.81018e-01,7.37833e-02,5.45584e-01,-5.63314e-02,-1.92572e-01,-1.39221e-01,-3.75025e-01,-2.34860e-01,-1.23141e+00,-3.00687e-01,1.85248e-01,-5.62538e-01,1.71902e-01,2.17551e-01,2.66461e-01,-2.30313e-01,2.34951e-01,-7.72277e-01,9.00519e-01,3.66165e-01,1.89518e-01,-7.34394e-01,2.99318e-01,5.08215e-01,-7.25491e-02,5.15799e-01,7.77317e-02,1.41397e-01,-1.91897e-01,2.06018e-01,-3.36134e-01,-9.86919e-02,-3.52237e-01,1.30289e-01,-1.21157e-01,-2.85741e-01,1.25066e-03,-7.15010e-01,-3.01839e-01,5.03017e-01,-5.37055e-01,3.05703e-01,6.27072e-02,-6.01829e-01,-2.49452e-01,-6.79362e-01,1.42220e-01,-1.81135e-01,-4.37419e-01,-2.32831e-01,5.32184e-01,1.28182e-01,-3.15388e-01,
-3.39731e-01,-6.82872e-01,-1.28870e+00,2.45493e-01,-1.55909e-02,-2.44194e-03,1.29548e-01,-4.77406e-03,2.81334e-01,-7.41321e-01,-1.27706e-01,-9.62548e-01,6.22641e-02,-8.23691e-01,-2.43470e-01,1.38410e-01,7.67957e-01,-2.09164e-01,-4.71895e-01,1.18218e-01,-2.19207e-01,-4.64731e-01,3.70485e-01,-4.25177e-03,-6.63255e-01,-7.20678e-02,2.26339e-01,-2.26307e-01,-3.55633e-01,1.06750e+00,1.11334e+00,2.95410e-02,5.35697e-01,-5.12994e-01,7.15192e-01,-3.95115e-01,5.64077e-01,-9.57494e-02,3.45648e-01,-3.03989e-01,1.30516e-01,-2.87834e-01,-9.50229e-02,-5.18614e-01,9.63253e-02,7.75284e-01,-3.60730e-01,2.82746e-01,-3.68014e-02,4.34540e-01,-1.88408e-01,-8.89595e-01,8.25273e-01,-2.67691e-01,7.71231e-01,9.82744e-01,-3.20672e-02,3.44538e-02,-4.53798e-01,9.86350e-01,2.10839e-01,5.38426e-01,-9.78511e-01,1.00134e-01,
-1.46194e-01,-6.21025e-02,-3.73744e-02,3.03271e-01,-7.19234e-02,2.00653e-01,8.66857e-02,-1.77944e-01,2.87523e-01,-4.43274e-02,-9.17481e-01,-1.89906e-01,-7.17351e-01,4.15822e-02,7.27319e-01,-5.78874e-01,1.34396e-01,-3.16480e-01,8.09769e-01,-3.88077e-01,-4.47260e-02,2.40981e-01,-3.82625e-01,1.76985e-01,-2.96062e-02,6.15265e-01,1.76049e-01,5.49561e-02,5.09680e-02,1.39162e-01,-1.65595e-01,-1.73438e-01,3.70246e-01,-7.06515e-02,-3.36122e-01,-1.77575e-01,7.86051e-01,-3.01848e-01,-3.12778e-01,-5.29539e-01,-2.45404e-01,-1.17812e-01,-5.50701e-02,7.21826e-01,4.71803e-01,-2.23982e-01,-1.30891e-04,1.20941e-01,-3.77592e-01,6.62696e-01,4.57017e-01,-7.04400e-02,-1.32145e-01,2.17214e-02,1.84335e-01,-1.83192e-01,4.21739e-01,3.41697e-01,-7.00291e-01,3.12573e-01,4.98894e-01,7.11974e-01,-2.16986e-01,-6.44468e-01,
-6.00120e-01,8.33949e-01,-7.10710e-01,-1.71652e-01,-1.19682e+00,-4.71225e-01,-2.95048e-02,-4.76697e-01,-8.12068e-03,-3.21146e-01,-1.88152e-01,-6.41643e-01,-3.72441e-01,-3.93266e-01,6.15014e-02,-1.79888e-01,1.51195e-01,2.73886e-01,-3.34076e-03,-4.32521e-01,-5.80497e-01,1.99281e+00,8.42901e-01,-3.16442e-01,4.30334e-01,-3.43697e-01,7.90727e-02,-2.67421e-01,8.66199e-01,6.20996e-01,-2.20028e-01,-2.85602e-01,1.25598e+00,-1.97415e-01,-9.99367e-01,-1.55375e-01,-5.41376e-01,4.49262e-01,-3.14610e-02,8.74774e-01,4.87419e-01,9.42792e-01,8.43874e-02,3.84225e-01,7.67794e-01,2.17060e+00,1.58003e-01,-3.90543e-01,-1.19276e-01,-3.60889e-01,-3.05163e-01,-5.80004e-01,-4.16555e-01,-1.67613e-01,1.71288e-02,-3.26936e-01,1.30146e+00,2.78316e-01,5.95248e-01,-4.67467e-01,4.81402e-01,-3.87846e-01,5.37187e-02,4.39453e-01,
-9.60183e-03,3.75727e-03,7.29998e-01,5.99597e-01,3.20029e-01,-5.30257e-01,-5.31501e-01,7.04130e-01,-1.42002e+00,1.28194e-01,-3.57113e+00,-2.86441e-01,1.67897e+00,-7.29737e-01,-6.15075e-01,-3.04158e+00,1.87696e+00,5.54368e-01,3.54000e+00,9.24958e-02,-8.40597e-01,1.35190e-01,-1.67437e+00,-1.25879e+00,-3.29242e-01,-1.81993e+00,-1.89252e-01,-1.17942e-02,-2.17977e-01,4.83670e-01,-4.38871e-01,4.84853e-01,-8.90450e-02,3.15673e-01,-1.86342e+00,3.27642e-03,2.36493e+00,-2.29910e+00,-1.77860e-01,1.00101e+00,-6.26948e-01,-4.07030e-01,7.10648e-01,-1.21411e+00,-8.58346e-01,5.60070e-01,1.86537e-01,-1.93051e-01,-2.07019e+00,1.54554e+00,2.41693e-01,-4.86076e-01,3.90320e-02,-3.33268e-02,6.68280e-01,-1.21373e-01,2.25684e-01,-8.66285e-02,-3.21585e-01,-9.64853e-01,2.30460e+00,-5.89440e-01,-3.18400e-01,2.67262e+00,
-1.42982e+00,1.12836e+00,-1.03326e+00,3.37457e+00,1.35192e-01,-3.99482e-01,2.61496e+00,-2.89272e+00,1.68028e+00,-9.98788e-03,3.13629e-01,4.68933e+00,3.40789e-01,-4.53034e-01,-3.75618e+00,4.09693e-01,-4.42101e+00,-4.41894e+00,1.29544e+00,-2.48870e+00,6.92342e-01,3.69947e-03,-1.44879e+00,1.28173e-01,3.87495e+00,-1.02797e+00,-5.11651e+00,3.39972e+00,3.84351e+00,-1.37086e+00,2.88802e-01,-3.04450e+00,-2.43428e-01,-1.11303e+00,-2.40447e+00,4.17618e+00,-1.66265e+00,5.77476e-01,2.79648e+00,-3.11455e+00,-3.05685e+00,-3.23041e+00,-3.89782e-01,1.76083e+00,3.32413e+00,5.46267e-01,3.91570e+00,-2.62675e-01,-2.85785e+00,3.00950e-01,5.15704e-01,1.28670e+00,1.58251e+00,-2.45009e+00,-3.71682e+00,-1.44647e+00,-7.97602e-02,-3.78165e-01,3.26345e+00,-2.47708e+00,-1.12221e+00,1.13085e+00,-1.54046e+00,1.00920e+00,
3.14978e-01,3.20009e-02,-1.35655e-02,7.87039e-01,-4.88163e-02,-1.90480e+00,-8.35164e-02,1.71772e-01,-4.28486e-01,9.13972e-01,-7.14108e-02,4.43992e-01,1.16244e-01,-9.71213e-01,1.47550e-01,1.06759e-01,-5.94826e-01,-3.87971e-02,7.22037e-02,-9.12000e-02,-1.84528e+00,1.43457e-01,2.64195e-03,3.32933e-02,-6.36179e-01,-7.59583e-02,4.88794e-01,-1.35377e-01,-1.83337e-01,1.40859e-01,3.71988e-01,-2.61598e-01,-9.26780e-01,2.55334e-01,-5.16529e-01,-2.30262e-01,1.11328e-02,4.14747e-02,-7.70163e-01,1.65790e-01,-8.41076e-01,6.80615e-02,-1.01309e+00,5.65577e-01,3.02293e-01,4.25060e-03,1.59019e-01,1.38124e+00,6.62972e-03,-1.09680e+00,7.48486e-02,-1.95763e-01,-5.83355e-02,-5.26773e-01,-1.17538e-01,-2.71557e-03,1.50718e-01,6.62457e-01,5.62585e-01,5.41947e-01,4.76836e-02,-3.61808e-01,2.87454e-01,3.34126e-02,
1.34123e+00,2.05585e+00,6.65114e-01,4.67497e-01,1.25296e-01,5.74099e-01,3.63397e-01,1.97811e-01,-4.89310e-01,-1.04940e+00,-1.19880e-01,-8.71153e-02,-4.66926e-01,-3.76159e-01,-6.28644e-02,-6.67455e-01,1.66192e+00,-7.21039e-01,5.05063e-01,-2.06745e-02,8.06297e-02,3.09449e-01,-1.78549e-01,1.46415e-02,-5.85181e-02,-3.67409e-01,-5.77774e-02,-2.42677e-01,-7.18979e-02,-5.01368e-01,9.95883e-01,-3.43549e-03,-9.34130e-01,1.16309e-01,-7.52881e-01,4.95371e-01,6.61500e-04,-5.51576e-01,-8.91660e-01,8.04059e-01,-3.13436e-02,-3.20563e-01,-4.56517e-02,2.90960e-01,-8.30210e-01,4.28104e-01,-1.55170e-01,8.37418e-02,-1.14990e+00,-6.37504e-01,6.53932e-01,2.86815e-01,-2.48126e-01,-2.63811e-01,-2.17281e-01,4.78484e-01,2.60698e-01,7.90672e-02,3.76478e-01,-3.58293e-02,1.14979e-01,2.53325e-01,7.25636e-01,5.75001e-01,
3.08085e-01,-8.13432e-01,1.75949e-01,-3.26065e-01,-1.15943e-01,3.87966e-02,6.94849e-01,-4.28550e-01,7.44103e-02,2.62218e-02,2.64065e-03,3.43013e-01,-1.26881e-01,-3.38553e-01,8.93761e-01,-1.54476e-02,-5.49498e-01,-6.59824e-01,-2.59725e-02,-2.64390e-01,-1.07204e+00,2.10359e-01,-1.65541e-01,2.19500e-02,7.35239e-01,-3.28876e-01,-1.42396e+00,-5.48159e-04,2.91290e-01,4.44608e-01,-2.48500e-01,-2.66279e-01,1.27489e-02,2.52904e-01,-1.28600e-01,-3.47976e-01,6.05792e-02,1.52462e-01,7.48648e-02,-8.71346e-01,-1.09399e-01,-4.67729e-01,-7.80371e-01,3.30113e-02,-1.12494e-04,4.62657e-02,1.25098e+00,-6.56039e-01,-2.25749e-01,-4.86084e-01,5.57142e-02,-2.93953e-01,-4.84579e-02,1.69128e+00,-3.49099e-01,1.35328e+00,-7.12812e-01,-1.17755e+00,-3.68274e-01,-6.72262e-01,-9.33500e-02,-4.02118e-01,-5.23428e-01,2.90499e-01,
-4.68601e-03,-2.74075e-01,7.93204e-01,1.04282e-01,4.98145e-02,4.91362e-01,3.02745e-01,7.20652e-01,-8.28074e-01,-1.78506e-01,-3.18651e-01,2.68074e-01,-1.18349e-01,-5.83826e-01,1.28701e+00,1.34316e+00,5.55850e-01,-9.89000e-02,3.21909e-01,-7.91705e-02,2.02726e-01,5.94219e-01,2.99589e-02,-1.14675e-01,-1.42837e-01,1.69365e-01,-6.45756e-01,2.23409e-01,-1.96374e-01,5.22421e-01,-3.24342e-01,-3.76757e-02,1.03938e-01,3.29564e-02,-6.68084e-01,1.33944e-01,3.58897e-01,9.91060e-02,1.20789e+00,-1.40496e-02,-8.69960e-01,1.54421e-02,1.37023e-01,-4.83325e-01,-5.65854e-01,-1.25958e+00,7.88019e-01,-7.15165e-02,-3.50854e-01,-1.92003e+00,-2.58049e-01,-3.47875e-01,-2.95812e-01,-1.30834e+00,-1.64970e-01,3.30255e-01,1.36936e+00,5.90265e-01,4.79826e-01,1.31936e+00,2.91884e-02,7.89268e-02,8.26935e-01,-2.26127e-01,
-3.47182e-01,
-5.90783e-01,
-1.42218e+00,
-6.14919e-02,
-1.01951e-01,
-6.56098e-01,
-7.35990e-02,
2.01943e-01,
4.04825e-01,
-4.22904e-01,
6.83100e-02,
-7.51346e-01,
1.71430e-01,
-3.69247e-01,
-7.41602e-02,
-4.80290e-01,
-7.68126e-01,
-5.00199e-01,
-4.69763e-02,
-5.65334e-01,
-4.77013e-01,
1.22761e-01,
5.98139e-01,
8.28402e-02,
4.59394e-01,
-3.45976e-01,
5.84133e-02,
-3.26940e-01,
2.95775e-01,
-5.54708e-02,
-3.39407e-01,
2.88126e-01,
-5.68469e-01,
5.62254e-02,
-1.11270e+00,
2.52495e-01,
-6.88166e-01,
3.72263e-01,
-3.34239e-03,
-1.69411e-01,
3.18925e-01,
8.99021e-01,
5.94047e-01,
-3.34651e-01,
8.40589e-02,
-6.39781e-01,
2.63942e-01,
-6.97133e-01,
-6.75075e-01,
-4.68065e-01,
-3.67146e-02,
-4.84383e-02,
-3.54620e-01,
-6.41700e-02,
-5.34170e-02,
-5.93419e-02,
-4.46117e-01,
4.34618e-01,
-3.68495e-02,
-4.35196e-01,
6.90335e-01,
-4.82138e-01,
-3.67088e-01,
3.38987e-01,
-4.58874e-02,8.99420e-01,-3.81647e-01,-3.68770e-03,-2.42074e-02,3.62704e-02,4.16085e-01,3.44470e-01,-2.32980e-01,5.65909e-01,-2.50460e-01,2.25558e-01,-3.38286e-02,-8.38364e-03,-1.81067e-04,-1.92785e-01,-1.36612e-01,4.56101e-02,-2.46600e-02,7.68663e-01,-2.37557e-01,1.28405e-01,4.02842e-02,4.39304e-01,-5.93855e-01,-2.47047e-03,-2.89159e-01,-1.16860e-02,4.20280e-01,-3.94227e-01,-1.63581e-01,1.11738e-03,2.71969e-02,-8.11347e-01,-9.76957e-02,6.78792e-01,6.50736e-02,5.41316e-01,-2.98788e-01,1.09891e-01,-8.36578e-03,-8.22756e-01,4.18609e-01,-1.84691e-01,2.53758e-03,3.43485e-02,-6.10703e-03,-1.52477e-01,3.60095e-01,7.32066e-01,8.14717e-02,-3.17199e-01,4.68869e-01,5.21743e-01,-1.68707e-01,-1.52855e-01,3.20764e-02,9.59425e-02,-1.60361e-01,-3.29081e-02,4.70954e-02,-4.49922e-02,2.51146e-01,-3.44391e-01,
-3.95452e-01,-6.23148e-02,-2.96334e-01,-3.06580e-02,-2.17790e-01,-9.42509e-02,1.01949e-01,-1.65613e-01,3.19232e-01,-4.63839e-02,-4.98338e-03,4.86450e-01,-7.36658e-01,-5.67738e-01,8.02432e-05,-4.46311e-03,-5.51994e-01,-1.37569e-02,3.59805e-02,6.46560e-02,4.59536e-01,1.33981e-01,1.26427e-01,3.80666e-01,-7.44349e-01,-2.86979e-01,1.83896e-02,7.09962e-01,2.51398e-01,-1.23263e-01,-9.17300e-02,2.39714e-03,-2.14922e-01,1.84986e-01,-9.76534e-02,-8.71456e-01,5.20299e-02,6.52478e-01,2.34337e-01,3.15796e-02,8.90076e-03,-5.14802e-01,-8.82223e-01,1.60709e-01,3.98415e-02,1.11216e-03,3.55868e-01,-1.47233e-02,-7.67007e-02,-1.72615e-01,1.14164e-02,-3.17959e-01,-1.72948e-02,6.80070e-01,6.25788e-01,-1.11945e+00,-1.95059e-01,-8.52472e-02,-4.42424e-01,-3.25466e-03,-2.76386e-01,2.49345e-01,3.98143e-01,1.70250e-01,
-2.08175e-01,4.40679e-02,1.31328e-01,1.93183e-01,-2.08394e-02,-6.65945e-03,1.52132e+00,3.37954e-01,-2.14740e-01,-1.65640e-01,1.10665e+00,-4.16084e-01,5.37311e-01,2.84514e-01,-3.07194e-04,-8.84413e-02,-3.87222e-02,-1.53171e-01,9.20229e-01,3.02943e-01,3.81980e-01,2.01395e-02,6.46577e-02,-1.39586e-01,2.16892e-02,8.10760e-01,-1.00542e+00,-1.32926e-01,-7.41490e-01,-1.42618e-01,3.24212e-02,-1.95037e-01,-4.20735e-01,4.11656e-02,4.92220e-02,-4.97181e-02,-7.98836e-02,7.90253e-02,-5.89659e-02,-5.73537e-01,-1.83826e-01,5.77131e-01,-4.73712e-01,-9.00770e-03,-1.37554e+00,-4.32612e-01,2.82282e-02,-9.92943e-02,1.25669e-02,-5.31615e-01,2.51733e-01,6.85780e-01,-4.61483e-01,4.58889e-01,1.04716e-01,3.77360e-01,2.92558e-01,3.18967e-01,-1.86636e-02,-1.55776e-01,-2.62257e-01,7.10465e-01,-3.92217e-01,-1.54052e+00,
4.55748e-01,-1.49973e-01,-2.36377e-01,5.72691e-01,6.79356e-03,-1.70371e-02,-5.43258e-03,2.74652e-01,4.34229e-01,-1.20601e-01,-1.23462e-01,1.77292e-01,-3.05330e-01,5.71183e-01,7.86095e-05,-1.68430e+00,-3.33285e-01,1.30128e-01,-5.92371e-01,-1.54835e-01,2.58670e-02,6.31043e-02,-3.33482e-01,2.17309e-01,2.09042e-01,2.90200e-01,2.02534e-01,-3.86233e-03,-1.52779e-01,-2.16957e-01,2.90270e-01,-5.14178e-02,-1.40105e-01,3.56433e-01,5.73970e-03,-3.02392e-02,8.68666e-02,1.36248e-02,-2.29655e-02,-1.12747e-01,2.97014e-01,-1.21974e-01,-4.76577e-02,-4.31731e-03,-6.43235e-01,-3.78389e-02,-1.15505e+00,-1.18146e+00,-1.16107e-01,-3.75786e-01,6.81166e-03,2.56514e-01,-1.40613e-01,-2.44841e-01,8.72012e-02,1.37135e-01,8.47933e-01,-9.51795e-01,-2.03340e-01,4.19720e-01,5.38250e-01,-3.59742e-02,5.59958e-01,-1.03774e-02,
-5.07255e-01,-6.63422e-02,8.01842e-02,6.91957e-01,-1.01833e+00,4.44567e-02,1.73656e-01,2.58574e-01,-1.91414e-01,-1.02203e-01,-8.22234e-02,-2.62803e-01,7.62646e-01,5.66951e-01,9.40633e-05,6.83944e-01,-3.02396e-01,6.03206e-01,8.75633e-02,1.87981e-02,3.32503e-01,4.43757e-01,9.29055e-01,-5.50553e-01,2.00762e-01,9.38097e-02,-4.61523e-01,4.27088e-01,-6.21476e-01,-3.60932e-02,8.65790e-01,-1.09138e+00,-3.43030e-02,-1.92002e-01,-3.17118e-01,5.57530e-04,3.50363e-02,1.50954e-01,-1.73614e+00,-1.18464e-02,-6.58313e-01,1.55211e-01,-4.22895e-02,-1.14487e+00,-1.70921e-01,-3.24419e-01,-1.96629e-01,-5.04255e-01,2.46645e-01,-1.20654e-01,-6.44024e-02,1.52636e-01,-1.54572e-01,-9.71145e-01,-2.19739e-01,-5.87183e-01,-7.10943e-01,-2.37806e-01,4.85332e-01,-9.54964e-01,5.82038e-01,-7.57816e-01,-1.12095e-02,-2.20861e-01,
3.98350e-01,-1.39512e-01,-1.32379e-01,-4.47969e-01,-1.23064e-02,4.33217e-02,1.10992e-01,-1.13232e+00,1.06601e-02,-1.95578e-02,-3.69657e-01,2.07273e-02,4.88677e-01,5.94459e-01,2.51831e-04,1.17332e-02,-6.37247e-02,-1.47247e-03,4.96050e-01,-1.78178e-01,-1.54466e-01,2.70716e-02,2.43838e-01,6.19411e-02,-9.75898e-01,-2.25179e-01,8.90611e-03,-6.24425e-01,-5.18404e-02,-2.75610e-01,1.48644e-02,9.55114e-03,6.62632e-02,-4.45634e-01,2.33675e-02,2.75196e-01,1.05456e-01,-2.16941e-01,-5.83670e-02,-2.60241e-01,-9.01735e-02,4.29524e-01,-1.13974e-01,-7.16111e-02,-2.93126e-01,1.21213e-01,1.83499e-01,2.24241e-01,-3.97636e-01,2.29941e-01,-4.45384e-01,6.85920e-01,9.47326e-01,-1.35284e-01,-5.59018e-02,-5.15394e-01,1.89555e-01,-2.49113e-01,2.90188e-02,4.97735e-02,-4.71670e-02,1.62965e-01,4.84363e-01,1.06450e+00,
2.11544e-01,1.72131e-02,-5.57511e-01,2.45682e-02,7.24939e-02,-4.40486e-02,-1.62611e-01,-3.71223e-02,-4.10260e-01,-7.66084e-03,3.10718e-01,2.36938e-02,-3.83623e-02,2.11699e-01,1.38256e-04,-2.63895e-01,-6.14869e-01,-1.30422e-01,-5.56820e-01,-4.39756e-01,-6.26738e-03,1.86281e-02,-3.61364e-01,4.49203e-01,-3.09345e-02,1.61800e-01,7.43683e-01,3.97842e-01,1.33624e-02,-4.48179e-02,2.64936e-01,5.89715e-03,1.42339e-01,-3.40474e-01,2.54977e-02,2.98052e-01,1.96360e-02,7.45721e-01,8.11001e-02,-3.23001e-01,-6.35746e-01,6.12512e-02,3.97231e-01,-1.69471e-01,1.04643e-02,7.25642e-02,-1.68819e-02,-9.64814e-03,-1.59379e-01,-3.06654e-01,-3.98057e-01,-1.25687e-02,-5.28856e-01,2.27215e-01,-4.77275e-02,5.08437e-02,1.58458e-01,-1.18703e-01,-4.10945e-02,4.66938e-03,1.56814e-02,-1.00747e-01,2.52253e-02,1.63106e-02,
-5.77518e-03,-8.71342e-01,-4.43531e-03,-2.37617e-01,-1.74690e-03,7.82597e-02,-5.68672e-03,-1.12091e+00,2.53371e-02,1.00768e-01,2.36318e-01,-4.18536e-03,-1.96739e-01,-3.01510e-01,3.73642e-05,-1.50553e-01,7.34493e-01,1.87362e-01,3.33009e-03,5.44795e-01,5.65153e-01,-4.16212e-02,-2.28187e-01,-2.72247e-02,3.24996e-01,5.26476e-01,-5.29966e-01,-1.53747e-01,4.72811e-02,9.63735e-01,7.61238e-02,-9.74474e-02,-2.68892e-01,-5.25891e-01,2.67803e-01,-2.97169e-01,-8.22194e-03,-2.99732e-01,-1.01512e-01,5.53208e-02,-2.15235e-02,-3.08182e-01,-5.83205e-02,1.24909e-02,2.21466e-01,-8.36528e-01,7.21785e-03,2.28779e-03,6.43698e-01,-3.46347e-01,-3.53202e-01,-1.39076e-02,1.09913e+00,1.37565e-01,-2.89382e-02,-1.26757e-02,9.24771e-01,-1.99428e-01,-5.82063e-03,4.71045e-01,5.06008e-02,-7.84511e-01,3.70338e-01,-4.71809e-01,
-2.21224e-01,6.28214e-02,-1.61794e-02,-5.72156e-01,-4.47124e-02,-3.56631e-01,-3.26003e-02,-2.49636e-01,-2.10453e-02,-8.94868e-01,-7.37641e-02,3.54150e-02,4.86646e-01,-1.69407e-01,-3.95830e-04,-3.79751e-01,3.64956e-01,2.46194e-02,-6.35978e-02,2.16934e-01,-1.50841e-01,5.69720e-01,2.08359e-02,2.33381e-01,3.20728e-01,-8.88208e-01,-1.21078e-01,5.21758e-01,1.91595e-01,3.47603e-01,3.44601e-01,-2.59914e-01,-9.73299e-02,7.48834e-02,-1.48402e-01,9.98503e-02,3.33111e-02,-8.87801e-02,-1.42556e-01,-1.20477e-01,-1.18731e-02,2.39785e-02,1.59861e+00,-2.22037e-01,4.62397e-02,4.36211e-01,7.33238e-01,8.10961e-02,-1.08193e+00,-7.02620e-01,-4.96267e-02,-4.96491e-02,9.53457e-02,-2.24939e-02,2.67524e-01,2.33170e-01,6.48488e-01,-1.00339e+00,-1.00529e-01,4.68005e-01,-2.96422e-01,4.94684e-01,5.77752e-01,-2.13870e-01,
-9.83045e-02,2.87338e-01,4.02958e-01,-6.34293e-01,2.98693e-01,-4.84912e-02,-2.87507e-02,-2.12851e-02,-3.28217e-01,2.93097e-01,5.90279e-01,-4.74480e-02,1.48314e-02,2.49321e-03,-1.15592e-04,1.23413e-01,-4.30338e-01,-1.32918e-01,9.74027e-01,-3.99448e-01,8.90849e-02,3.04859e-01,-1.47093e-01,-4.76033e-02,3.14918e-01,1.98606e-02,5.59838e-02,-4.27148e-02,-1.27293e-03,4.86582e-01,6.36937e-02,1.66666e-01,-1.52222e-01,2.55388e-02,1.27407e-01,-9.23869e-01,1.62141e-01,3.41523e-01,-1.21813e-01,7.50762e-01,1.60352e-01,1.23547e+00,-1.06760e-01,-9.94537e-03,-3.50630e-01,-1.88608e-01,3.98633e-01,5.01635e-01,-1.98015e-01,-2.65149e-01,-1.20335e-01,3.68664e-01,-2.41057e-01,2.06404e-01,8.21863e-02,1.05345e-01,-2.20160e-02,-2.12591e-01,-9.92598e-02,6.19429e-02,-2.18441e-01,-1.19521e-01,-2.45036e-01,-1.91809e-01,
4.32883e-01,8.23854e-02,-5.92993e-01,9.42872e-03,-6.69892e-01,-4.87696e-01,-2.87715e-01,2.87031e-01,-6.50636e-01,4.07936e-01,2.60998e-01,-8.70084e-02,4.13709e-01,-1.37060e-02,4.00314e-05,7.73555e-01,6.70106e-01,-3.35066e-01,1.14497e-01,5.92683e-01,-6.71698e-01,-2.39837e-01,4.60155e-01,-6.28154e-01,-1.94195e+00,-1.91811e-01,-2.46514e-01,1.01385e-02,-8.48064e-01,5.53666e-01,-6.31413e-01,-1.05231e-01,8.83748e-01,9.54369e-01,-3.06106e-01,-1.08581e-02,3.33970e-01,2.21209e-01,5.67042e-01,5.19420e-02,8.71977e-01,4.06823e-01,-1.13286e+00,1.67059e+00,-1.38481e-02,1.70424e-01,-5.99456e-02,1.05010e-02,-1.40334e-01,7.22903e-01,1.34783e-01,-6.79913e-01,-4.68948e-02,3.96580e-01,1.85518e-02,6.14297e-01,-1.26831e+00,-1.25742e+00,-5.86754e-01,-1.50872e-01,-1.57715e+00,-4.56304e-01,-2.05271e-01,4.92859e-02,
4.57932e-01,3.82443e-01,1.71436e-01,-5.42684e-01,-1.98673e-02,-1.32429e-01,-2.39673e-01,6.79700e-01,5.13701e-01,-5.40896e-01,-4.24605e-01,1.27737e-01,-9.72453e-02,-2.97666e-01,2.49795e-04,1.85210e-01,-1.10053e+00,2.54744e-02,3.42872e-01,-8.37179e-01,-1.18361e-01,-2.67273e-01,-2.95652e-01,1.87806e-01,-4.26553e-01,-4.93627e-01,1.65482e-01,4.48903e-02,3.61818e-01,1.70540e-01,-5.16934e-01,4.79061e-01,-4.53512e-02,1.61042e-01,3.70649e-02,-4.77946e-01,-1.64390e-02,4.01511e-01,-4.12838e-01,5.52790e-01,1.19433e-01,5.63274e-01,-7.69245e-02,-1.38829e+00,-3.41026e-02,5.15259e-02,1.01592e-01,-6.12370e-01,-1.65526e+00,-4.73689e-01,5.35720e-02,8.90399e-01,-1.01138e+00,2.85586e-02,-5.55879e-01,9.24671e-02,-4.69738e-01,2.69457e-01,1.87518e-01,-2.63403e-02,-1.18497e-01,2.21303e-01,-7.29097e-02,-7.19721e-01,
-6.81362e-03,-5.79348e-01,2.92161e-01,1.31594e-02,-1.72128e-02,3.52650e-01,3.34200e-01,-2.83533e-01,-4.23098e-02,-5.91322e-01,-5.30903e-02,5.72238e-02,5.81012e-01,4.80407e-01,2.85334e-05,2.96983e-02,-1.46676e-01,-4.89454e-01,3.31461e-01,2.70938e-01,3.88936e-01,-2.84263e-01,1.73856e-01,-6.29194e-01,-3.51795e-01,8.39270e-01,2.76220e-02,-1.44145e-01,-3.11842e-01,-5.01228e-01,8.19883e-01,-2.65520e-01,9.19750e-03,-7.27546e-02,-6.34915e-03,-5.53124e-01,5.21698e-02,2.41349e-01,2.24417e-01,8.51446e-01,-1.31817e-01,4.77056e-01,-4.13627e-02,5.49219e-02,-4.42664e-02,-1.43111e-01,-6.34106e-01,-1.33440e-01,8.06274e-02,1.44574e-01,-6.07206e-01,3.08873e-01,-1.26078e+00,-3.00660e-02,-4.97881e-01,-2.76655e-01,4.74249e-01,1.01825e+00,1.30821e-01,2.97128e-01,5.05643e-01,-8.28914e-02,-1.17477e-01,-3.16565e-02,
8.18418e-02,-3.10419e-01,-1.69346e-01,8.72979e-02,5.41612e-02,-7.81554e-03,2.74567e-01,6.36481e-01,-7.56923e-01,2.35248e-02,3.08414e-01,8.17456e-02,-9.43854e-01,-4.85938e-01,-1.27291e-04,5.15963e-01,-2.07676e-01,-1.95727e-02,1.07647e-03,-3.32910e-02,1.63609e-01,3.24462e-02,4.86668e-03,-3.37538e-02,4.42038e-03,5.35669e-01,-2.40160e-01,2.31371e-01,3.23008e-01,5.35758e-01,1.97003e-01,-6.10855e-02,4.97836e-01,5.17252e-01,-8.24720e-02,1.34271e-01,-2.23928e-01,-4.13819e-01,-9.44159e-02,3.64022e-02,-1.05839e-01,3.30168e-01,1.44894e-02,1.31820e-02,-4.53683e-02,2.58054e-01,1.75579e-02,3.20580e-01,-1.02561e+00,-1.10248e+00,5.63327e-01,-1.16945e-01,-3.25392e-02,6.83505e-03,-1.78017e-01,9.82954e-02,2.05934e-01,-5.08923e-02,2.32711e-01,-1.34211e-01,1.37781e-02,-6.73918e-02,-2.13902e-01,6.12524e-01,
-7.23897e-01,1.32835e-01,2.15562e-02,-5.37616e-01,6.28067e-03,2.02846e-03,-3.11242e-01,-2.29160e-01,2.29622e-01,-5.77467e-01,-2.04163e-01,2.18728e-02,4.21635e-02,-2.51023e-02,-2.49208e-04,-9.64155e-01,-5.49040e-01,-4.71242e-01,-4.16138e-02,-4.70344e-01,-8.90446e-01,1.55524e-01,-1.27762e-01,-2.50169e-01,3.35538e-01,8.13629e-01,1.25782e-01,-8.70745e-01,3.73090e-03,4.04186e-02,3.23080e-01,-6.50135e-02,3.46080e-01,-4.60128e-01,-1.30723e-01,-8.65482e-02,-3.54689e-01,-1.36078e-01,1.95308e-01,-8.45424e-02,-2.08501e-02,2.53990e-01,-4.78960e-01,1.52383e-01,1.75572e-01,-2.17884e+00,-5.50449e-01,1.04074e-01,-3.01441e-02,4.70882e-01,-4.49678e-02,1.13091e+00,7.42048e-05,-2.46454e-03,4.87981e-03,-1.32236e-01,-1.58455e-01,-7.77034e-01,-1.09987e-01,1.53173e-01,2.79230e-01,-1.06210e+00,-1.55505e-01,8.52268e-01,
-3.47190e-02,-9.70964e-02,-2.79195e-01,-4.59879e-01,-1.33300e-01,5.50694e-03,-2.70983e-01,1.96194e-01,6.70292e-01,2.29872e-02,-7.33451e-01,-5.49442e-01,1.54922e-01,3.69924e-01,-9.31394e-05,-1.07615e+00,5.28811e-01,-2.97394e-01,-1.31246e-01,1.67219e-01,2.14207e-02,-1.41309e+00,-5.88079e-02,-2.12902e-01,7.56601e-02,-1.14916e+00,-3.55536e-01,-4.63886e-01,1.04509e-01,-7.16287e-01,-3.26974e-01,1.48963e-01,2.17843e-01,2.22807e-03,-3.77843e-01,7.99093e-01,-6.05134e-01,6.66534e-01,-1.80272e-01,1.21029e-01,-2.30042e-01,1.15956e+00,-5.61469e-02,-5.83858e-02,-1.18368e-01,-3.11791e-01,2.86495e-01,1.36267e-01,4.84606e-03,-2.28146e-02,-2.11130e-01,-9.89647e-02,-2.22963e-02,3.16170e-01,4.55029e-01,4.30788e-01,-9.28433e-02,-8.48917e-01,-1.31997e+00,-1.01130e-01,9.89717e-03,6.35358e-02,-4.70734e-03,5.19655e-02,
-2.98130e-01,1.87830e-01,-3.35522e-01,3.33153e-02,1.12279e-01,-1.97464e-02,-1.04899e+00,-3.80590e-01,4.10842e-02,5.69327e-02,-1.23420e-01,-2.02456e-01,2.53009e-01,2.54966e-01,-4.91595e-05,-6.20880e-01,-8.13170e-02,-2.30643e-02,7.39171e-01,5.69539e-01,-7.48903e-01,-6.23716e-02,1.23427e-02,-1.93438e-01,1.12575e-01,6.14221e-03,-2.69681e-01,-4.68413e-01,-5.47308e-02,-2.17773e-01,-2.02583e-01,1.26651e-01,-8.31118e-03,-1.01361e+00,-1.09823e-01,-1.04741e+00,-9.51127e-02,-5.64415e-01,1.47538e-01,2.00554e-03,-1.98082e-01,-3.43690e-03,1.52085e-02,6.80371e-01,2.64639e-01,2.21801e-01,-2.84078e-02,-3.89746e-02,-9.10108e-01,9.78358e-01,4.26737e-01,2.01399e-02,1.51066e-02,3.27111e-01,-5.49818e-01,3.93931e-01,-3.66203e-01,-4.03079e-01,-8.92100e-01,-1.81831e-01,8.16381e-01,-1.16321e-01,-5.91145e-01,3.39577e-02,
-4.30410e-01,-1.37158e+00,4.44377e-01,-6.50982e-02,4.38642e-02,-8.93943e-02,6.04109e-01,-7.78182e-01,-1.61379e-01,-1.59423e-02,-2.01610e-01,-1.42460e-01,8.96436e-01,-1.43102e-01,7.07409e-05,1.68901e-01,-1.71691e-02,-2.32485e-01,7.10347e-02,3.29475e-01,1.55533e-01,-3.71895e-02,-2.77105e-01,-4.40486e-01,1.68500e-02,6.70613e-01,-1.44128e-01,-1.40774e-01,-1.13341e-01,-3.47262e-01,2.03039e-01,-2.23214e-02,3.46073e-01,-1.42590e-01,-9.95587e-02,-2.80354e-01,5.05464e-01,-1.36187e-01,-3.52387e-02,3.47629e-01,-7.23798e-02,4.18068e-01,-1.48344e-02,2.40920e-02,2.24217e-01,9.04657e-03,-1.70363e-02,8.29664e-01,-1.21552e-01,-2.57714e-01,-3.33148e-02,-4.40361e-01,-2.76454e-01,7.38703e-01,-3.58878e-01,6.81025e-01,-7.65297e-02,-8.22189e-03,8.38658e-03,3.53310e-02,1.40653e-01,-4.29132e-02,1.32550e-01,8.53745e-01,
3.07696e-02,-9.25947e-01,-4.02660e-01,-3.98160e-01,5.95027e-03,-5.06208e-01,-9.43873e-02,1.01093e+00,-1.99350e-01,2.22936e-02,-3.02379e-01,-7.48268e-01,-3.18385e+00,-6.86428e-01,1.81967e-04,-1.73625e+00,2.56143e-01,-1.72244e-01,-9.67374e-03,3.18804e-01,9.86969e-01,-3.24298e-01,2.31761e-01,-1.49042e-01,-1.54667e-01,3.26718e-01,-3.06609e-01,5.79567e-01,-1.05168e+00,-9.87321e-02,-6.45993e-01,1.67944e-01,3.27802e-04,8.03409e-01,2.50857e-01,3.48729e-01,-1.66288e-01,1.79257e-01,1.33310e-02,-1.15694e+00,2.74783e-01,-9.73252e-01,3.43230e-01,4.96250e-01,-2.74811e-01,-2.16857e+00,4.68648e-03,1.42405e-01,-1.96907e-01,-5.81036e-02,-1.40499e-01,-6.74844e-01,-3.26605e-03,6.41870e-01,2.13742e-01,-7.31462e-01,-7.63972e-01,-4.31572e-02,-9.53055e-03,-2.29135e-01,7.84932e-01,2.35289e-01,-4.73964e-01,4.56460e-02,
-2.02470e-01,6.49720e-03,-3.81623e-02,-2.11409e-01,-3.97323e-01,-2.85928e-02,-7.70793e-01,-1.55106e-01,-1.53263e+00,1.75136e-02,-2.11886e-01,-7.23515e-03,-6.56489e-01,-8.58894e-01,-7.60719e-05,7.53922e-02,-3.71275e-01,-1.10934e-01,6.06513e-01,2.99107e-02,-6.35678e-01,-2.32874e-01,1.06596e-01,-5.64735e-03,3.37847e-01,-1.64333e-01,1.20064e-02,1.20712e-02,-2.63003e-01,1.28674e-01,-3.13856e-01,1.09718e-01,-4.47643e-01,-2.28124e-02,-5.85898e-02,4.68415e-01,-8.54603e-02,-4.75514e-01,-1.55698e-01,-9.06850e-02,-3.10498e-01,6.82611e-02,-7.30464e-01,1.23302e+00,3.88540e-01,4.35133e-01,-1.37314e-02,6.81695e-01,-4.93108e-02,4.18685e-01,-2.45147e-01,-2.24805e-01,1.44340e-02,6.49964e-01,1.17118e-01,3.77086e-02,1.45701e-01,4.06413e-03,1.98949e-02,2.00663e-01,-8.02126e-04,-6.02826e-03,-6.22078e-01,3.72803e-01,
-2.66487e-01,-1.49599e-01,-7.86866e-02,1.06450e-01,2.61636e-02,-6.67152e-03,1.01360e+00,4.93547e-01,-1.22890e+00,9.74122e-02,-1.81955e-01,2.71327e-03,5.38291e-02,-6.05393e-01,-1.33787e-04,2.96110e-01,-3.80854e-01,5.66605e-02,5.09279e-01,-1.84938e-01,1.69694e-01,5.82671e-02,-2.32857e-01,1.91769e-02,-6.86124e-02,4.27829e-01,1.23927e-01,5.20867e-01,-2.01786e-01,7.54047e-03,-6.99219e-02,5.36404e-02,3.86366e-01,5.79066e-02,4.59182e-03,-3.11294e-02,-8.26833e-01,-4.99134e-01,8.43798e-02,-7.80810e-02,7.15699e-02,-5.42729e-02,-5.38249e-01,-4.01711e-01,9.21459e-02,-2.99608e-01,-3.83607e-02,5.03617e-02,-1.37247e-01,-2.09530e-01,8.65991e-03,-5.79356e-01,-4.32674e-01,2.53381e-01,-1.03204e-01,3.60558e-01,-3.56422e-01,-6.82461e-01,5.60795e-01,6.64913e-02,-1.43376e-01,5.86146e-02,-2.14929e-01,8.17479e-01,
3.82469e-02,5.45242e-01,7.81699e-01,-6.15554e-01,-1.78359e-01,-6.04185e-01,1.28981e-01,-2.01176e-01,-3.64549e-01,7.76796e-02,-5.12339e-01,-2.63550e-01,2.09494e-02,2.26599e-02,1.14067e-04,-4.15508e-02,3.59648e-01,-1.91837e-01,2.21429e-01,8.25772e-02,7.28513e-03,-1.55727e-02,4.37418e-02,-2.47997e-01,4.50348e-02,-4.63239e-02,6.89609e-01,-2.62360e-01,3.98145e-03,-4.46935e-01,-3.73034e-01,-7.31333e-02,-1.25496e-01,-4.82635e-01,1.20687e-01,-1.83665e+00,-2.41856e-03,-2.63114e-02,-6.53493e-01,-5.60173e-01,-3.14520e-01,1.07921e-01,-4.56273e-01,-7.15194e-02,8.93456e-02,-2.19910e-01,7.34142e-01,5.06515e-01,1.36310e-01,-1.58696e+00,6.48216e-01,4.00937e-01,1.29164e-01,1.15702e-01,-2.00200e-02,3.00315e-01,-6.20155e-05,6.49553e-01,-5.88971e-02,-1.92463e-01,3.43652e-01,1.57459e-01,-8.65084e-02,-6.31181e-01,
-7.56605e-02,5.87811e-01,-1.21607e-02,-1.45557e-01,6.30234e-02,2.53173e-03,-2.70577e-02,1.24008e-01,4.04768e-02,1.34083e-03,-1.06533e+00,1.75020e-02,3.71050e-01,-1.34467e+00,-7.46772e-05,-2.65150e+00,2.34750e-01,-4.02282e-01,-3.53180e-01,1.13948e-01,-1.06418e-01,-9.22813e-02,1.05683e-02,8.78289e-01,-3.28631e-01,-5.11422e-03,6.91014e-01,-1.13427e-01,-2.29440e-01,5.87100e-02,-1.01226e+00,-1.62316e-01,8.37590e-02,3.02681e-01,-2.63788e-01,-1.05450e-01,-8.77333e-01,-1.07617e-01,-4.34568e-01,-1.37349e+00,1.20674e-01,2.68095e-01,-2.12398e-02,-6.39570e-01,-2.03488e-01,3.79503e-02,1.58335e-01,-2.73930e-01,5.32914e-01,-3.31880e-01,7.02797e-02,-3.17468e-02,5.37881e-01,6.31492e-03,-2.14453e-01,1.66171e-01,3.56849e-02,1.12400e+00,1.85360e-01,-4.98877e-01,-9.97942e-01,-3.18146e-01,-1.45530e+00,2.31651e-02,
-1.41422e-01,-6.60058e-01,-4.56945e-02,-3.32802e-03,-8.39194e-01,5.19430e-01,-1.47086e-01,1.31519e-02,-1.78637e-01,-7.39709e-01,-7.05565e-02,-6.01551e-02,-2.88125e-02,5.30761e-01,2.62898e-04,2.16953e-01,-2.46226e-02,9.22949e-02,-3.48946e-02,-1.71298e-02,5.27902e-02,1.14415e-02,-3.04770e-01,6.69589e-01,1.02484e-01,9.29450e-02,-1.63548e-01,-2.26452e-02,-2.90235e-01,9.39425e-03,1.12050e+00,-8.85282e-01,2.51615e-02,-2.30153e-01,-2.67523e-02,1.43493e-01,4.73761e-03,8.13816e-02,-5.65264e-02,1.39721e-02,-1.70996e-01,1.48416e-01,-8.06949e-02,1.13778e-02,2.27451e-01,-1.35517e-03,-1.76725e-02,9.72492e-03,9.19606e-03,3.66391e-01,3.86064e-01,7.78321e-04,-8.55222e-02,2.82768e-02,9.09043e-02,-2.64916e-03,-1.76290e-02,-1.83316e-03,2.19781e-01,4.18352e-01,-6.26826e-01,-1.17929e-01,-2.56134e-02,1.87273e-04,
-2.32617e-01,7.19769e-02,-7.09097e-02,-1.32377e-01,-7.48605e-03,1.71579e-01,-7.10085e-01,4.03754e-01,-4.67265e-01,9.96576e-01,9.46057e-01,2.26681e-02,-5.41116e-01,-2.24273e-01,1.60249e-04,-4.47835e-01,-4.53458e-01,-9.61361e-02,-3.66072e-02,-3.41004e-02,-2.18515e-01,4.97104e-01,1.11536e-01,-1.29039e-02,-3.24155e-01,5.16568e-03,6.01012e-01,-7.19123e-01,7.78924e-01,-1.17313e-01,-1.79863e-01,2.47467e-02,-1.14042e-03,-2.47990e-02,1.16215e-01,2.60387e-01,-1.17234e+00,3.50781e-01,-5.72941e-02,3.13277e-01,1.56716e-01,-6.92131e-01,-6.33576e-01,-7.11641e-01,2.10763e-01,6.96015e-01,-5.46801e-01,1.93120e-01,-1.04498e+00,-5.74793e-01,-4.32418e-01,5.34187e-01,-1.76163e-02,-5.18483e-01,8.56119e-01,1.38186e-01,1.63004e-01,2.54774e-01,-3.81896e-01,-3.71540e-01,-1.04908e-01,-1.28933e-01,1.92848e-02,2.33846e-02,
-1.06395e+00,-8.05676e-02,1.86962e-02,4.48051e-03,-3.98774e-02,9.78190e-02,-5.10541e-02,4.31044e-01,-2.01617e-02,-2.60963e-01,1.40288e-01,2.27924e-01,-1.58493e-01,2.06132e-02,-3.45707e-05,-3.29303e-02,-1.37929e-01,2.44824e-01,-1.23535e+00,-8.86390e-01,3.58321e-01,4.86045e-01,3.03412e-01,2.81146e-01,1.12937e-01,2.10811e-01,1.96155e-01,-6.27013e-03,2.91090e-01,5.75023e-01,2.55152e-01,-9.59526e-01,1.84750e-01,-6.02286e-01,-1.12842e+00,1.79046e-01,-1.51933e-01,-8.10286e-01,-3.28057e-02,-1.93146e-02,-7.76161e-04,5.48647e-02,-3.80508e-01,6.90744e-01,7.41849e-02,2.06584e-02,-9.38525e-01,4.33428e-01,2.28920e-01,-1.26183e-01,5.15619e-02,1.64424e-01,-1.20281e-01,-5.75399e-02,-5.47916e-01,5.75716e-01,-7.90981e-01,4.25247e-02,-1.46486e-02,-6.96626e-03,-5.91199e-02,4.93481e-01,-7.73991e-03,1.17325e-02,
-3.32083e-01,2.54940e-01,2.82560e-01,-9.00982e-02,-1.83617e-01,-2.40239e-01,-5.15804e-01,-1.77399e-01,1.07819e-01,-4.43112e-01,-4.88602e-01,5.83818e-01,-2.16709e-01,1.62177e-01,1.39431e-05,-2.06663e-01,9.24848e-01,-2.99853e-01,-1.32212e-01,2.60926e-01,-9.74558e-03,7.38255e-02,3.88985e-01,3.10500e-01,1.17948e-02,8.57256e-01,-4.87587e-01,-1.29985e+00,-4.94630e-01,-1.25150e-03,-9.83224e-03,1.12794e-01,5.42503e-02,-1.52105e+00,3.15786e-03,-1.43642e-02,-1.42029e-01,-8.17570e-01,-2.87409e-02,-4.71815e-02,-8.11200e-02,4.00244e-01,-1.41367e-01,1.53599e-01,8.83896e-01,-1.44882e+00,8.35578e-04,-2.13199e-02,-7.47586e-01,8.16457e-01,-2.65054e-01,-5.34898e-01,1.69782e-02,-1.62129e-02,3.97160e-02,-3.41707e-01,-1.07632e-02,-1.03184e+00,-3.75042e-02,3.93163e-02,4.67856e-02,-4.00747e-01,1.59935e-02,1.76367e-01,
-1.93286e-02,-9.28686e-02,2.57508e-01,-3.65790e-01,-2.68526e-02,-1.29153e-01,-5.89694e-01,2.39976e-01,2.56142e-01,-7.43834e-01,-5.29723e-01,-6.58533e-02,3.47458e-01,5.09588e-01,4.77874e-05,-9.50118e-02,-5.28124e-01,1.51450e-02,3.88291e-02,-1.66043e+00,6.22316e-01,4.87554e-02,-4.17836e-03,-4.69690e-02,-1.01259e+00,-2.01301e-01,-5.31058e-01,-1.64371e-01,-7.70381e-02,1.60875e-01,2.15772e-02,2.03780e-01,1.87775e-02,-1.12570e-01,2.51508e-02,2.11916e-01,-1.03851e+00,-7.94178e-02,2.16271e-01,1.97352e-01,1.22342e-01,-2.71741e-01,-3.00853e-03,3.62364e-02,-1.10050e+00,-2.40104e-01,-1.04076e-01,-7.95026e-01,8.17003e-01,-9.28889e-01,-2.47487e-01,4.34893e-01,-1.04739e-01,-3.15225e-01,-1.51548e-02,1.11578e-01,2.55380e-01,3.83908e-01,3.94551e-01,1.48297e-01,1.26888e-01,-3.43682e-01,1.36817e-01,-2.26945e-02,
2.80045e-01,3.40821e-01,5.09341e-01,-6.64812e-02,-3.68499e-03,-8.81135e-01,5.59319e-01,-2.43740e-01,-1.92981e-03,-5.78351e-01,3.31378e-01,-4.08196e-01,8.86809e-01,-2.53051e-04,-1.68896e-04,-3.59127e-03,2.00261e-03,-9.25015e-02,-2.16986e-01,6.10681e-02,-1.44805e-01,1.41590e+00,6.52912e-01,1.67895e-03,-1.85598e-01,-5.47786e-01,3.43475e-03,7.65657e-01,-7.77623e-01,-2.55334e-01,-8.30675e-01,3.28418e-01,1.93492e-01,3.87855e-01,-4.81813e-01,1.08748e-01,3.88963e-01,2.70787e-01,-4.49639e-01,-3.10641e-01,-5.96774e-01,-1.64638e-02,-4.45288e-01,1.11532e-01,-6.69812e-01,-5.09147e-01,4.21988e-01,-1.74982e-02,5.72708e-01,-7.75863e-01,7.92646e-03,-8.87831e-02,-3.78983e-01,-2.20861e-02,-1.41197e-02,6.96763e-01,2.45683e-02,4.89628e-01,1.27954e-01,-3.51509e-01,-3.06810e-01,-4.58686e-01,3.16214e-03,-1.31919e+00,
8.25780e-02,-4.09148e-01,-1.86384e-01,-2.49237e-01,-5.95932e-01,1.24225e-01,3.98627e-01,-1.59009e+00,1.04266e-01,4.68086e-01,2.54824e-01,2.49461e-01,8.77709e-04,4.72885e-01,-1.37400e-04,-3.44316e-01,-2.86215e-01,1.07178e-01,-4.03409e-02,7.32679e-02,-5.10491e-01,-3.96875e-02,6.98368e-01,-6.51226e-02,-1.73337e-01,-2.08386e-02,1.16843e-01,-1.86098e+00,-1.26690e-01,3.86598e-01,-6.43018e-02,-6.68797e-02,-7.87217e-01,4.89896e-02,-5.90076e-02,-2.46571e-01,-9.59403e-01,1.92419e-01,-4.49265e-03,8.13153e-01,-2.20164e-02,-2.01952e-02,5.15273e-01,-2.13113e-01,2.33930e-01,7.35045e-01,8.42822e-02,-1.21255e-02,-5.24584e-02,7.10163e-01,2.37503e-01,3.48396e-01,5.26151e-01,-5.36576e-01,-1.14251e-02,-1.48891e-01,-1.29651e-02,3.60512e-01,-4.75990e-01,-3.79266e-01,-1.82801e-01,-1.50287e-01,-4.63482e-01,6.90490e-02,
4.24207e-02,8.21254e-01,2.46793e-01,-4.65657e-02,4.61666e-01,5.26793e-02,-6.19737e-02,-1.21336e+00,3.00676e-01,-2.93990e-01,-1.67490e+00,1.73548e-01,-1.86167e-01,7.15008e-02,2.93677e-05,-5.04770e-02,-1.85554e-01,-1.47653e-01,4.08998e-01,7.16353e-03,-2.17200e-01,-4.08510e-01,1.58756e-01,-1.64703e-03,-1.37309e+00,-9.50069e-01,1.96976e-01,5.63072e-01,-4.15735e-03,-4.46031e-01,9.07185e-02,4.13891e-02,3.05352e-01,2.32405e-02,-1.36752e-01,1.57524e-01,-2.10448e-02,4.92498e-01,-8.48513e-02,-3.20537e-02,4.65703e-02,3.21536e-02,3.87221e-01,-1.42738e-01,5.37965e-01,-1.84896e-01,2.28703e-01,6.63171e-02,8.03880e-03,6.86568e-01,2.12048e-02,-5.30813e-01,-5.58258e-01,1.17716e-03,-1.71231e-01,1.83518e-01,-3.99495e-01,-1.35286e-01,-1.66249e-01,2.05140e-01,5.43822e-02,2.00039e-03,1.24341e-01,3.88261e-01,
-1.67709e+00,-8.60163e-01,2.37121e-01,-2.15842e-01,-2.03135e-01,1.75030e-01,3.43527e-02,-1.04827e-01,3.07437e-01,-4.15307e-01,-2.94944e-01,3.18228e-01,3.19921e-01,4.01318e-02,-2.00844e-04,1.30603e-01,1.60184e-01,2.27046e-02,-8.26871e-02,2.26174e-01,2.26406e-02,1.33185e-01,1.84471e-02,3.55204e-02,3.51854e-02,3.75164e-02,-4.87762e-01,-5.35613e-01,1.55570e-01,4.45511e-03,5.39967e-01,-3.30296e-01,-5.74945e-01,-2.49653e-01,3.39771e-01,-1.42178e-01,-3.23406e-02,2.57695e-02,7.97443e-02,1.89556e-02,2.81498e-01,-2.47420e-01,3.26312e-03,3.60516e-02,8.65737e-01,-3.29422e-02,-3.52976e-02,-8.26577e-02,-1.17595e-01,4.93887e-01,-3.22500e-01,-2.54296e-01,4.91683e-01,1.15217e-02,1.57262e-02,-8.04131e-01,-5.02749e-01,-1.61709e-01,4.97606e-01,2.32846e-01,-3.28250e-02,-1.31257e+00,-6.76271e-02,-2.02614e-02,
-3.35897e-01,-5.60530e-03,-3.87004e-01,4.20601e-01,5.40274e-01,-1.83872e-01,1.24646e+00,-5.44671e-01,-4.36401e-01,-2.83235e-01,3.36978e-01,7.10091e-02,5.28380e-01,-3.48817e-01,-8.68090e-05,1.27134e-04,-3.10914e-01,-6.09889e-02,1.10394e+00,2.64852e-01,-1.69470e-01,2.65799e-01,-6.29226e-03,2.21643e-03,-1.33348e-01,-8.43535e-03,1.12919e-02,4.84598e-01,2.29557e-01,6.47436e-02,-4.48373e-02,-2.77567e-01,-5.58176e-01,1.72658e-01,-1.18500e-01,-3.57579e-01,6.53072e-02,3.82816e-01,5.66244e-02,-2.86983e-02,1.43606e-01,-3.27006e-01,-9.72001e-01,-6.29756e-02,1.78599e-01,-1.10890e-01,1.03671e-01,8.38623e-01,-1.23966e-01,-6.35031e-01,1.92795e-01,2.02028e-02,-4.83514e-01,-1.16309e-01,3.28912e-01,-5.84369e-02,-3.70949e-01,-1.05880e-01,3.87484e-02,-1.63561e-01,-2.07667e-01,2.58315e-01,3.20152e-01,-2.53951e-02,
7.93056e-01,3.36765e-02,9.13442e-03,-1.31339e-02,-4.70597e-03,5.74516e-02,3.98898e-02,-6.18152e-01,-8.27142e-02,-4.58349e-01,-2.58734e-02,3.10865e-01,4.51316e-01,-1.03994e-02,-9.73767e-06,1.83308e-01,-2.02373e-01,2.60281e-01,3.16457e-02,2.79735e-01,1.29919e-01,-4.57351e-02,-3.01279e-02,-8.63839e-02,1.75009e-01,6.33780e-01,-2.97498e-03,-2.73105e-01,-1.36488e-01,-2.31282e-01,4.55919e-01,-1.35406e-02,-5.66401e-03,-1.32781e-01,5.95862e-02,-2.06220e-01,8.13553e-01,7.27837e-01,1.29342e-01,4.40435e-01,1.27103e-02,-8.58163e-02,6.23331e-03,3.19757e-01,-2.45187e-01,1.95997e-03,-8.48190e-01,7.62284e-01,1.03811e-01,1.13836e-01,-7.50918e-03,-4.05194e-01,-3.56413e-01,-1.64829e-01,1.45618e-02,7.55594e-02,-3.39614e-02,5.11312e-01,-4.00269e-02,6.34944e-04,1.62892e-02,-9.84061e-01,2.34739e-01,2.36676e-02,
-4.62389e-01,-1.42898e+00,6.27561e-01,1.25394e-01,-9.01771e-02,-1.19383e-01,-2.37970e-02,-9.64575e-01,-1.65831e-01,-1.14916e-02,-9.00605e-01,-9.95741e-01,3.03574e-01,-4.22939e-02,1.32669e-05,8.44270e-01,7.72773e-01,2.13734e-02,1.10370e-01,2.97127e-01,4.34782e-01,-9.05131e-02,-2.40113e-01,2.91439e-02,-4.11325e-01,-6.41501e-01,-3.53708e-01,7.69704e-01,-4.72397e-01,-2.63677e-03,-4.25699e-01,7.14598e-01,-5.93408e-02,-2.99266e-02,2.38486e-01,3.04379e-01,-4.26443e-01,-9.91840e-01,2.89696e-01,-5.09540e-02,-5.62796e-01,-2.41427e-01,-5.11959e-01,-4.29018e-03,-1.18244e+00,2.28262e-03,5.16704e-01,-4.08878e-01,-8.05202e-01,-1.41104e-01,4.96829e-02,-5.12435e-01,5.43136e-01,1.17217e-01,-5.22990e-01,-9.05937e-01,-5.60947e-01,-9.44768e-03,-1.90532e-01,-4.12923e-01,6.20673e-01,-4.78647e-01,-2.10011e-01,-2.82092e-01,
-1.77120e-01,-1.04396e-01,4.46185e-02,1.39191e-02,-3.63718e-03,7.56664e-02,-5.22359e-01,3.74463e-01,-3.39361e-01,4.50022e-01,-1.23654e-04,1.74814e-02,-9.16628e-01,-2.86727e-01,5.68035e-05,1.27262e-03,-1.37371e+00,-2.25212e-01,-1.98254e-01,-4.39106e-01,1.05755e-01,-5.01289e-01,3.17655e-01,-3.22848e-01,-1.21049e-02,-9.77640e-03,6.62965e-01,-1.65388e-02,8.10550e-02,-4.69044e-01,2.51855e-02,7.10660e-02,-5.59326e-02,2.84456e-01,1.74170e-01,4.46175e-01,3.57437e-02,3.41992e-01,3.12422e-02,-1.28445e-01,4.29284e-01,-4.88484e-01,-3.42604e-01,-3.18269e-03,-7.71098e-01,1.79415e-02,-2.55859e-01,-2.08699e+00,-5.72757e-02,-1.06639e+00,9.18850e-02,3.24919e-01,-6.11818e-01,7.87422e-02,-1.48353e-02,1.70813e-01,-7.71764e-02,2.04747e-01,2.61887e-01,-1.86759e-01,-3.86609e-03,3.44476e-01,-1.66976e-02,-4.51582e-02,
-8.94008e-03,-6.87311e-03,-4.13672e-01,-1.27456e+00,-3.97515e-02,-2.23915e-01,9.30097e-02,-1.31058e-01,-1.62144e+00,4.66160e-03,7.66226e-02,-2.25586e-02,-4.27600e-01,-2.35307e-01,-3.28837e-04,-5.07952e-01,8.61465e-01,-8.09820e-02,-4.88186e-01,-1.18867e+00,7.38171e-01,1.49377e-01,4.10764e-01,-4.36373e-01,1.60535e-02,1.12992e-01,9.23087e-03,-1.54540e-01,-3.97843e-01,-8.94317e-01,-3.30991e-01,-3.43616e-01,1.33608e-02,2.37563e-01,2.18954e-01,-4.22931e-01,3.21165e-01,1.35361e-01,2.19633e-01,-1.32481e-01,1.34253e-01,-9.01791e-02,3.22079e-01,3.98905e-01,2.49486e-01,-9.99406e-01,3.79638e-03,1.02661e-01,1.00600e+00,3.76873e-01,2.34833e-01,-1.48728e-02,3.03649e-01,1.04239e+00,1.25140e-02,6.59293e-01,3.33616e-01,7.32324e-01,-3.74691e-01,-5.95629e-02,-1.16825e-02,-1.61184e-02,-1.21941e-01,-7.37656e-01,
4.85702e-01,7.25373e-02,-3.54660e-01,2.97615e-01,1.04742e-02,-1.72686e-01,-7.18684e-02,1.04567e-01,1.83582e-01,3.39098e-01,3.69368e-01,-6.91583e-02,-1.83032e-02,-2.27363e-01,3.41787e-04,-2.70879e-02,3.44321e-01,2.28970e-02,-5.64873e-01,3.86023e-02,-7.56112e-03,-5.88710e-01,2.51562e-01,4.88062e-01,-4.29406e-01,2.59176e-02,9.27925e-02,-6.65526e-01,-5.21537e-01,1.23019e-01,-5.07656e-01,-4.19594e-01,8.25447e-01,9.52571e-03,-5.84475e-01,6.73579e-03,3.11000e-01,-5.46656e-01,-3.85584e-01,-4.02663e-01,-1.82739e-02,4.05251e-01,4.97619e-01,-5.67809e-01,-5.23617e-01,2.94450e-01,-5.34517e-02,-1.08313e-01,-5.53091e-01,3.48606e-01,3.11338e-01,3.29734e-02,3.69274e-01,2.74578e-01,1.50676e-01,1.96430e-01,-5.96516e-01,-2.06587e-02,-1.56100e+00,-4.14028e-01,-1.59640e-02,2.33660e-01,7.94837e-02,-1.41475e-01,
3.29033e-01,-5.32945e-02,-1.40524e-01,3.67327e-01,1.56157e-01,4.17108e-02,-1.98109e+00,1.05108e+00,7.03617e-01,-4.19791e-01,1.97001e-01,-6.97354e-02,-2.58544e-01,5.67306e-01,8.65217e-05,-7.93295e-03,-2.23977e-01,-3.83852e-01,-1.06052e+00,-6.91016e-01,1.78649e-01,-1.87646e-01,2.10659e-01,5.55257e-02,-1.24012e-02,4.96793e-01,-8.59367e-02,-5.06691e-01,-1.20019e-01,-1.89393e-01,1.51744e-01,1.07590e-02,1.79736e-02,-3.93277e-01,1.94054e-02,2.14831e-02,-7.04448e-02,9.62407e-02,1.35190e-01,4.97950e-01,2.63643e-02,4.08518e-01,-6.30341e-01,-1.27982e+00,-5.60973e-01,9.68634e-03,-3.99756e-01,-7.02939e-02,-1.23354e-01,-3.92356e-01,2.50513e-01,1.60428e-01,-8.90830e-01,-3.41721e-01,1.67418e-02,-3.05001e-01,-3.18616e-02,7.23639e-03,5.47856e-01,-6.69538e-02,-4.27481e-01,1.09877e-01,-1.14230e-01,8.32514e-01,
-4.90424e-02,1.46727e-02,-2.43108e-01,2.33233e-01,-2.54170e-02,-8.15643e-02,6.09416e-01,-1.75623e-01,-4.66248e-01,-1.99138e-03,-7.02230e-01,5.22235e-01,1.97384e-02,-1.16855e-01,-6.52117e-06,-6.14433e-02,3.59668e-01,-5.65849e-03,4.73709e-01,1.18247e-01,2.45998e-01,-3.59649e-01,4.36611e-01,-8.44485e-02,-1.42474e-01,1.82122e-01,1.21170e-02,-1.76424e-03,1.30507e-01,7.11733e-01,-1.43699e-02,1.45892e-01,-1.42382e+00,-4.13998e-01,1.14455e-01,6.48236e-02,-6.73405e-01,2.44987e-02,3.79493e-01,5.97928e-01,7.28980e-02,-5.82329e-01,1.17907e-02,-6.61573e-02,1.66553e-02,-7.07579e-01,-2.26221e-03,-8.13674e-01,-1.28500e-02,5.57014e-03,1.28561e-01,-3.80649e-01,7.41446e-01,-1.13116e-02,-1.44294e-01,-5.58114e-02,-1.96246e-01,7.88135e-01,1.98601e-01,-1.89967e-01,2.19205e-01,5.00340e-02,8.80482e-02,7.26324e-01,
1.41673e-01,-2.25337e-03,1.71640e-01,7.46586e-01,-4.63089e-02,-2.35947e-02,1.15711e-02,-3.13457e-01,7.38222e-01,-2.00778e-02,-1.05451e-01,3.88052e-01,-9.79733e-02,-6.21621e-01,-3.70358e-05,5.00615e-01,4.47048e-01,-1.63521e-01,1.37473e-01,1.38180e-02,-2.99092e-02,-1.67846e-01,5.62010e-01,4.71434e-02,1.12461e-02,9.26764e-01,2.44072e-01,-1.88972e-01,1.55483e-02,-1.56271e-01,-1.67565e-01,2.75820e-01,8.78169e-03,-4.17658e-01,-1.51010e-01,-3.65695e-01,-2.74526e-02,3.12752e-01,1.61411e-01,-1.08029e-01,-1.28073e-01,-7.15081e-01,-8.46495e-01,-3.35883e-01,2.48784e-01,-3.82832e-01,6.03748e-01,8.15777e-01,1.34596e-01,-3.42068e-01,-1.50205e-01,-2.49825e-01,5.54838e-01,-1.90546e-01,-2.91754e-02,-7.75300e-01,4.80134e-02,-2.72466e-01,9.40691e-01,-3.11503e-01,-9.78495e-01,-1.44085e-02,4.46504e-01,1.30161e-01,
-5.26782e-01,-1.04233e-02,1.41704e+00,1.60958e-03,2.38242e-01,-8.29776e-01,4.42571e-01,-2.72532e-01,-2.84131e-01,-3.43271e-01,-2.10134e-01,-1.95461e-01,-9.80646e-02,-5.82263e-01,-6.18480e-05,7.08717e-04,1.29139e-02,-1.57155e-01,2.91759e-01,1.71315e-03,-6.34959e-01,-6.68143e-02,-1.13126e-02,7.73514e-03,2.88545e-01,-1.39138e+00,-9.91611e-03,-2.62280e-01,3.29447e-01,4.57427e-01,-1.17904e-01,-3.06260e-01,1.63082e-01,-9.44348e-02,-2.54299e-01,-2.50734e-02,-1.91632e-01,-1.50906e+00,-9.07145e-01,3.30675e-01,4.11734e-01,-2.05740e-02,-4.28640e-01,-5.65471e-01,6.41021e-01,6.80009e-02,3.35328e-01,1.67942e-01,6.78617e-01,-1.66780e-01,9.11401e-01,-3.49386e-01,3.47645e-01,1.83759e-01,-5.80975e-01,-7.57472e-01,1.66641e-02,2.32658e-02,-3.92278e-01,-2.86910e-01,-2.48681e-01,-2.96732e-01,-2.29762e-04,4.06534e-01,
2.24152e-02,-6.73297e-01,-3.81056e-02,-6.10298e-03,1.80615e-01,1.64894e-03,-6.23268e-01,-4.72702e-02,4.13286e-01,5.70208e-02,-1.91685e-01,2.17320e-01,-7.99610e-01,-2.69690e-01,2.28645e-05,-1.12614e-01,-6.91695e-02,-1.79064e-01,-3.45743e-01,2.21911e-03,-1.96491e-01,-4.46740e-02,-2.99420e-01,-1.46478e-01,4.39123e-01,-4.82088e-01,7.65772e-02,1.16161e-01,8.24657e-03,2.06771e-01,2.35542e-01,6.91281e-03,-7.89284e-01,-2.73786e-02,4.09466e-01,1.81396e-02,5.77508e-02,-4.05340e-01,-1.71964e-01,1.62247e-01,4.09395e-01,-3.59323e-01,9.57962e-01,-3.55337e-02,2.32226e-02,6.37212e-01,-4.89341e-01,-2.87838e-01,-4.38646e-01,3.95614e-01,-3.90128e-03,-2.06970e-01,4.25912e-01,4.46893e-01,-5.97957e-01,-1.75616e-01,7.58345e-01,-1.16201e-02,6.80337e-01,3.44365e-01,1.65287e-01,7.63854e-01,-1.66037e-01,1.58167e-01,
-7.25119e-03,5.50046e-02,-1.47095e-04,-3.04845e-01,-7.71875e-02,-5.42729e-03,7.37367e-01,-4.21356e-01,-1.38833e-01,-6.10043e-02,4.69433e-02,2.12161e-01,5.76598e-01,-4.04042e-01,-1.19909e-04,3.70445e-01,-1.62986e-01,-9.42622e-02,-1.86313e+00,4.52570e-01,1.90509e-01,-5.95839e-02,2.17186e-01,3.02919e-02,2.45411e-01,3.52229e-01,1.05025e-01,2.94600e-02,-6.30890e-02,-1.38548e-01,8.50799e-02,8.93481e-02,-3.73530e-01,3.30068e-02,-1.12229e-01,-1.14827e+00,-1.26061e-02,1.77650e-01,-7.29036e-02,6.65381e-01,5.05902e-02,1.20829e-02,-2.49524e-01,-7.32355e-01,-1.12456e-01,4.12722e-01,2.60360e-01,-7.61342e-04,-1.51961e+00,-1.08461e+00,3.26079e-01,-2.30980e-01,-5.61650e-01,1.48330e-01,-1.17331e-01,1.88059e-01,8.86664e-02,-2.49796e-02,1.75077e-01,-2.59560e-01,-2.05603e-02,-3.41537e-01,5.38426e-01,2.50209e-01,
-8.95275e-03,-9.34744e-02,-1.30170e-02,2.80915e-01,-1.29312e-03,4.55123e-03,-3.93099e-01,6.21759e-01,2.60833e-01,5.31827e-01,-1.80335e-01,4.92679e-02,6.39984e-01,-5.31568e-02,-7.63318e-05,-1.85092e-01,1.21100e-02,-2.73625e-01,-1.82652e-02,-1.74510e-02,1.99030e-01,4.92542e-02,8.89871e-02,-8.48427e-02,-1.14222e-02,-3.47783e-01,5.41277e-01,-3.20241e-01,-3.80826e-01,-1.52315e-01,6.24106e-02,-1.62927e-01,5.21916e-01,-1.50865e-01,-6.60641e-02,-1.20358e+00,5.90805e-02,4.02518e-01,-7.80394e-02,-9.40933e-01,-1.00258e-03,3.23673e-01,2.55835e-01,-7.46830e-01,-7.62648e-01,-5.37962e-01,3.56756e-01,-3.57119e-01,-7.52566e-01,-2.19987e-01,-5.53670e-01,3.74221e-02,-3.67152e-01,8.49483e-01,5.38155e-02,-1.96291e-02,-2.06582e-02,-2.12641e-02,-1.91123e+00,-2.36646e-01,-4.20342e-01,-1.12764e-01,5.43637e-01,-3.53296e-02,
7.13652e-01,3.38835e-01,5.14878e-02,-7.58498e-01,-2.61454e-01,-5.31539e-02,4.66849e-01,2.15533e-01,-6.74244e-01,-2.10332e-02,4.52642e-01,9.11744e-02,-4.84874e-01,5.58388e-01,-1.26625e-04,-3.81865e-05,-6.58898e-01,-5.71137e-01,1.03954e-01,-1.30776e+00,3.10852e-01,-5.81686e-02,-3.08510e-01,7.16018e-02,-5.38598e-01,-1.78331e-02,1.86074e-01,-3.18120e-02,4.26363e-01,4.52889e-01,-7.89616e-02,-1.73493e-01,-3.62794e-01,-2.40919e-01,2.51820e-02,3.23269e-01,1.60394e-01,2.40714e-01,-2.46260e-01,4.62286e-01,-4.46871e-02,-2.08761e-01,-8.19713e-01,2.29615e-01,-3.63591e-02,-7.13433e-01,-8.07041e-03,-1.00259e+00,-4.26651e-01,-1.09582e-01,3.21757e-02,1.00772e+00,-4.00378e-01,1.77185e-01,2.75549e-02,3.46924e-01,-6.77448e-01,7.14742e-01,3.00327e-02,-7.96867e-02,9.43437e-01,-6.62118e-02,8.33484e-02,-7.08484e-01,
6.31335e-01,-1.02142e-02,-3.46220e-01,-9.81272e-02,3.50872e-01,1.98884e-01,5.33652e-02,6.14942e-02,7.83249e-02,-2.31837e-01,2.10158e-01,-1.16282e-01,-1.42236e+00,-1.21829e-01,1.31819e-04,-5.69183e-01,1.43830e-03,-6.75717e-02,5.01438e-02,-2.60670e-02,-1.15365e-01,1.59841e-01,-1.20819e+00,2.38447e-02,-1.35987e-01,-3.03700e-02,4.31518e-02,6.54774e-01,-3.36888e-02,1.50251e-01,1.49795e-01,6.84252e-02,6.81672e-01,2.31865e-01,-2.93400e-02,1.37260e-01,3.75262e-02,9.69824e-01,-1.14113e-01,-1.80503e-02,-2.23086e-01,9.94526e-02,4.97148e-02,-1.74867e-01,2.94788e-03,-7.19074e-01,-5.24575e-01,4.20550e-01,5.29385e-01,-1.50133e-01,-6.12532e-01,1.50560e-01,-2.03717e-01,-2.14468e-01,4.27148e-01,4.83207e-01,2.89787e-01,-1.55608e+00,5.87554e-02,4.02572e-01,1.26336e-01,-3.23291e-02,8.12706e-03,-3.27089e-02,
-1.40023e-01,4.88099e-02,2.26421e-01,-4.64528e-01,-3.20039e-01,-1.43518e-01,5.78108e-02,-7.77378e-01,-8.79069e-01,-7.33604e-01,2.67880e-01,-9.35178e-02,-3.94365e-01,1.02630e-02,3.25251e-04,6.73976e-02,4.05336e-01,-8.04173e-02,-2.65831e-01,1.84838e-01,-1.01050e-02,4.05571e-03,2.37383e-01,-6.64306e-02,2.26648e-01,1.25855e-01,4.59814e-01,8.31099e-02,2.84449e-01,-3.34983e-01,-7.35489e-02,9.46665e-03,-4.10721e-02,-6.24312e-03,2.23181e-03,3.17883e-01,-8.55425e-01,3.39172e-01,1.00798e-01,-8.15605e-03,2.29269e-03,-1.17795e+00,-2.79452e-01,2.47896e-02,4.77710e-02,-6.78068e-02,-4.46047e-01,-2.50711e-01,1.13397e-01,-5.32272e-02,-3.94295e-02,-8.74622e-01,-2.60612e-01,6.80379e-02,2.19611e-01,-1.01377e-01,-1.42241e-01,3.53081e-01,2.07584e-01,-1.09462e-01,5.66361e-01,-1.09866e-01,3.93369e-01,-3.13281e-01,
2.08655e-01,-4.03916e-01,-4.23468e-01,4.64456e-01,-4.41516e-02,-4.04123e-03,2.47681e-01,7.68283e-01,-1.34979e-01,1.79408e-01,-2.36428e-01,-1.70037e-01,2.07357e-01,4.48772e-01,3.04044e-05,2.76408e-01,8.82876e-01,-1.62581e-02,1.57470e-01,-5.58308e-04,1.45372e-02,2.91664e-01,1.64033e-01,9.90802e-02,-1.36867e+00,-9.41643e-02,-6.80465e-01,-9.87932e-01,1.24933e-02,-3.51176e-01,-2.29720e-01,-9.99173e-02,-2.58066e-01,-2.01756e-02,-1.13578e-01,6.09022e-01,-8.26102e-02,1.70773e-02,-1.20624e-01,-5.76055e-01,4.49581e-02,2.58289e-01,-1.04026e+00,3.16303e-01,-2.22036e-03,-5.60458e-01,9.42511e-01,1.78793e-01,1.55791e-01,2.25962e-01,-3.94836e-01,2.21635e-02,3.01121e-02,-2.54723e-02,1.46651e-02,-4.20623e-01,1.06931e-01,-6.11769e-01,-3.04748e-01,-1.27320e-01,2.63788e-02,-4.89457e-01,-1.53905e-02,-6.05483e-01,
4.71705e-01,-2.28997e+00,4.39544e-01,8.23443e-02,-1.93171e-02,2.46172e-01,7.64888e-01,-2.79736e-01,1.26107e-01,-2.19069e-02,-3.41844e-02,2.80134e-01,5.91864e-02,-1.74030e-01,2.20141e-04,-9.81739e-01,1.41301e-02,6.22191e-02,-3.96723e-03,-2.60589e-01,-1.68220e-01,-2.25360e-01,-2.08898e-02,1.03023e-01,-3.87145e-01,-5.99623e-01,-1.05297e-01,-5.17460e-02,2.49481e-01,-2.30039e-01,-1.97273e-01,1.02768e-03,-1.67465e-01,4.69382e-01,-5.72642e-03,3.80169e-01,-1.93809e-01,3.76949e-01,-2.19247e-01,-1.17163e-01,-8.62271e-02,7.66778e-02,1.14024e+00,3.74247e-01,2.98814e-03,4.07752e-01,-1.89972e-01,2.08221e-01,1.70578e-02,-6.89396e-01,1.27930e-01,-2.01953e-01,-4.12116e-02,-1.11906e-01,6.77938e-01,3.10497e-01,-1.02957e-01,2.47993e-02,-1.66527e+00,-7.58197e-04,6.46994e-01,3.24115e-02,-4.20282e-01,6.66024e-01,
-3.27899e-01,-8.70393e-01,-4.47089e-01,6.11661e-02,5.73403e-01,1.02714e-03,-6.14315e-01,-7.35168e-02,-5.57359e-01,7.12157e-01,-4.95054e-02,9.76601e-01,-5.75546e-02,1.41979e-01,-8.59403e-05,3.79938e-02,-2.57093e-01,-1.15346e-01,-1.05818e-01,1.64440e-01,7.58025e-01,-3.36898e-02,1.04504e-01,-1.27371e-01,1.01493e-01,6.75088e-03,1.28080e-02,1.34277e-01,2.13477e-01,2.53954e-02,4.03980e-01,5.33810e-01,-3.77940e-01,4.29497e-01,8.79878e-02,6.22745e-01,1.32448e-01,2.99627e-01,-2.61751e-02,-2.14728e-01,3.14414e-02,9.27073e-03,-8.84643e-03,-1.19894e+00,-5.94625e-01,3.48005e-01,1.06941e-01,-3.49985e-01,4.72911e-01,-9.28770e-03,8.89775e-03,-6.00448e-02,-1.13854e-01,-4.34010e-03,-7.12068e-01,-1.30073e-01,-7.79499e-02,-2.50367e-04,4.93045e-02,-5.19893e-02,4.74467e-01,-1.27184e-01,-4.42262e-01,-7.79666e-01,
5.94766e-02,-5.63296e-01,1.20134e-01,-5.43308e-02,4.31650e-01,-6.34588e-02,-1.27853e-02,1.21145e-02,-4.14821e-01,-8.96294e-02,-1.70323e-01,-6.59308e-02,1.35540e-01,-9.37321e-01,-1.44424e-04,6.28482e-01,-8.68040e-01,-1.06562e-01,-2.26481e-02,-9.13505e-03,1.19452e-01,-2.44948e-01,-1.01414e+00,2.72905e-01,-7.20257e-01,-2.74434e-01,2.82217e-03,6.42089e-01,2.50895e-01,1.50379e-01,-1.67268e-01,6.38744e-04,5.26920e-01,2.47889e-01,4.79444e-02,-3.20329e-01,2.46805e-01,5.77868e-01,7.33855e-03,1.37581e-01,1.93698e-01,4.07582e-01,-5.07282e-01,-3.59166e-01,2.96844e-01,1.05040e+00,-2.33482e-01,-5.43561e-02,-8.46234e-01,-2.45061e-01,-6.08571e-01,-6.17917e-01,-7.23341e-03,1.58779e-01,-4.17090e-02,7.26877e-01,-1.24121e-01,4.87266e-04,1.79471e-01,3.50853e-01,9.29204e-03,7.17562e-01,5.34297e-02,-7.77220e-01,
-1.26828e-01,-1.38387e-01,2.10886e-02,1.22081e-01,-5.96320e-01,8.30761e-02,1.47129e-02,-1.85533e-01,4.28911e-01,-7.39135e-01,-1.51473e+00,9.44676e-03,1.95812e-02,4.83142e-01,1.08776e-04,5.60815e-01,-5.57326e-01,-4.16964e-01,8.89519e-02,-5.60248e-03,2.12181e-01,-1.88892e-02,2.38550e-01,-8.86972e-02,9.09996e-04,-8.17523e-01,3.44856e-02,-8.21852e-03,2.71445e-01,-4.82140e-01,4.94776e-01,-4.08931e-01,-1.20764e-02,-4.86754e-03,-1.18864e-01,-3.88144e-01,2.88317e-01,2.06922e-01,-2.41760e-01,-1.26129e-01,7.03173e-02,8.53202e-02,6.81257e-01,-6.98935e-02,2.19988e-02,-1.19309e-01,-1.28368e-01,-8.97998e-02,-2.63670e-01,-3.77176e-01,-6.25618e-01,-1.09326e-01,1.01504e-01,-9.77941e-01,-2.39476e-02,-4.14191e-01,1.18488e-03,9.21590e-04,-2.74874e-01,2.68334e-01,-5.60613e-02,-2.61121e-01,-7.49741e-03,6.05117e-01,
-3.29261e-01,-6.39598e-02,-3.73046e-01,6.61815e-01,-6.84112e-02,-1.53880e-01,5.46505e-01,-5.40100e-01,1.98239e-01,-5.92048e-02,5.00217e-01,2.72969e-01,-3.52828e-01,1.84142e-01,7.89200e-05,1.87643e-01,-9.91565e-01,-1.58918e-01,-6.04003e-02,-2.42237e-01,-3.52528e-02,2.10045e-01,8.26396e-03,1.25963e-01,-4.44612e-01,-1.51016e-01,-1.14527e-01,-6.96131e-02,4.73557e-02,-2.20224e-01,2.33539e-01,2.66867e-02,6.43217e-02,5.77195e-02,5.93622e-02,-1.78656e+00,2.38705e-02,4.00948e-02,1.12080e-03,7.16845e-02,-2.65184e-01,-3.24062e-01,1.02050e+00,-4.15351e-01,1.87729e-01,5.26215e-01,-5.82972e-01,-2.80293e-02,-7.02986e-01,3.79113e-01,-1.45954e-01,-6.16863e-01,7.41539e-02,1.63093e-02,-3.19726e-01,-5.33474e-01,1.05205e-01,-3.93755e-01,-5.49375e-01,2.29679e-01,1.33304e-01,2.92817e-01,-1.73396e-02,-8.11353e-02,
2.39692e-02,1.05434e-02,3.50047e-02,2.83944e-01,7.34158e-02,3.96971e-02,1.52736e-02,3.06100e-01,-1.24007e-01,5.25693e-01,-7.16998e-02,4.60651e-02,1.33684e-01,1.17874e-01,-2.21752e-04,-6.98538e-01,9.84902e-01,-8.62114e-02,2.93715e-01,-1.76558e-01,-4.31684e-01,-5.14949e-01,-2.13526e-02,9.29174e-02,5.56163e-02,-4.34028e-03,2.64759e-01,-1.09572e-01,-5.81671e-01,-4.75970e-02,-3.34239e-01,3.85447e-01,2.88250e-03,1.12546e-02,-5.22850e-02,-3.47057e-01,2.38666e-02,5.26920e-02,2.88407e-01,-8.90263e-01,1.64107e-01,-1.00502e+00,1.25199e-02,5.85228e-01,2.22413e-01,6.61270e-01,2.99140e-02,1.14198e-02,-1.16855e-02,1.00748e+00,-2.15490e-02,1.51264e+00,3.99451e-01,6.58246e-02,-1.61506e-01,-7.26536e-02,-1.19467e-01,-1.83935e-01,-3.88019e-02,1.98018e-01,3.68285e-02,3.82401e-01,-9.50470e-01,-3.60008e-02,
-4.05239e-02,9.24624e-01,1.67301e-01,-2.34030e-02,1.81784e-01,-3.82443e-01,5.65160e-01,-2.85168e-01,-3.13552e-02,7.75554e-02,-1.64707e-01,-2.58238e-03,-2.81068e-01,1.39708e-02,1.26623e-04,-1.96676e-01,-2.06777e-01,5.97140e-02,1.08386e+00,-4.51682e-01,-3.55385e-01,-1.60351e-01,-2.99252e-01,4.32267e-01,-1.63524e-01,-6.35178e-01,1.62458e-01,1.12730e-03,-3.09092e-02,3.48260e-02,-1.64413e-01,8.84548e-02,-2.84592e-01,-3.77448e-01,-1.87146e-02,-9.29650e-01,2.69464e-02,-5.66074e-02,1.34133e-01,-3.37138e-01,-2.49291e-01,-2.14068e+00,-3.77596e-01,-3.30618e-01,1.72163e-02,4.90128e-01,-2.52330e-01,5.69805e-01,-2.14272e-02,8.34563e-02,5.54309e-01,-5.89905e-01,4.12928e-01,-2.21889e-02,5.12625e-01,-1.78439e-01,-1.13612e-01,1.20641e-01,-8.81186e-01,1.59665e-01,-2.63231e-01,1.28827e-01,2.09066e-02,3.90271e-03,
2.38577e-01,-6.52658e-02,4.43224e-01,-1.69749e+00,-4.96439e-01,-1.05642e-01,2.22620e-02,-3.05665e-01,1.11076e-01,-4.04649e-02,-5.57128e-01,8.00812e-02,-6.08650e-01,3.28876e-03,-3.38012e-05,8.03907e-06,7.70608e-02,-1.50407e-01,-9.02740e-02,-2.28646e-01,5.26804e-01,3.56043e-01,-8.58990e-02,-2.92937e-01,1.87403e-01,-2.00756e-02,-2.27572e-02,-1.77929e+00,1.36719e-01,4.20372e-02,-3.40201e-02,-6.72489e-01,4.62962e-01,-2.30523e-01,9.88596e-02,8.33151e-01,-1.55214e-01,2.62388e-02,-8.69322e-01,1.64204e-01,2.07377e-02,8.39999e-02,1.64095e-02,-8.55093e-03,-1.85691e-02,-5.08269e-02,6.50258e-01,-7.00410e-01,-3.83536e-01,5.31513e-01,-5.86828e-02,2.60722e-01,9.20018e-02,-3.97865e-01,-4.05194e-02,2.40822e-01,2.16089e-03,-2.75373e-01,-1.68172e-02,-3.60883e-02,3.35094e-01,1.98333e-01,-7.65317e-01,3.07856e-01,
1.96657e-01,3.33558e-01,2.91355e-02,-1.34718e-01,-6.76472e-02,1.24892e-01,-8.60658e-01,-2.52582e-01,3.99969e-01,2.00341e-02,9.19112e-02,4.68875e-01,-3.71775e-01,2.32644e-02,7.11474e-05,-3.74373e-01,2.38190e-02,-8.29117e-02,3.56485e-01,-1.06289e+00,-3.26212e-01,1.13241e-01,3.03453e-01,-1.45242e-01,4.45946e-01,2.33614e-01,1.36881e-01,-1.48417e-02,8.51037e-02,3.26037e-01,1.22782e-01,1.32040e-01,-1.49259e-01,-1.35962e-01,1.21536e-01,-8.37417e-02,-1.90009e-03,-6.69618e-01,5.04385e-03,-4.58375e-02,1.82280e-01,3.29930e-01,-1.09841e+00,-4.04350e-01,2.60771e-01,2.92170e-02,3.03858e-01,-2.41230e-01,-2.23073e-01,3.84819e-01,1.28381e-01,1.32728e-01,4.38436e-02,-6.42366e-03,-1.57310e-01,1.72347e-01,-1.53156e-02,-1.06973e-01,6.61498e-01,7.40792e-02,-4.48191e-01,3.39634e-01,5.38071e-01,2.18864e-01,
2.55627e-01,1.02774e-01,5.72258e-03,2.66601e-01,3.86734e-01,4.61069e-03,9.42129e-02,4.66674e-01,-8.38494e-02,-2.82400e-01,3.64279e-01,-4.75174e-01,-7.97531e-01,-6.46282e-02,2.99811e-05,-4.27151e-01,-6.51908e-01,-2.69938e-01,-2.52561e-01,4.20625e-01,-8.73093e-01,-7.47058e-01,1.03484e-01,-8.50519e-02,2.70461e-01,-7.44539e-01,3.09011e-01,3.95539e-01,-1.04216e-01,-5.10956e-01,-1.24219e-01,5.91399e-02,-2.74651e-01,-2.07116e-01,1.17299e-01,1.15840e+00,-2.06153e-01,2.92479e-01,1.10764e-01,-2.38296e-01,2.17004e-01,1.36683e-02,-4.32948e-02,5.85883e-03,-7.18631e-01,-7.17196e-01,-5.28741e-01,-7.87744e-01,-1.13142e-01,-8.65915e-02,2.00736e-01,4.45111e-01,4.24517e-01,-4.88877e-01,-1.13430e-01,-1.51578e-01,2.67787e-01,-4.96757e-03,9.73550e-02,-2.79258e-01,-3.62842e-01,4.71549e-01,-1.26906e-01,-1.41163e+00,
-3.17498e-01,2.26199e-01,-1.24726e-01,-6.24246e-02,-2.36136e-01,2.85457e-03,-2.66718e-02,-8.54021e-01,4.50332e-01,2.01958e-01,2.92292e-01,3.65394e-03,7.60608e-01,3.72812e-01,-2.06192e-04,-5.24827e-01,1.96094e-01,-6.32870e-05,-6.13961e-01,-9.85261e-02,-1.02856e+00,1.19914e-01,-9.02178e-02,5.96744e-03,1.49843e-01,2.13161e-01,-8.60741e-04,7.46992e-01,-8.36727e-02,6.89549e-01,-4.98134e-04,1.38783e-01,3.58858e-01,1.10075e-01,-1.02592e-01,-6.07972e-01,-7.98773e-01,1.13952e-01,2.27278e-01,2.02966e-01,-1.25205e-01,-1.04077e-01,-1.60374e+00,-3.26853e-02,-5.15292e-03,-1.41227e-01,2.21259e-01,3.28520e-01,8.11977e-01,2.63985e-01,-3.20244e-01,-5.86203e-01,4.98924e-02,-6.68097e-02,2.05098e-02,-4.72669e-01,5.79177e-01,-3.39881e-01,-1.50789e-01,1.22270e-01,-7.03205e-01,-8.64523e-02,-1.57364e-01,6.79105e-02,
3.84949e-01,-4.72285e-01,-8.24546e-03,7.63996e-01,-9.71880e-01,-4.51530e-01,-5.26579e-01,3.11003e-01,-1.11212e-02,1.58729e-01,-6.03235e-02,-1.39734e-01,-8.27229e-01,-1.28563e+00,7.34799e-05,7.72489e-03,2.46952e-02,-3.35466e-02,-1.52674e-01,-1.63528e-04,9.19951e-02,-6.21833e-01,-2.12123e-01,-3.40678e-01,1.26401e-01,-1.79661e+00,2.67948e-02,-4.97761e-01,-5.91030e-02,1.23610e-02,-1.32680e+00,1.09293e+00,-6.34408e-02,1.41498e-01,8.42788e-01,2.06909e-01,5.55719e-01,2.27569e-01,-1.10092e-01,-3.32726e-01,2.33763e-01,-3.83129e-01,1.73260e-01,3.85572e-01,5.14895e-02,-2.40871e-02,4.24194e-02,1.26915e-01,-1.25745e-01,1.01730e-01,4.78068e-01,-2.64237e-02,1.11460e-02,3.76056e-01,3.25964e-01,1.47344e-02,-1.14202e+00,-2.88551e-01,-3.75094e-01,-7.21214e-01,1.98724e-02,-3.40823e-02,2.44014e-02,-1.99962e-01,
-7.64848e-01,-9.63470e-02,2.39600e-01,-9.24951e-03,-3.32024e-02,1.78711e-01,-5.15991e-02,-7.35226e-02,1.44665e-01,-7.81273e-02,-8.59795e-02,5.06632e-01,-2.21192e-01,6.70221e-01,-1.01493e-04,-1.48912e-03,4.43789e-01,-6.14155e-01,-1.05438e+00,-7.88549e-02,4.07241e-01,1.47315e-01,2.05794e-01,-3.95138e-01,-2.47364e-02,-3.50936e-02,9.31832e-02,6.80385e-01,-5.95786e-03,-4.33587e-02,3.94513e-01,2.92290e-02,-3.17645e-01,-5.45669e-01,-4.40341e-02,5.11796e-01,-6.15223e-02,-4.01110e-01,1.38779e-01,-6.26080e-01,-2.13771e-02,-7.87037e-01,2.04465e-01,6.31898e-01,-7.47478e-01,-1.46983e-01,7.96728e-01,-6.51300e-01,2.77878e-01,-2.97311e-01,-6.15679e-01,5.18481e-02,-1.84261e-01,9.06775e-03,-1.84790e-01,3.09666e-02,-1.52982e-01,2.91480e-02,1.55546e-01,-5.94054e-02,-7.42918e-02,3.25821e-01,-9.65923e-01,3.86121e-01,
3.04573e-02,3.52723e-03,1.35187e-01,-4.63200e-02,-1.69283e-01,-1.81359e-01,8.24175e-02,-1.05138e+00,5.61828e-02,4.18449e-03,-7.41386e-02,2.05035e-01,7.82442e-01,-4.49199e-01,1.67426e-04,-2.32944e-01,-9.09975e-01,7.65215e-02,2.73087e-03,-6.66120e-02,3.36584e-01,-4.27426e-01,-4.41674e-03,3.66125e-01,1.63638e-01,-7.47829e-01,-1.79475e-01,-2.46212e-01,1.33680e-01,-2.34300e-01,1.84881e-01,3.10242e-02,-2.72831e-01,8.78227e-01,1.81444e-02,-2.24365e-01,7.55065e-02,2.67721e-01,2.69044e-01,1.78932e-04,-1.43618e-01,-5.05144e-01,-1.29245e-01,3.28579e-01,6.45657e-01,-6.66573e-03,-3.33782e-01,5.73074e-02,5.61323e-02,1.17129e-01,-9.16748e-02,6.61424e-01,-5.41259e-01,1.93598e-01,-1.00172e-01,3.26107e-02,1.67270e-01,1.93599e-02,-3.00008e-01,1.05908e-01,-1.28890e-02,1.81720e-01,6.53753e-01,4.22901e-01,
-4.84344e-01,-9.97295e-01,-7.13889e-01,-1.33885e-01,4.84407e-02,1.15349e-01,4.61866e-01,2.76906e-01,7.46080e-01,4.34281e-01,7.48360e-01,5.79098e-02,2.24931e-03,1.51770e-02,-7.95646e-05,2.70063e-02,-7.12956e-03,-6.88273e-01,9.19281e-03,7.84092e-01,2.23310e-01,-6.15531e-01,1.32107e-01,-1.02460e+00,-6.24521e-01,-1.93522e-01,4.34118e-01,5.04629e-01,2.29818e-02,1.77213e-02,2.68077e-02,5.02259e-01,2.51827e-01,5.10660e-01,1.27369e+00,6.66388e-01,3.45888e-01,-3.79830e-02,3.41176e-02,3.86880e-01,-2.84319e-01,-9.22642e-01,-2.77375e-02,4.66721e-01,-5.44696e-02,2.71767e-01,-6.60935e-01,1.11858e-01,1.47657e-01,6.39672e-02,5.29939e-01,2.02502e-01,-2.53137e-01,-6.32826e-01,4.57945e-01,-1.62173e-02,-4.04804e-01,4.22829e-01,-5.43830e-01,3.98172e-02,6.72977e-01,5.32311e-01,-3.01554e-01,4.65591e-02,
6.08288e-01,
-1.61507e+00,
2.33482e-02,
4.43335e-01,
2.02023e+00,
1.87460e+00,
-1.26635e+00,
-2.01118e-01,
5.53870e-01,
6.90732e-01,
3.54426e-01,
-5.62249e-01,
-1.04716e+00,
-4.97271e-01,
-1.50619e-01,
-4.76154e-01,
-6.61916e-01,
2.31774e+00,
-5.02245e-01,
-4.18401e-01,
-1.48317e+00,
3.03312e-01,
-2.05689e+00,
6.03830e-01,
1.60530e+00,
-1.91436e-01,
-3.37547e-01,
-5.96483e-01,
2.33175e+00,
-8.10511e-02,
1.65535e+00,
6.38855e-01,
-6.66893e-01,
-5.16960e-01,
2.40539e-01,
-2.20987e-01,
1.26989e+00,
-8.24468e-01,
2.89571e+00,
-3.59257e-01,
9.63379e-01,
-7.60502e-01,
2.32951e-01,
-1.75266e+00,
1.56255e-01,
4.72611e-01,
-9.77397e-01,
-5.82764e-01,
2.97613e-01,
4.83939e-01,
-8.54279e-02,
-8.47560e-02,
-3.66100e-04,
-1.45535e+00,
8.96303e-01,
3.34366e-01,
1.01280e+00,
-1.29634e+00,
7.04750e-01,
2.05553e+00,
-1.82715e+00,
3.71217e-01,
1.48077e+00,
-1.50144e-01,
-8.70833e-02,1.36995e-04,8.22175e-05,-7.14067e-03,2.36484e-01,-2.90977e-01,2.31633e-01,3.00922e-01,-3.77322e-01,8.81404e-02,-1.23516e+00,9.29495e-01,-1.81551e-01,-1.02111e-02,-3.19529e-01,-8.50594e-01,-3.60582e-02,-4.53217e-02,1.87567e-05,-7.48075e-02,6.34866e-02,-3.89825e-01,2.82417e-02,-3.12248e-01,1.54815e-01,-5.17103e-03,2.83664e-01,-9.86108e-01,2.75824e-02,-4.81487e-02,-5.36233e-01,-2.82858e-02,-1.65240e-01,7.81494e-01,-1.63049e-04,-1.36324e-01,1.54958e-01,-4.36796e-02,7.27182e-02,-2.26872e-01,3.50016e-02,5.22804e-03,1.67548e-01,-3.22503e-01,2.10888e-01,5.75267e-02,-3.58049e-02,-1.38220e-01,-1.74523e-04,7.94491e-02,-1.13476e-04,-8.94582e-01,-8.54980e-02,6.77740e-03,5.53321e-01,6.61495e-05,2.86809e-01,1.94501e-01,-6.77060e-05,1.22739e-04,-3.09913e-01,8.11693e-01,5.36010e-01,4.63990e-02,
2.87813e-01,9.85991e-06,1.07578e-04,6.46392e-03,-1.90697e+00,3.25553e-01,3.04706e-02,-3.69616e-02,6.70126e-03,-3.01669e-01,-4.22667e-01,-9.07736e-03,3.32497e-02,-4.95711e-01,3.88673e-01,-9.84932e-03,1.35420e-01,-1.22115e-01,-8.90376e-05,-3.72178e-02,7.72598e-01,-1.41447e-01,-3.04913e-01,1.43867e-01,1.95576e-01,-1.01373e-04,-3.66846e-03,-1.02902e+00,1.86059e-03,-6.57593e-06,5.61052e-01,-1.25696e-04,-1.24976e+00,4.42410e-02,5.86739e-05,-8.31570e-01,5.09081e-03,-6.90214e-02,2.20018e-02,-1.80327e-02,1.35177e-01,5.06585e-02,1.79428e-02,-7.46380e-06,4.87373e-03,2.17767e-01,-2.19516e-02,-1.84898e-02,-3.60973e-05,4.39543e-02,-1.42596e-04,5.64705e-01,-1.06203e-01,1.15922e-02,2.91925e-01,7.71503e-05,-2.41616e-02,-2.06699e-02,4.72899e-05,1.56450e-04,-2.12348e-01,4.65638e-01,-1.19300e-01,2.32602e-01,
2.45545e-01,1.41296e-04,2.12586e-04,1.09090e-01,-1.46066e-01,-1.28972e-01,-4.34013e-01,-9.60717e-02,6.72225e-02,3.25109e-01,6.16671e-01,-8.81090e-01,-4.19790e-01,1.45049e-02,-3.03984e-01,-3.35982e-02,3.21409e-01,4.71927e-01,6.91502e-05,2.08843e-01,-1.99178e-02,-4.66716e-01,4.05102e-02,-1.76577e-02,-6.82838e-01,-6.17193e-01,2.24411e-01,-3.95491e-02,4.12051e-03,-1.07465e-01,-1.04202e-01,2.62574e-01,1.16215e-01,-6.77609e-01,4.55980e-04,-7.12265e-02,1.11748e-01,-4.49247e-01,-8.24713e-03,1.52496e-02,-1.33118e-01,-7.48251e-02,-2.76170e-01,-7.79290e-02,-2.21253e-01,-5.13203e-02,5.04826e-02,-6.96179e-01,7.89057e-05,-9.85704e-02,1.69084e-05,-9.57225e-02,-5.88175e-01,2.26089e-01,-2.75510e-01,-3.02534e-04,2.43043e-01,-8.28512e-01,-1.34523e-05,-2.90165e-07,-3.06565e-01,-2.89903e-01,3.37664e-02,-5.43347e-02,
-6.60981e-02,1.56125e-04,-1.84435e-04,4.45881e-02,1.34739e-01,2.20507e-01,-4.86288e-01,-1.06220e-02,-3.52106e-03,-2.35792e-01,-1.75416e-01,4.05379e-01,6.32528e-03,2.32409e-02,-4.24532e-01,3.55052e-01,3.40804e-03,-3.21095e-02,-5.99725e-05,-3.87415e-01,-2.74989e-01,-1.47666e-01,-2.67593e-02,2.54881e-01,1.86497e-01,1.22508e-01,6.83500e-01,4.77043e-02,-3.35835e-01,-6.49709e-02,4.94179e-01,6.64141e-02,-2.18108e-01,1.53722e-01,6.81698e-05,-2.11885e-01,1.87560e-01,-2.12183e-01,7.14722e-01,-1.93721e-01,5.65890e-02,3.23836e-01,1.51840e-01,-7.94685e-02,-4.00747e-02,7.60234e-01,-5.20687e-01,-2.07854e-01,1.15348e-04,-2.28536e-02,-1.69722e-04,7.28452e-01,1.39204e-01,3.12279e-01,-8.58083e-01,9.65204e-05,-7.96076e-03,6.34247e-01,-2.38893e-04,-1.09610e-04,1.09891e-01,1.88704e-01,-4.48264e-01,5.76064e-02,
4.37115e-02,-1.72846e-04,-1.15828e-04,7.16302e-02,1.56386e-01,2.28216e-01,2.19434e-01,2.32097e-01,-3.85985e-01,-2.30846e-02,1.56702e-01,2.87950e-01,-3.53721e-01,8.72135e-02,-1.25688e-03,1.40094e-02,-5.31199e-01,-4.05372e-03,1.25630e-04,-3.17460e-01,1.22257e-01,5.70016e-02,3.73085e-01,1.64042e-01,-2.52793e-02,2.82842e-04,1.14630e-01,-4.39553e-01,-2.21665e-02,-1.42068e-01,1.65173e-01,-3.54347e-01,2.31374e-01,-1.67219e-02,-2.53573e-04,-5.51033e-01,6.52649e-02,1.22420e-01,1.18307e-02,-3.40581e-01,1.62307e-01,4.37774e-02,-3.94129e-01,-8.26497e-01,-5.70192e-01,-9.63623e-02,-1.71756e-01,-3.86471e-01,5.64070e-05,2.95185e-01,-2.83764e-04,1.99689e-01,-5.63291e-01,5.31610e-03,3.91186e-01,8.92877e-05,3.04210e-01,-4.96665e-02,3.26170e-05,7.46342e-05,3.36143e-01,-9.86814e-02,5.50456e-02,4.24856e-01,
-1.98853e-01,8.86966e-05,1.95346e-04,1.57092e-01,-1.54000e-01,-7.37467e-01,2.04748e-03,4.66303e-02,1.20427e-01,-4.83443e-01,-1.12609e-01,2.44482e-01,-2.27048e-02,1.33050e-01,-1.39778e+00,1.24851e-01,4.13627e-02,2.11461e-01,1.02401e-04,1.26012e-01,-9.65179e-01,-4.11994e-01,-1.42599e-01,-2.98566e-01,-3.24860e-01,-1.49038e-01,3.01254e-01,-9.35545e-01,-1.65372e-01,9.86765e-02,-2.75813e-01,2.37845e-01,1.46954e-03,1.27612e-01,-7.18358e-05,1.24864e-02,2.54269e-01,2.34450e-02,-1.64797e-01,2.02885e-01,-6.18906e-01,-1.01447e+00,-4.99316e-03,1.09793e-01,4.19579e-01,-4.80082e-02,-3.03496e-01,-6.03646e-01,4.05843e-05,-3.51614e-01,6.74373e-05,-4.34651e-02,-4.19170e-02,-1.06472e-01,-1.43202e-02,-1.62202e-04,-6.36231e-02,1.00926e-01,4.60976e-04,9.59172e-05,-1.72466e-01,4.17111e-02,-2.27157e-01,-2.16017e-01,
1.34960e-01,-1.02145e-04,-1.79638e-04,1.06707e-02,-1.56668e-01,1.65019e-02,3.07199e-01,-1.47093e-01,-4.73129e-02,-2.29715e-01,-1.27180e-01,-6.37871e-01,2.32478e-01,-2.04321e-01,-1.42319e-02,-5.23560e-02,-1.17212e-01,-2.48776e-02,2.05282e-04,-1.37740e+00,-4.07561e-01,2.15955e-01,-2.18270e-02,-7.77277e-02,-1.39330e-01,2.39769e-02,-1.29343e-01,-2.70458e-02,-1.67760e-02,-6.47668e-02,7.34962e-03,3.07927e-02,2.58614e-02,1.05082e+00,1.95852e-04,-2.80795e-01,2.60220e-01,-1.69882e-01,-1.74993e-01,2.19361e-01,6.64759e-02,3.80399e-02,1.65226e-02,1.33439e-02,-1.40726e-02,6.42497e-01,-3.44279e-01,-1.34383e+00,-5.21383e-05,6.82070e-02,-7.64462e-05,-1.96426e-01,-3.74966e-02,-6.53604e-02,-8.79222e-01,-1.07230e-04,-4.53623e-01,1.33398e-01,-6.74108e-05,-3.04494e-04,3.91933e-01,-4.42161e-01,6.83402e-02,-2.32558e-02,
3.96274e-01,-6.82379e-05,3.78076e-04,-2.21919e-02,-3.75472e-01,-2.71885e+00,-6.97873e-02,-2.45272e-01,-8.18316e-02,-7.02538e-02,-3.81418e-01,3.43294e-01,-3.51924e-01,2.39734e-02,2.02029e-02,1.66320e-02,-1.48649e+00,6.78349e-02,-5.10099e-05,3.67936e-01,-1.24652e-02,-7.77486e-02,-1.48879e-02,-1.76450e+00,-3.95254e-01,-5.15133e-01,3.17262e-02,-1.11399e+00,3.88110e-02,8.47595e-02,-1.97063e-01,3.33444e-01,2.68687e-02,-2.07428e-01,8.43421e-05,1.61379e-01,-4.07522e-01,-8.83778e-02,-2.42824e-01,-2.28650e-01,-1.34949e-01,1.98208e-01,-1.71001e-01,8.09251e-02,-2.21485e-01,-6.35639e-02,-1.83957e-01,2.16836e-01,-1.48341e-05,1.42043e-02,5.87262e-05,3.07359e-02,-1.29008e-01,-5.29068e-01,-1.37278e-01,-4.15310e-06,-4.52662e-02,4.97133e-02,-7.44449e-05,1.64172e-04,-5.86750e-02,-4.95536e-01,-1.59304e-01,1.68632e-01,
4.46999e-02,9.46372e-05,2.58115e-04,1.38886e-01,-4.37913e-02,7.25009e-02,2.11151e-01,1.17925e-01,3.38867e-01,-8.65553e-02,-2.45913e-02,5.48283e-02,1.60754e-01,-2.25148e-02,1.20192e+00,4.22699e-01,-8.26497e-02,1.02501e-01,-2.33444e-04,-1.04950e+00,-1.58540e-01,-6.20866e-01,9.15262e-02,-1.11475e+00,-1.97267e-01,-7.05497e-01,1.39109e-01,1.29746e-01,8.19966e-03,-9.02584e-02,4.58170e-02,4.98766e-03,2.33104e-01,-8.11734e-01,-6.21526e-06,4.26243e-01,2.98094e-02,-1.23362e-02,-4.83950e-02,3.80410e-01,8.94729e-02,-8.07897e-02,-1.30551e-02,-5.68128e-01,-3.33717e-02,-2.20380e-01,-7.08854e-02,2.15880e-02,-8.71529e-05,-8.60014e-02,1.02931e-04,-3.07296e-01,-5.60541e-02,-4.02806e-01,-3.30868e-01,-1.79531e-04,-6.88019e-01,-5.08412e-02,-1.84566e-04,-3.02901e-04,2.07912e-01,3.80659e-02,2.55745e-01,1.31260e-01,
4.17942e-01,2.30405e-04,3.74685e-05,1.52079e-01,1.44229e-01,2.66741e-01,-9.06200e-02,-1.17638e+00,-4.83199e-01,4.89731e-01,2.75857e-01,-1.89256e-02,2.06117e-01,-2.60421e-02,9.20980e-01,-5.36541e-03,-2.95498e-01,5.80890e-02,1.47326e-04,1.96606e-01,2.58503e-01,-2.05582e-02,-2.01032e-02,5.09331e-01,-1.77843e-01,1.38936e-01,-1.07835e-01,-8.82914e-02,-1.11568e-01,-1.20371e-03,-3.69248e-01,-1.46118e-01,1.54135e-01,7.17639e-03,-6.30300e-06,1.16858e-02,-7.40649e-02,-4.70437e-03,-8.45634e-02,-1.23170e-01,1.22090e-01,6.07014e-01,-1.36570e-01,3.17807e-02,-2.01436e-01,2.28139e-01,-2.97145e-01,1.98037e-02,1.90564e-04,1.06437e-01,2.54452e-04,-1.84369e-02,-6.26258e-02,-1.86890e-02,3.01364e-01,3.22532e-05,1.29263e-01,-1.21197e-01,1.58753e-04,-4.60169e-05,-3.02915e-01,-5.40756e-02,1.84317e-01,7.35587e-02,
7.62408e-02,-9.34604e-05,4.86440e-05,6.40894e-02,-5.49694e-01,-3.25284e-02,-1.43465e-01,-2.12421e-01,-3.76147e-01,-1.26148e-02,-1.71221e-02,-1.69246e+00,5.44827e-02,-2.53059e-02,4.21919e-01,-4.46779e-02,6.18968e-01,-3.77702e-02,3.75163e-07,-2.27724e+00,2.75625e-01,1.91028e-01,6.98634e-02,-2.77272e-01,-9.12966e-02,-4.76362e-02,1.42090e-02,-9.51030e-02,2.35413e-01,-1.50070e-01,3.36412e-01,7.46232e-03,-5.40274e-01,1.79410e-01,3.04286e-05,3.09113e-01,2.08213e-01,-2.48985e-02,2.19799e-01,-1.34658e-01,1.27029e-01,-3.04682e-02,2.02283e-02,1.03334e-02,6.17157e-02,1.39813e-01,-2.00669e-01,5.59769e-02,6.82940e-09,-1.19558e-01,1.94403e-04,2.02980e-01,-4.87784e-02,1.90460e-02,-3.92585e-01,-3.23528e-05,6.40090e-02,-3.45465e-01,7.04360e-05,2.78306e-05,-1.77031e-01,-3.86248e-01,-5.58373e-01,3.29306e-01,
-6.01085e-02,1.54106e-05,-5.99058e-05,-3.06433e-01,-3.22196e-01,-7.15340e-02,1.35013e-02,-1.49832e-01,-2.38327e-01,-2.09393e-01,3.96855e-02,-5.99191e-03,-2.38529e-02,-2.00815e-01,-1.62630e+00,-1.63508e-01,2.11120e-01,1.76174e-01,4.42851e-07,-7.02303e-03,-2.54124e-01,-2.66554e-01,-2.58108e-02,-6.79435e-01,-4.40685e-01,1.30643e-01,-4.76443e-01,-3.50882e-02,1.64157e-01,1.05225e-01,-8.89628e-03,2.20750e-01,4.58082e-02,1.16105e-01,7.41187e-05,1.12981e-01,1.43294e-01,1.95942e-01,-3.85502e-01,4.83178e-02,-1.52711e-01,-3.45236e-01,1.53429e-01,1.53744e-01,-1.52601e-01,2.08619e-02,-3.29541e-02,1.28873e-01,-4.94441e-04,5.00333e-02,-1.03289e-06,-7.17281e-01,-2.54101e-01,-2.53452e-01,-3.86862e-01,7.39399e-05,3.94014e-01,-2.69294e-01,1.24358e-04,2.30898e-04,9.29011e-02,-7.56752e-03,1.99305e-01,-1.34437e-01,
-1.22827e+00,-6.38349e-05,-3.30102e-04,-1.13196e-01,4.47660e-03,6.88167e-01,1.11120e-02,-4.14478e-01,-8.56203e-02,-1.64456e-01,2.74727e-01,8.39970e-01,-7.48926e-02,-2.32090e-01,-1.82859e-01,7.13948e-01,3.46049e-01,5.02340e-02,1.87005e-04,8.78975e-03,-2.98904e-01,1.13858e-01,-2.65239e-02,-9.36733e-01,-2.77755e-01,3.64061e-02,2.97402e-01,-2.80483e-02,4.24010e-01,-3.23055e-01,-2.96913e-02,2.79987e-03,2.33619e-01,-5.79538e-01,-1.83834e-04,-8.73114e-02,-8.59022e-01,-4.68673e-02,-1.27891e-01,-1.01614e+00,1.78418e-02,1.61592e-02,-3.44322e-02,-2.33354e-01,6.18269e-02,-2.32052e-01,-3.38710e-01,1.57544e-02,7.23844e-06,-5.80560e-02,1.30750e-04,-2.48389e-01,-1.43574e-01,4.38495e-01,4.73705e-03,4.66026e-04,-2.57323e-01,3.44381e-01,-7.46412e-05,-1.95831e-04,-2.17954e-01,7.37820e-04,-2.58377e-02,-6.75384e-02,
-4.14130e-02,-2.34421e-05,-8.76545e-05,2.36261e-02,2.10586e-01,3.23642e-02,-1.47040e-02,-2.83281e-01,4.53340e-02,-5.78595e-01,5.95496e-01,1.98323e-01,2.44793e-01,-1.57074e-01,9.77310e-06,9.65217e-02,-3.46192e-02,1.74047e-01,9.58493e-05,2.64285e-01,-2.22124e-01,-6.18387e-03,-2.72192e-02,1.69488e-04,5.04968e-03,-5.35531e-01,1.32154e-03,4.50470e-01,-5.17468e-01,-7.10864e-01,-9.38958e-02,-2.71137e-01,-9.33517e-02,3.06369e-02,4.27611e-05,-1.73882e-01,-9.57630e-01,-5.87570e-01,3.05572e-02,-1.86092e+00,-1.72579e-01,-1.87259e-01,1.74349e-03,-2.83939e-01,3.74797e-02,-1.19361e+00,7.88775e-02,-1.68553e-01,5.51083e-05,-7.50038e-02,2.65144e-05,3.90911e-02,-3.60328e-02,3.24872e-01,3.74470e-07,4.45563e-05,-2.14652e-02,4.25400e-01,-1.21593e-04,1.25010e-04,-9.97059e-02,1.15642e-01,5.71974e-02,-6.73095e-01,
1.67652e-05,-1.77736e-04,1.33430e-04,3.05326e-04,3.12193e-05,1.26134e-04,-3.39250e-05,7.74236e-05,-1.30247e-04,-2.05508e-05,1.10330e-04,-1.79968e-04,1.65150e-04,-1.08809e-04,-1.20738e-04,2.46945e-04,1.14702e-04,1.81107e-04,-2.43698e-04,-7.54579e-05,2.09618e-04,-1.66251e-05,1.80597e-05,-2.89992e-05,-2.49338e-05,5.93054e-05,-1.06618e-04,-4.68524e-05,9.14512e-06,-1.11283e-04,1.54664e-04,1.09844e-04,-1.60653e-05,-9.16552e-06,1.07243e-04,2.40638e-04,-9.14530e-06,-7.68430e-05,-1.76231e-04,-2.13131e-05,-1.25060e-04,-3.16945e-04,1.21594e-04,8.66068e-05,6.69154e-05,6.00154e-05,1.70073e-04,-2.31150e-04,2.46777e-04,-1.03413e-04,6.63327e-05,1.87494e-04,-3.30838e-05,-1.45571e-04,-1.72485e-04,5.74358e-05,6.74070e-05,4.01206e-05,1.05706e-04,-3.00183e-06,1.02819e-04,-7.27596e-12,-7.47838e-05,4.02398e-04,
1.17925e-01,1.25717e-04,-2.17609e-04,1.73236e-01,-9.69141e-03,-1.78027e-01,-4.96479e-02,7.72904e-01,-5.17328e-01,5.14294e-04,-3.29771e-01,-1.52656e+00,8.11310e-03,1.99357e-01,5.54565e-01,-1.02578e+00,2.24204e-01,-6.22116e-01,-3.05773e-04,-8.20703e-02,8.47668e-02,1.82180e-01,3.07820e-02,-1.76649e-01,5.95632e-01,4.48082e-01,-2.82237e-01,-2.95440e-02,-1.74903e-01,-2.19178e-01,-5.31095e-02,7.65109e-02,3.01309e-01,-6.00585e-02,6.69184e-05,-2.21260e-01,-2.19501e-02,2.15947e-02,2.20422e-02,-2.23348e-01,-1.25149e-01,3.62987e-02,1.49190e-03,1.11853e-01,1.13604e-01,-1.06494e-01,4.28278e-01,-1.15010e-02,1.68181e-04,-1.95845e-01,1.24759e-04,-8.51373e-01,-2.72816e-01,5.72154e-01,2.86613e-02,7.61921e-05,1.65505e-01,7.13356e-02,-9.50970e-05,-1.52537e-04,1.03674e-02,1.96187e-01,3.69543e-02,9.59042e-02,
-9.71657e-01,-1.34131e-04,4.55669e-05,4.73849e-02,1.94759e-01,9.36371e-02,-3.28862e-01,-7.84945e-01,2.09800e-01,8.07913e-02,2.86878e-01,3.08242e-01,1.06929e-01,-8.89855e-03,-5.07613e-02,2.71704e-01,-2.30914e-02,-3.99233e-03,-5.48571e-05,-1.29802e+00,-1.49086e+00,-8.65430e-02,-8.84301e-03,2.47811e-02,-9.12847e-01,-1.60385e-01,9.42934e-03,7.69987e-02,-2.54272e-01,1.82998e-03,6.32175e-02,6.10807e-03,7.99101e-02,-6.92285e-01,-6.61826e-05,1.14902e-02,-2.86680e-01,-1.17487e-01,-1.14465e+00,-8.30823e-02,-1.13760e-01,8.08692e-02,-1.79065e-01,-7.73230e-02,-5.80109e-02,-5.04357e-02,4.42553e-02,-8.76664e-01,-2.51659e-04,1.93382e-02,3.73881e-05,-2.00275e-01,-3.97117e-01,-5.72502e-01,5.44899e-02,-4.56859e-05,2.17732e-01,6.95829e-02,1.57464e-07,3.20244e-04,1.27047e-01,1.52422e-01,-3.50598e-01,-1.55673e-01,
3.42589e-02,-2.24956e-05,-4.44190e-04,-3.67118e-01,-1.92462e-01,-9.45251e-01,-1.14597e-02,-7.88395e-02,2.99955e-02,-2.55484e-02,-1.09567e-01,1.81808e-01,-2.61425e-01,2.30834e-01,-2.06704e+00,-2.39532e-01,1.71827e-02,-3.75222e-01,3.75874e-05,2.28443e-01,-2.71584e-01,-3.84664e-01,-2.26208e-01,-2.97479e-01,-8.25906e-02,7.05222e-03,2.47063e-01,-3.88756e-01,1.27287e-01,4.05150e-01,1.65087e-02,-2.80330e-02,-4.53702e-01,1.26367e-01,5.72411e-06,8.18770e-02,-7.25911e-02,4.93661e-01,-1.00171e-01,2.11990e-01,-6.55972e-01,-3.99527e-01,2.10003e-01,8.10440e-02,3.88104e-01,6.93186e-02,-4.75535e-01,-9.58591e-01,-2.30289e-04,6.38602e-03,-2.05689e-05,-3.23876e-02,-4.29730e-02,-2.85529e-03,5.43050e-02,-3.69832e-04,-4.05187e-02,1.36535e-02,8.94840e-05,-8.38457e-05,-1.29059e-02,1.16577e-01,-6.29923e-01,-4.69380e-02,
-5.06529e-01,-1.80583e-04,8.02130e-05,4.21881e-02,9.23652e-02,-1.33698e-01,1.23667e-02,-1.02771e-01,-3.43923e-01,-3.75307e-01,-1.43699e-01,5.46906e-03,-2.69552e-01,-2.83017e-01,-1.26950e+00,-4.89028e-01,1.94657e-02,-2.46506e-02,1.03979e-04,-1.44837e-02,-9.44522e-01,-5.32697e-01,-4.10494e-02,-1.95925e-02,7.21512e-02,-4.02300e-01,2.81557e-01,2.19393e-01,-3.29112e-02,-1.53817e-01,-1.26355e-01,7.77871e-02,4.10749e-02,-5.45805e-02,-1.53135e-04,-1.14974e-02,-4.22952e-02,-4.53050e-02,-1.04301e+00,-2.42855e-01,-9.61570e-02,-1.45691e-01,-3.43478e-01,2.17686e-01,-8.86861e-03,-1.33402e-01,9.07629e-02,8.95547e-04,-1.25394e-04,5.39046e-01,-1.63802e-04,-7.45743e-02,2.56884e-01,-4.08238e-02,-9.39971e-01,5.62200e-05,-2.23340e-02,-1.17910e-01,1.11502e-04,2.88781e-05,1.01073e-01,-6.46846e-01,6.27638e-02,-3.09766e-02,
-6.59229e-01,2.14986e-05,-2.10474e-04,-1.65664e-01,2.56976e-02,-1.86437e-01,-1.78577e-01,3.93743e-01,-1.83293e-01,4.28481e-01,-2.60560e-01,-1.20838e-01,-1.42465e-01,-4.05881e-01,-3.42368e-01,-2.40634e-01,1.91465e-02,6.58378e-02,-1.49591e-04,5.89032e-01,5.97788e-01,2.48594e-01,4.63306e-02,2.95999e-01,-1.77410e-01,5.21516e-01,-9.69209e-05,-4.03243e-01,1.12267e-01,-2.37933e-02,1.41686e-01,-4.28883e-02,1.18554e-01,4.15166e-01,-1.81273e-04,3.89089e-01,1.87272e-02,9.40710e-02,-7.29007e-03,8.22991e-02,1.22575e-01,-2.65507e-01,-4.55866e-01,8.76084e-02,-2.17433e-01,2.59987e-01,3.42522e-01,3.04827e-01,-1.26551e-04,-7.81182e-02,-2.16181e-04,-2.76421e-02,-3.35828e-01,-1.49798e-01,-3.71122e-02,-5.76959e-05,1.35933e-01,5.27914e-02,1.48545e-04,2.65093e-05,-2.37467e-01,-1.23062e+00,7.28413e-02,-3.60219e-03,
-1.64715e-03,1.46542e-04,1.11196e-05,-1.63989e-01,2.92330e-02,3.00132e-01,-1.10390e-01,7.38962e-02,-2.30267e-01,3.63824e-01,-8.43098e-01,-5.38822e-01,2.85098e-01,-1.29214e-01,2.37169e-01,-1.26415e-01,2.36936e-01,-1.51270e-01,6.36688e-05,2.21105e-01,4.62993e-01,2.20386e-01,1.44111e-01,1.56885e-02,7.04692e-01,3.49624e-01,-6.64168e-01,2.57990e-01,1.84249e-01,1.58997e-01,8.37007e-02,-2.83987e-01,-2.07638e-01,3.97514e-02,-7.12297e-05,9.77886e-02,-1.10316e-01,-1.75825e-01,6.04205e-01,-6.59923e-03,-1.00885e-01,4.54867e-01,3.08871e-01,-1.20682e-01,-1.45969e-01,-9.24762e-01,1.54659e-01,1.11490e-01,7.21277e-05,9.01536e-02,1.09720e-04,-8.12873e-02,-8.72144e-01,-3.37119e-01,1.84717e-01,5.47705e-05,1.50788e-02,-2.24363e-01,-5.26004e-06,-3.21341e-04,-4.01413e-01,-1.75836e-01,2.40775e-01,-8.82974e-03,
2.53408e-01,6.94890e-05,-2.15206e-04,-9.56564e-02,-1.03488e+00,-6.99701e-01,-3.01668e-01,-1.07671e-01,-2.69998e-01,-8.79346e-03,-2.91357e-01,4.25887e-02,6.52516e-02,2.34252e-01,-1.52768e+00,2.65926e-03,7.06089e-01,7.43597e-02,1.30104e-04,6.42698e-02,-2.62518e-02,7.60149e-02,1.29092e-01,-6.22304e-01,5.31420e-02,1.18656e-02,-9.87122e-01,2.73480e-01,-5.29709e-01,-1.82909e-01,-1.00839e-01,7.37948e-02,-5.47135e-01,1.16134e-01,-1.93866e-04,5.11449e-02,3.50231e-02,-2.82520e-01,-8.22170e-02,1.56887e-01,4.94323e-03,1.04831e-02,-1.34436e-01,-1.68516e-01,-3.99032e-03,-9.30282e-02,1.89385e-01,-3.54002e-02,-1.50644e-04,-1.74593e-01,7.51106e-05,-7.93168e-02,9.01716e-02,-6.10541e-01,-9.84041e-02,-2.00341e-04,3.41307e-01,4.67578e-01,5.29067e-05,6.08286e-05,1.03307e-02,2.35644e-01,-7.64436e-02,2.30711e-01,
-3.05493e-02,-6.07922e-05,1.55074e-04,-8.20773e-02,3.49086e-01,6.73159e-01,-1.46193e-01,-2.72925e-02,3.63485e-03,-9.42957e-02,-6.47976e-02,-3.95188e-02,4.86290e-02,2.64355e-01,-9.95501e-01,-1.86097e-01,3.26044e-01,-7.67467e-02,-1.20012e-04,5.75128e-01,1.90798e-02,3.35086e-02,-1.80929e-01,1.47840e-01,4.35131e-01,3.33258e-02,7.82106e-03,4.49189e-02,3.36888e-02,-2.94011e-01,3.09888e-01,1.90926e-01,2.23116e-01,-1.68311e-01,-1.96991e-04,-1.57704e-01,-2.02997e-01,-7.19366e-01,1.11959e+00,1.79840e-01,1.27072e-01,1.88108e-01,2.92402e-01,2.56885e-01,4.33978e-01,1.69159e-02,6.24062e-01,-2.63844e-02,3.07854e-05,9.31680e-02,1.85322e-04,-8.79234e-02,-1.09868e-01,5.71946e-02,6.17605e-02,1.84249e-04,-4.90521e-01,-2.69777e-01,5.00111e-05,-1.92474e-04,4.56088e-01,2.67806e-01,-3.51714e-01,-1.83410e-01,
-1.74549e-01,-1.86057e-04,-1.45880e-04,4.62243e-01,3.83906e-01,-3.22157e-01,-1.50609e-01,-1.88992e-02,-1.01357e-01,-7.27125e-02,-3.88641e-01,-5.27563e-02,-1.17230e-01,4.52221e-01,2.58009e-02,2.55185e-01,1.19360e-01,-1.74974e-02,-4.85731e-04,-2.90143e-01,1.87547e-01,3.20256e-01,-7.99676e-02,-2.34475e-02,1.77338e-01,3.62940e-02,4.14191e-01,1.79395e-01,1.94798e-01,3.30257e-03,-6.12346e-02,-6.72673e-03,4.84786e-01,-7.05752e-01,9.18271e-05,1.45871e-01,8.15111e-02,-1.02291e-01,-6.56230e-01,-9.59053e-02,2.06210e-01,-4.44429e-01,1.48576e-01,5.62031e-01,9.10359e-02,-4.05387e-01,4.49877e-01,1.06823e-01,2.14125e-04,-6.04453e-01,-1.13241e-05,-2.85679e-01,3.60579e-02,-1.28453e-02,-1.40427e-01,-2.33893e-06,-2.30812e-01,3.63106e-01,3.86438e-05,2.83596e-04,-4.00787e-02,1.84629e-03,1.28705e-02,-1.29474e-01,
4.10588e-01,2.68673e-04,-1.41765e-04,-7.61907e-02,4.22289e-01,5.95808e-02,-9.54716e-02,-1.77371e-01,-4.91813e-01,7.81244e-03,-2.57056e-01,-3.28811e-01,-1.86907e-02,5.80513e-02,-3.67770e-03,-5.25243e-01,-5.35333e-02,-5.40607e-02,-1.13727e-04,-6.00191e-01,-7.55284e-01,-2.12854e-02,3.91472e-02,-1.24273e+00,-1.13163e-01,6.59461e-01,-3.44268e-01,2.42525e-02,1.24641e-01,9.33262e-03,1.66239e-01,-4.83533e-02,1.57779e-01,5.74121e-01,3.62451e-05,2.00977e-01,2.59665e-01,-9.49456e-02,-6.01164e-02,3.48035e-01,4.60879e-02,1.11787e-02,1.39409e-01,2.54465e-02,-8.54893e-02,3.01785e-01,4.25397e-02,1.13075e-01,2.01118e-04,2.12154e-01,-1.23327e-08,1.19579e-02,7.16850e-01,1.85577e-02,-1.50681e-01,-8.12755e-05,9.64211e-03,-8.34565e-01,-1.38848e-04,3.28721e-04,1.41878e-01,-4.00440e-01,-4.99547e-02,1.83269e-02,
6.73410e-01,-1.04221e-04,6.54658e-05,-6.50530e-02,-1.72923e-02,-2.47140e-02,-1.21474e-02,4.17379e-02,5.94984e-02,-6.61551e-03,-1.20868e+00,-7.19582e-01,6.94048e-01,-2.33951e-01,4.30558e-03,-9.53605e-01,-7.69775e-01,-6.28957e-01,1.42042e-04,4.92116e-01,5.40183e-03,2.90482e-01,1.91022e-02,-1.60629e-04,-1.65166e-04,3.44959e-01,5.64003e-02,-2.92402e-01,8.15821e-02,-1.17471e-02,3.53090e-02,-1.52582e-01,-3.25183e-01,1.65328e-02,-9.21462e-05,-6.94482e-01,1.71787e-01,-5.36224e-02,3.18768e-03,-4.47024e-01,-1.08480e-01,-3.24109e-02,-8.53978e-02,2.10616e-01,-1.25595e-01,3.63887e-02,2.12661e-01,1.31531e-01,8.06000e-05,-8.91605e-02,5.03096e-04,-1.44613e-01,1.58638e-01,6.57290e-02,-1.53516e-02,2.87504e-05,5.02275e-01,1.18364e-01,-3.01108e-04,-3.75428e-05,-6.48473e-01,-3.69746e-01,-4.90342e-02,2.83595e-02,
-2.52544e-01,7.53250e-05,-2.47563e-04,-2.79124e-02,1.34019e-02,-1.43684e-01,-1.40142e-01,9.73170e-02,5.41500e-01,1.01295e-02,-3.51700e-01,-2.53454e-01,-4.86374e-02,1.62539e-01,-4.70374e-01,5.29230e-01,-3.51003e-01,1.28978e-01,-2.45215e-05,2.23660e-02,-1.30084e-01,-1.18211e+00,-2.87252e-02,1.24250e-01,-1.39745e-01,-6.55296e-01,-5.64303e-02,-1.17061e+00,1.46139e-01,-4.90530e-02,1.59537e-01,2.40514e-01,5.52493e-02,-4.85912e-01,-8.66851e-05,-4.73159e-01,-2.24378e-01,-3.01892e-01,-2.60862e-01,-1.87080e-01,-1.36909e-01,-3.14533e-03,-2.50242e-01,-2.86938e-01,8.81159e-03,3.11441e-01,-1.42155e+00,-2.97606e-01,1.59234e-04,-7.56155e-02,-2.46958e-04,1.88853e-01,-1.05412e-01,1.38567e-01,9.60375e-02,-3.94439e-05,-1.56079e-01,-2.54368e-01,-3.25814e-04,-7.97504e-05,-8.39318e-03,1.04148e-01,2.68458e-01,4.35943e-01,
9.82654e-02,-1.54659e-04,2.28857e-04,-7.22048e-02,-1.12948e-01,-5.83212e-01,-5.87420e-01,1.61422e-02,4.94247e-01,1.46399e-01,-5.71093e-01,-8.06310e-01,3.54132e-02,-9.98419e-03,-1.57908e-02,-1.60483e-01,-4.37288e-02,3.25493e-02,7.96325e-05,-5.43317e-01,4.74954e-01,-7.55723e-01,-6.36245e-02,-2.91587e-01,8.90964e-02,2.14642e-01,-4.50625e-02,-1.38660e+00,2.91784e-01,3.81837e-01,-3.90522e-01,2.77112e-02,-1.58577e-01,-8.48018e-03,4.71134e-05,-5.59848e-02,-1.05872e+00,1.24940e-01,-7.77088e-01,-1.71611e-01,-4.55364e-02,2.62230e-02,1.76212e-01,-4.20772e-02,-7.46932e-02,-4.99810e-03,-1.61874e-01,1.53169e-02,2.71780e-05,-9.66044e-02,-1.40208e-06,2.47702e-01,-2.15707e-01,2.34405e-02,-4.39088e-01,-6.11566e-05,3.41944e-01,2.71616e-01,-2.46452e-05,9.26588e-05,3.98759e-02,-5.65679e-01,1.82930e-01,-4.76993e-02,
7.78946e-02,-6.06624e-05,1.96911e-04,-8.41857e-02,-4.73479e-03,-7.98775e-02,-1.72559e-01,1.86516e-01,9.85810e-03,1.75256e-02,4.43084e-01,4.76946e-01,-7.48417e-03,5.08127e-02,2.53158e-02,1.75248e-01,-2.52022e-01,1.84729e-01,-7.36451e-06,-4.76517e-03,-2.54160e-01,-9.55116e-04,1.90308e-01,2.21707e-01,3.24675e-02,2.60418e-01,-4.20305e-01,7.13708e-01,-3.08432e-01,-1.40836e-01,8.61514e-02,-1.06791e-01,-1.62326e-01,-3.63946e-02,3.23765e-05,-7.11143e-02,-1.06111e-01,2.27051e-01,1.46976e-01,1.70444e-01,-5.67352e-02,2.56916e-01,-9.59427e-01,-1.46007e-01,-4.16486e-01,5.38678e-01,3.31070e-01,1.14510e-01,2.04642e-04,-1.49490e-01,3.38794e-06,-2.22245e-01,4.52600e-01,-7.40377e-01,-2.31113e-01,-3.66659e-04,1.34193e-01,-1.25115e+00,-1.42897e-04,-2.92679e-04,1.97537e-01,-6.86385e-02,-2.32577e-01,2.78342e-01,
-1.32767e-01,-3.28688e-04,-1.74782e-04,6.95295e-02,3.71229e-02,2.10465e-01,3.81175e-02,-8.49790e-01,-1.77358e-01,-4.93331e-01,-9.68101e-02,-1.63096e-01,-5.65501e-02,1.89799e-01,4.70139e-01,-8.04992e-01,2.06558e-01,1.68438e-01,3.50264e-04,-8.40072e-01,-4.11010e-01,1.08140e-01,1.19426e-03,-8.48294e-02,1.76465e-01,-2.41309e-01,-2.79429e-01,-1.58865e-01,-1.17682e-01,-4.84651e-01,-3.23709e-03,-4.72232e-01,1.31130e-01,-3.26269e-01,9.93126e-05,-3.30292e-02,2.80837e-01,1.20470e-02,9.51193e-02,1.10826e-01,-7.63049e-03,6.20779e-02,-1.99520e-01,6.22440e-02,-5.60250e-01,1.82427e-01,-4.06248e-02,1.02566e-03,-3.49312e-04,-7.45083e-01,-1.57533e-04,1.36455e-01,-6.17193e-02,2.87205e-01,2.24133e-01,-1.29657e-05,9.82779e-02,8.09705e-01,-8.89287e-05,-1.56172e-05,6.78854e-02,2.48694e-02,-7.43833e-02,1.00902e-02,
-5.30141e-01,6.18137e-05,1.15065e-04,-4.44542e-01,8.37930e-02,-2.18465e+00,-3.15203e-01,-2.49176e-01,2.46704e-01,-2.28790e+00,-2.13944e-01,7.71518e-03,-8.84805e-01,-4.73568e-01,-3.25981e-01,9.62476e-02,-1.90853e+00,4.32534e-02,-1.29818e-05,1.37870e-01,-3.15454e-01,-1.59951e+00,-1.09929e+00,-2.19618e-01,-2.81935e+00,-1.51988e-01,5.81114e-03,-2.16166e+00,5.10646e-01,5.68330e-02,-7.93924e-01,4.28958e-01,-1.83551e-01,7.76585e-02,-2.13776e-04,-1.36390e-01,1.28906e-01,4.29492e-01,-3.01375e+00,4.47603e-02,-1.38913e+00,-1.30789e+00,-3.36843e-01,4.90589e-01,6.20914e-01,2.71016e-01,5.97700e-02,-1.24999e+00,-2.49669e-04,-4.83843e-02,1.75788e-04,-1.90431e-01,-7.23490e-02,1.32601e-01,-1.53171e-01,-7.07608e-05,-3.47989e-01,-9.57481e-03,-2.09470e-04,-1.94344e-05,-4.38628e-01,9.61563e-02,-1.89075e-01,1.59893e-01,
6.17356e-03,-1.68853e-05,-9.04820e-06,-7.73805e-01,1.04680e-02,-2.83042e-02,-1.12237e-03,2.34817e-04,-1.20937e+00,-3.98112e-02,-5.60407e-01,-1.39955e-01,2.54878e-01,7.78977e-02,3.70546e-01,-5.97354e-02,2.67885e-01,-4.19690e-01,-1.14618e-04,8.15657e-01,2.78796e-01,-8.37406e-04,5.01093e-02,6.85108e-01,-6.34257e-03,6.47950e-01,-1.47204e+00,3.42400e-03,2.93658e-02,-8.00582e-02,-1.67961e-02,-4.96850e-01,-2.52887e-02,2.25276e-02,1.56919e-04,-6.42115e-02,2.34187e-03,-5.44829e-01,5.50005e-01,-4.17014e-02,1.67193e-01,-2.07862e-01,4.74615e-02,-2.74330e-01,4.29695e-01,-5.87373e-01,2.17622e-02,-1.44160e-01,-3.00954e-05,-1.55649e-01,-1.45668e-04,-3.34157e-01,1.25405e-02,8.04298e-03,6.96969e-01,3.23647e-05,3.06009e-01,3.04041e-01,1.01881e-04,-2.12297e-05,-2.66839e-01,3.10661e-03,-6.17040e-02,-1.10207e-01,
2.09624e-01,-5.35311e-05,-2.84787e-04,2.70719e-01,1.10122e-01,7.78257e-01,-3.18352e-01,-2.54215e-01,4.80106e-01,-2.21729e-02,-8.36631e-03,-8.89799e-01,1.00893e+00,-1.23966e-01,1.20553e-01,-3.28137e-01,-4.22715e-01,-2.05226e-01,1.74451e-04,5.53468e-01,7.26187e-01,1.40781e-01,1.14721e-02,6.69305e-01,1.50418e-01,-2.18236e-01,5.09697e-02,2.84199e-01,2.29147e-01,-3.18885e-01,-3.61660e-02,-4.65979e-01,2.49473e-01,-1.30790e-01,-1.83099e-04,-1.54995e-02,1.64451e-01,-5.05036e-02,2.25883e-01,-1.37807e-01,8.95364e-02,1.30738e-01,4.76509e-01,5.06677e-02,-2.76049e-01,-2.30859e-02,2.60871e-01,6.97230e-01,9.71009e-05,2.44289e-01,1.03169e-04,-2.32272e-02,-6.17708e-01,1.07119e-01,3.44646e-02,-1.35797e-04,2.09375e-02,3.17729e-01,1.78897e-04,-1.55719e-04,2.54120e-01,4.87026e-01,2.11787e-01,-7.42089e-03,
1.69914e-01,-6.90350e-05,2.83558e-04,1.57621e-02,-4.96983e-03,-6.21189e-01,1.20195e-02,6.02097e-01,-2.14591e-01,-1.89632e-02,2.16262e-02,-7.20894e-02,-2.05409e-01,-3.70189e-02,2.19546e-01,-1.21382e+00,6.69802e-02,2.68486e-02,1.64625e-04,1.68869e-01,-7.39750e-03,3.87260e-01,8.54522e-02,1.94270e-01,9.76048e-02,-4.55561e-02,5.38718e-02,-4.46773e-03,1.53899e-01,-1.23629e+00,8.37452e-02,-2.83911e-02,7.37749e-02,-7.16120e-02,2.23843e-05,-3.76813e-01,-1.99793e-01,-8.92217e-02,-4.65769e-02,-4.23253e-01,-1.41557e-01,1.67668e-01,-1.81141e-01,2.42909e-01,-9.75075e-02,-7.14440e-01,-1.41471e-01,2.87477e-04,-2.71352e-04,-5.45506e-02,-1.78561e-05,-5.57210e-01,-1.93166e-01,-2.79966e-01,9.44285e-01,1.77861e-04,-5.31791e-02,6.35268e-02,8.44320e-05,1.87389e-05,-6.04280e-01,-8.30226e-02,-1.44734e-01,1.02059e-01,
-1.27120e-02,-2.49230e-04,-4.30182e-04,-1.31639e+00,4.71672e-02,1.77480e-01,-1.83416e-02,2.01278e-01,3.31682e-01,-9.13153e-02,-2.65088e-01,-9.12936e-01,-1.51862e-01,-1.65909e+00,-2.20413e-01,-1.61186e-01,7.55589e-03,1.50271e-01,-1.73510e-04,5.13074e-02,3.96799e-02,1.92567e-01,-1.20570e-01,1.32570e-01,3.22616e-01,-1.69741e-01,7.29080e-04,-2.87937e-01,-2.05901e-02,-3.31173e-02,2.29113e-03,2.86815e-01,2.28793e-01,-3.79970e-01,-2.22504e-04,7.88132e-02,-7.14823e-02,4.52620e-01,-3.99674e-01,-3.15277e-01,3.27796e-02,1.26514e-02,2.24226e-01,4.18197e-02,-2.21283e-01,1.14041e-01,1.52424e-01,7.41132e-01,1.16838e-04,9.36197e-02,-7.34970e-05,-2.47614e-01,-2.43358e-01,-4.21203e-02,-4.53704e-02,-1.67646e-04,3.05774e-02,-7.49563e-01,-5.61618e-05,6.69095e-05,6.23677e-01,-6.28900e-01,-6.97336e-02,-3.80425e-02,
3.71657e-01,3.11587e-04,4.78876e-05,-9.31809e-02,-4.78196e-01,-1.05857e-01,5.20203e-01,4.21923e-03,7.18581e-02,1.89627e-01,4.89679e-01,6.69697e-01,-1.10480e-01,-1.74259e-01,-5.85570e-02,7.48807e-01,-1.73192e-01,1.94760e-02,-2.67043e-04,-1.49960e+00,5.95096e-02,2.42100e-01,-4.11779e-02,-4.65510e-01,-2.08038e-02,4.11755e-01,6.88917e-02,-1.51291e-01,-7.67359e-02,5.48445e-02,-1.85941e-01,-3.84621e-03,-6.11474e-02,-1.27607e+00,7.47130e-05,-3.06263e-01,-1.45403e-01,9.43638e-02,6.65166e-01,7.51757e-02,-1.11829e-01,-3.22543e-02,2.36037e-01,-2.18912e-01,1.24555e-01,1.65221e-02,-1.81191e-01,2.37689e-01,6.35973e-05,6.87995e-02,1.33840e-04,-1.13664e-01,8.37417e-03,1.07105e-01,-2.88564e-01,-5.37015e-05,2.31037e-01,-1.74610e-01,2.37516e-06,-1.34725e-04,2.76486e-02,5.80938e-01,3.59504e-01,-8.44347e-02,
-2.40966e-01,1.38868e-04,4.72371e-04,2.10219e-01,-1.06607e-01,3.56524e-01,-4.00484e-02,-3.75635e-03,-2.27882e-02,-1.70061e-01,-4.31126e-01,4.48811e-01,7.43487e-02,-1.34261e-01,-1.63282e-01,-4.14569e-03,1.67273e-01,-1.82272e-01,5.34202e-05,-7.77883e-01,7.99927e-02,-1.84166e-01,6.37509e-02,-8.34633e-02,1.53246e-01,6.01215e-02,5.33350e-03,-1.61615e-01,-5.25798e-02,4.67269e-02,2.92740e-01,6.68681e-03,-1.35859e-01,2.95636e-01,-1.53295e-04,-1.19905e-01,5.58399e-01,-5.15903e-02,4.47580e-02,6.50734e-02,7.14333e-02,3.88988e-02,1.21699e-01,6.32425e-02,-2.66459e-01,7.19240e-02,-2.19606e-01,1.43737e-01,1.53474e-05,9.62978e-02,-1.01495e-04,7.12490e-01,-9.50835e-02,-5.36388e-01,1.87427e-02,1.40079e-04,-1.06796e-01,-1.90116e-01,4.36479e-05,-7.02965e-05,-5.11424e-02,-7.91714e-01,3.73314e-01,8.22806e-02,
1.20796e-01,-8.71510e-06,-8.50378e-10,2.30925e-02,-6.56803e-01,-4.76713e-01,-8.30947e-01,-5.02370e-01,4.42281e-01,-3.03399e-01,3.24016e-01,-1.80557e+00,-1.44576e-01,-2.14551e-01,-9.39162e-01,4.24142e-01,2.70621e-01,-6.82347e-02,-9.30869e-05,-3.47897e-01,1.21384e-01,-3.58611e-02,-6.49676e-02,-5.66562e-01,-7.21720e-02,-3.36351e-04,1.39955e-01,-8.29097e-03,-1.04341e-02,4.95924e-02,-2.07530e-01,-1.08032e-01,-2.33162e-01,3.55979e-02,-3.32073e-05,-4.21347e-01,-5.21451e-01,-5.67944e-02,-1.25966e-02,-2.43512e-01,-1.05126e-02,4.75023e-02,7.63807e-02,-1.06744e-03,3.25878e-02,-5.15630e-01,-1.24346e-01,2.32647e-01,-1.75043e-04,1.42673e-02,-5.02798e-05,-2.46889e-01,-3.04070e-02,-2.76906e-01,-8.23801e-01,-1.14397e-04,1.59019e-02,1.92885e-01,5.40662e-05,-3.41289e-04,4.07687e-01,-8.10844e-02,3.91648e-02,1.86062e-01,
3.86610e-01,-6.30436e-06,-1.72869e-05,1.14457e-01,-8.04400e-01,2.25300e-02,-5.99584e-02,-3.73551e-02,-6.26673e-02,-1.38678e-02,-3.18291e-01,-9.95623e-02,2.83098e-01,4.62008e-02,-2.45817e-01,1.05568e+00,1.26502e-01,-1.19925e-01,-7.44474e-05,-9.61078e-02,-1.62814e-01,3.03262e-01,4.13379e-01,-4.04295e-01,2.73385e-01,-1.18166e-01,-4.76500e-01,6.79256e-01,-4.35602e-01,3.82123e-01,1.20196e-01,-3.03196e-01,-1.77606e-02,6.03124e-01,-2.58365e-05,1.78703e-01,-5.98378e-01,1.79705e-03,-5.08342e-02,7.99932e-03,-3.43840e-01,8.02938e-02,-4.66035e-02,-3.00948e-01,-8.03974e-01,1.95607e-01,1.92549e-01,6.15660e-02,-7.48447e-06,-3.18490e-03,-4.32432e-04,-2.98148e-01,-4.33958e-02,-3.44938e-01,-8.19943e-03,8.24212e-05,5.71040e-02,-4.85436e-01,5.48547e-05,5.06311e-05,-5.54112e-02,-6.68937e-01,1.27069e-01,3.64278e-01,
-7.15786e-02,-1.10095e-04,8.74991e-05,-7.16667e-02,-4.11532e-01,-1.20475e-01,1.03088e-01,-3.00784e-01,1.23272e-02,4.49781e-01,5.38806e-01,8.59767e-01,4.03310e-01,-3.36542e-01,-4.96550e-01,4.48839e-01,5.06576e-02,4.78792e-02,3.23306e-04,1.42233e-01,-3.09083e-01,-4.67786e-03,-5.38220e-02,-2.36683e-01,-7.20321e-01,8.04565e-01,4.05681e-01,-1.45638e-02,9.47661e-02,-1.40664e-02,-2.39369e-01,1.31335e-01,-2.08135e-02,-1.42655e-02,9.75708e-05,-7.37001e-03,1.40215e-01,1.11361e-01,-1.11963e+00,1.79192e-03,-1.07825e-01,-2.39165e-02,4.97069e-03,1.00043e-01,9.38806e-02,-1.53140e-01,-1.29240e-01,-8.45911e-01,5.40321e-05,2.14459e-01,2.71491e-04,1.13941e-02,-3.64157e-02,-1.18302e+00,1.38608e-02,8.91080e-05,-3.59364e-01,-1.31785e-01,2.24536e-04,-7.43397e-05,3.84647e-02,6.75182e-01,-2.10751e-03,-1.15326e-01,
2.95039e-01,-4.64444e-05,-7.39399e-05,4.21245e-01,6.51130e-01,-9.98728e-02,4.53605e-01,-1.19992e-01,-2.31053e-02,1.44484e-01,1.04562e-02,-4.85606e-03,-4.03030e-01,2.01026e-02,2.54327e-01,4.71449e-02,2.85533e-01,-3.56901e-03,1.53698e-04,-5.55534e-03,1.66599e-02,-1.11661e-02,2.15026e-01,1.43116e-01,2.22978e-01,-2.25592e-01,-1.92027e-01,-1.01291e-01,-3.35159e-01,1.12975e-02,4.11418e-01,-5.19637e-02,3.02627e-02,-3.05567e-01,1.91200e-04,-7.58345e-02,6.17898e-02,-2.52411e-02,7.86892e-02,-1.63065e-01,4.35985e-01,-1.45161e-02,1.72093e-01,-7.22669e-01,-4.19298e-01,-4.44031e-01,2.73723e-01,2.52082e-01,-2.70622e-04,1.40360e-01,-3.27961e-04,3.18250e-02,2.82310e-02,-9.04892e-02,-2.74356e-02,2.29729e-05,-3.55671e-01,-9.02991e-03,-1.94541e-04,-1.59799e-04,6.79573e-01,-1.86836e-01,1.06608e-01,-2.32041e-01,
1.03760e+00,-1.80089e-04,2.88115e-05,-1.87938e-02,-5.54271e-02,1.80443e-02,-3.29497e-01,-1.84313e-01,-6.23625e-01,2.48795e-01,-4.88219e-01,1.21420e-02,-7.11292e-02,1.33941e-01,5.27708e-01,-3.82991e-01,-8.55558e-02,-9.41928e-02,-3.85982e-05,-3.30655e-01,4.89170e-01,2.56023e-01,-4.11481e-02,2.05743e-02,2.78414e-01,5.48365e-03,3.57859e-02,-7.51455e-02,2.70784e-02,3.11749e-02,2.38583e-01,-8.57331e-02,-3.62906e-01,-6.36884e-01,5.21337e-05,-1.91912e-01,1.97678e-01,-2.94315e-02,4.07412e-01,2.07346e-01,6.55592e-02,-2.27810e-01,1.86162e-02,2.96749e-01,-9.40521e-02,-3.65588e-02,4.69397e-02,8.50050e-01,2.24519e-04,-5.89112e-02,-1.49483e-04,1.94247e-01,3.16290e-01,5.44238e-01,1.10160e-02,-8.45729e-05,4.17460e-01,1.76955e-01,1.95708e-04,-9.79025e-05,-1.84061e-01,-4.42916e-01,2.98866e-01,-1.69122e-01,
-4.60162e-01,3.24088e-04,-6.16844e-05,7.01968e-02,-3.65805e-01,8.39983e-02,-4.81646e-01,-2.91055e-01,4.08122e-01,-1.17447e-02,2.35681e-01,3.78003e-01,1.97678e-01,-3.07939e-02,2.70085e-01,1.81495e-01,1.03708e-01,5.72659e-02,-4.79761e-05,-2.67236e-01,1.89804e-02,4.28468e-03,5.86246e-02,-2.39253e-01,-1.54486e-01,-3.08663e-01,-1.40226e-01,5.48281e-02,-6.27338e-01,-1.68796e+00,6.03781e-02,-2.75788e-02,-5.38058e-03,-2.15886e+00,3.29484e-04,1.77144e-01,-1.16969e+00,-1.81255e-01,-3.27951e-01,1.37511e-01,-3.33425e-02,9.70910e-02,-1.44685e-02,-4.08539e-01,4.04334e-02,-2.17896e-01,-3.89321e-01,3.02805e-02,4.93975e-05,1.01919e-01,1.36427e-04,5.15782e-01,2.95767e-01,-1.97826e-01,-1.27865e+00,1.50635e-04,2.83326e-01,1.82453e-02,3.48022e-05,8.80241e-05,5.06893e-01,-2.59959e-01,-4.84292e-02,1.57764e-01,
-5.68891e-03,-2.83084e-05,-1.09223e-04,-3.35988e-01,-2.84197e-02,1.07417e+00,1.44637e-02,-3.85627e-01,-3.13830e-04,1.79214e-02,-1.91592e-01,-1.96913e-03,-2.37968e-01,3.19340e-01,-3.07346e-02,2.17380e-03,6.74138e-02,5.18262e-01,2.18199e-05,1.90024e-03,-2.30397e-01,-3.62894e-01,-6.77458e-02,-6.94970e-01,-5.43532e-01,3.90839e-03,-2.54839e-01,2.32094e-01,-1.02339e-02,1.73296e-02,-4.95791e-01,-7.92135e-03,-4.77590e-02,2.79996e-02,2.74853e-05,1.09238e-01,7.05062e-05,-2.09517e-01,-2.93121e-02,2.11294e-02,-4.07015e-01,-1.11494e+00,-8.74071e-01,3.35773e-02,-1.03610e-04,2.86931e-01,-1.52077e-01,-4.45385e-01,3.11205e-04,-6.44539e-01,1.46946e-04,-7.72108e-02,-1.97435e-01,4.68891e-04,-3.58500e-01,-3.13557e-05,-3.02993e-01,9.70231e-03,2.03138e-04,1.46759e-05,-1.80120e-02,2.20139e+00,9.10032e-02,-3.00082e-02,
-8.34506e-01,2.34539e-05,-6.43070e-05,-8.51323e-03,-1.80195e+00,1.31476e-01,-5.56809e-02,-9.01003e-01,-2.05314e-01,2.07873e-01,-1.45027e-01,5.94015e-03,-8.94277e-01,-1.01546e-03,4.62120e-02,-6.08895e-02,-2.19793e-01,-1.98983e-02,1.14945e-04,-2.06475e-02,1.34779e-01,1.62058e-02,6.36667e-02,-4.26864e-02,-1.07240e+00,-5.88570e-02,2.80217e-02,2.32530e-01,-1.56223e-01,-5.54632e-02,4.35443e-01,-2.38523e-01,3.30238e-02,-3.35036e-01,6.01568e-05,-1.72424e-02,-4.26485e-01,2.42677e-01,-2.23539e-01,2.59676e-01,2.19160e-01,-1.29190e+00,-7.13740e-02,-1.15173e-01,-2.03336e-01,1.53486e-01,-1.11538e-01,5.41131e-03,-8.40789e-05,-9.97110e-02,2.36547e-04,4.65032e-01,-6.87098e-01,7.78965e-03,-2.06787e-01,-1.88482e-05,-1.47078e-01,4.25029e-01,1.79900e-04,1.18979e-04,-2.32077e-01,-6.31805e-01,-6.32151e-01,-8.18219e-02,
5.31081e-01,-5.82617e-05,-5.04538e-05,-6.51620e-02,1.73326e-01,-3.45179e-01,-9.19875e-03,2.75985e-01,-1.63892e-01,-1.37007e-01,3.65229e-01,-2.07752e-01,-1.67464e-01,-1.48697e-03,-1.27736e+00,-1.31501e-01,1.17518e-01,-4.80841e-02,-6.86072e-05,-3.81737e-01,-6.43759e-02,7.28954e-02,-1.51442e-02,-1.07445e-01,1.60958e-01,-2.53219e-03,-1.94154e-01,-5.23704e-02,5.64540e-01,2.03817e-01,1.06548e-01,1.65965e-01,-2.17452e-01,3.69196e-01,-9.13496e-09,2.15527e-01,2.87349e-01,-3.80841e-02,8.14710e-01,-1.46299e-01,-1.29610e-01,1.32725e-01,3.89586e-01,-8.67568e-02,-1.01514e-01,2.02635e-02,-3.34361e-03,1.27159e-01,4.58165e-05,-1.77086e-02,-2.38893e-04,-9.48436e-02,-1.43368e-01,-3.89991e-02,-2.94318e-01,8.00932e-05,5.31058e-02,2.81165e-01,1.20050e-04,1.81269e-04,-6.73464e-01,-1.54969e+00,3.03998e-02,-9.61058e-02,
